{"learner":{"attributes":{"scikit_learn":"{\"_estimator_type\": \"regressor\"}"},"feature_names":["1p","2p","3p","4p","5p","6p"],"feature_types":["int","int","int","int","int","int"],"gradient_booster":{"model":{"gbtree_model_param":{"num_parallel_tree":"1","num_trees":"2400"},"iteration_indptr":[0,6,12,18,24,30,36,42,48,54,60,66,72,78,84,90,96,102,108,114,120,126,132,138,144,150,156,162,168,174,180,186,192,198,204,210,216,222,228,234,240,246,252,258,264,270,276,282,288,294,300,306,312,318,324,330,336,342,348,354,360,366,372,378,384,390,396,402,408,414,420,426,432,438,444,450,456,462,468,474,480,486,492,498,504,510,516,522,528,534,540,546,552,558,564,570,576,582,588,594,600,606,612,618,624,630,636,642,648,654,660,666,672,678,684,690,696,702,708,714,720,726,732,738,744,750,756,762,768,774,780,786,792,798,804,810,816,822,828,834,840,846,852,858,864,870,876,882,888,894,900,906,912,918,924,930,936,942,948,954,960,966,972,978,984,990,996,1002,1008,1014,1020,1026,1032,1038,1044,1050,1056,1062,1068,1074,1080,1086,1092,1098,1104,1110,1116,1122,1128,1134,1140,1146,1152,1158,1164,1170,1176,1182,1188,1194,1200,1206,1212,1218,1224,1230,1236,1242,1248,1254,1260,1266,1272,1278,1284,1290,1296,1302,1308,1314,1320,1326,1332,1338,1344,1350,1356,1362,1368,1374,1380,1386,1392,1398,1404,1410,1416,1422,1428,1434,1440,1446,1452,1458,1464,1470,1476,1482,1488,1494,1500,1506,1512,1518,1524,1530,1536,1542,1548,1554,1560,1566,1572,1578,1584,1590,1596,1602,1608,1614,1620,1626,1632,1638,1644,1650,1656,1662,1668,1674,1680,1686,1692,1698,1704,1710,1716,1722,1728,1734,1740,1746,1752,1758,1764,1770,1776,1782,1788,1794,1800,1806,1812,1818,1824,1830,1836,1842,1848,1854,1860,1866,1872,1878,1884,1890,1896,1902,1908,1914,1920,1926,1932,1938,1944,1950,1956,1962,1968,1974,1980,1986,1992,1998,2004,2010,2016,2022,2028,2034,2040,2046,2052,2058,2064,2070,2076,2082,2088,2094,2100,2106,2112,2118,2124,2130,2136,2142,2148,2154,2160,2166,2172,2178,2184,2190,2196,2202,2208,2214,2220,2226,2232,2238,2244,2250,2256,2262,2268,2274,2280,2286,2292,2298,2304,2310,2316,2322,2328,2334,2340,2346,2352,2358,2364,2370,2376,2382,2388,2394,2400],"tree_info":[0,1,2,3,4,5,0,1,2,3,4,5,0,1,2,3,4,5,0,1,2,3,4,5,0,1,2,3,4,5,0,1,2,3,4,5,0,1,2,3,4,5,0,1,2,3,4,5,0,1,2,3,4,5,0,1,2,3,4,5,0,1,2,3,4,5,0,1,2,3,4,5,0,1,2,3,4,5,0,1,2,3,4,5,0,1,2,3,4,5,0,1,2,3,4,5,0,1,2,3,4,5,0,1,2,3,4,5,0,1,2,3,4,5,0,1,2,3,4,5,0,1,2,3,4,5,0,1,2,3,4,5,0,1,2,3,4,5,0,1,2,3,4,5,0,1,2,3,4,5,0,1,2,3,4,5,0,1,2,3,4,5,0,1,2,3,4,5,0,1,2,3,4,5,0,1,2,3,4,5,0,1,2,3,4,5,0,1,2,3,4,5,0,1,2,3,4,5,0,1,2,3,4,5,0,1,2,3,4,5,0,1,2,3,4,5,0,1,2,3,4,5,0,1,2,3,4,5,0,1,2,3,4,5,0,1,2,3,4,5,0,1,2,3,4,5,0,1,2,3,4,5,0,1,2,3,4,5,0,1,2,3,4,5,0,1,2,3,4,5,0,1,2,3,4,5,0,1,2,3,4,5,0,1,2,3,4,5,0,1,2,3,4,5,0,1,2,3,4,5,0,1,2,3,4,5,0,1,2,3,4,5,0,1,2,3,4,5,0,1,2,3,4,5,0,1,2,3,4,5,0,1,2,3,4,5,0,1,2,3,4,5,0,1,2,3,4,5,0,1,2,3,4,5,0,1,2,3,4,5,0,1,2,3,4,5,0,1,2,3,4,5,0,1,2,3,4,5,0,1,2,3,4,5,0,1,2,3,4,5,0,1,2,3,4,5,0,1,2,3,4,5,0,1,2,3,4,5,0,1,2,3,4,5,0,1,2,3,4,5,0,1,2,3,4,5,0,1,2,3,4,5,0,1,2,3,4,5,0,1,2,3,4,5,0,1,2,3,4,5,0,1,2,3,4,5,0,1,2,3,4,5,0,1,2,3,4,5,0,1,2,3,4,5,0,1,2,3,4,5,0,1,2,3,4,5,0,1,2,3,4,5,0,1,2,3,4,5,0,1,2,3,4,5,0,1,2,3,4,5,0,1,2,3,4,5,0,1,2,3,4,5,0,1,2,3,4,5,0,1,2,3,4,5,0,1,2,3,4,5,0,1,2,3,4,5,0,1,2,3,4,5,0,1,2,3,4,5,0,1,2,3,4,5,0,1,2,3,4,5,0,1,2,3,4,5,0,1,2,3,4,5,0,1,2,3,4,5,0,1,2,3,4,5,0,1,2,3,4,5,0,1,2,3,4,5,0,1,2,3,4,5,0,1,2,3,4,5,0,1,2,3,4,5,0,1,2,3,4,5,0,1,2,3,4,5,0,1,2,3,4,5,0,1,2,3,4,5,0,1,2,3,4,5,0,1,2,3,4,5,0,1,2,3,4,5,0,1,2,3,4,5,0,1,2,3,4,5,0,1,2,3,4,5,0,1,2,3,4,5,0,1,2,3,4,5,0,1,2,3,4,5,0,1,2,3,4,5,0,1,2,3,4,5,0,1,2,3,4,5,0,1,2,3,4,5,0,1,2,3,4,5,0,1,2,3,4,5,0,1,2,3,4,5,0,1,2,3,4,5,0,1,2,3,4,5,0,1,2,3,4,5,0,1,2,3,4,5,0,1,2,3,4,5,0,1,2,3,4,5,0,1,2,3,4,5,0,1,2,3,4,5,0,1,2,3,4,5,0,1,2,3,4,5,0,1,2,3,4,5,0,1,2,3,4,5,0,1,2,3,4,5,0,1,2,3,4,5,0,1,2,3,4,5,0,1,2,3,4,5,0,1,2,3,4,5,0,1,2,3,4,5,0,1,2,3,4,5,0,1,2,3,4,5,0,1,2,3,4,5,0,1,2,3,4,5,0,1,2,3,4,5,0,1,2,3,4,5,0,1,2,3,4,5,0,1,2,3,4,5,0,1,2,3,4,5,0,1,2,3,4,5,0,1,2,3,4,5,0,1,2,3,4,5,0,1,2,3,4,5,0,1,2,3,4,5,0,1,2,3,4,5,0,1,2,3,4,5,0,1,2,3,4,5,0,1,2,3,4,5,0,1,2,3,4,5,0,1,2,3,4,5,0,1,2,3,4,5,0,1,2,3,4,5,0,1,2,3,4,5,0,1,2,3,4,5,0,1,2,3,4,5,0,1,2,3,4,5,0,1,2,3,4,5,0,1,2,3,4,5,0,1,2,3,4,5,0,1,2,3,4,5,0,1,2,3,4,5,0,1,2,3,4,5,0,1,2,3,4,5,0,1,2,3,4,5,0,1,2,3,4,5,0,1,2,3,4,5,0,1,2,3,4,5,0,1,2,3,4,5,0,1,2,3,4,5,0,1,2,3,4,5,0,1,2,3,4,5,0,1,2,3,4,5,0,1,2,3,4,5,0,1,2,3,4,5,0,1,2,3,4,5,0,1,2,3,4,5,0,1,2,3,4,5,0,1,2,3,4,5,0,1,2,3,4,5,0,1,2,3,4,5,0,1,2,3,4,5,0,1,2,3,4,5,0,1,2,3,4,5,0,1,2,3,4,5,0,1,2,3,4,5,0,1,2,3,4,5,0,1,2,3,4,5,0,1,2,3,4,5,0,1,2,3,4,5,0,1,2,3,4,5,0,1,2,3,4,5,0,1,2,3,4,5,0,1,2,3,4,5,0,1,2,3,4,5,0,1,2,3,4,5,0,1,2,3,4,5,0,1,2,3,4,5,0,1,2,3,4,5,0,1,2,3,4,5,0,1,2,3,4,5,0,1,2,3,4,5,0,1,2,3,4,5,0,1,2,3,4,5,0,1,2,3,4,5,0,1,2,3,4,5,0,1,2,3,4,5,0,1,2,3,4,5,0,1,2,3,4,5,0,1,2,3,4,5,0,1,2,3,4,5,0,1,2,3,4,5,0,1,2,3,4,5,0,1,2,3,4,5,0,1,2,3,4,5,0,1,2,3,4,5,0,1,2,3,4,5,0,1,2,3,4,5,0,1,2,3,4,5,0,1,2,3,4,5,0,1,2,3,4,5,0,1,2,3,4,5,0,1,2,3,4,5,0,1,2,3,4,5,0,1,2,3,4,5,0,1,2,3,4,5,0,1,2,3,4,5,0,1,2,3,4,5,0,1,2,3,4,5,0,1,2,3,4,5,0,1,2,3,4,5,0,1,2,3,4,5,0,1,2,3,4,5,0,1,2,3,4,5,0,1,2,3,4,5,0,1,2,3,4,5,0,1,2,3,4,5,0,1,2,3,4,5,0,1,2,3,4,5,0,1,2,3,4,5,0,1,2,3,4,5,0,1,2,3,4,5,0,1,2,3,4,5,0,1,2,3,4,5,0,1,2,3,4,5,0,1,2,3,4,5,0,1,2,3,4,5,0,1,2,3,4,5,0,1,2,3,4,5,0,1,2,3,4,5,0,1,2,3,4,5,0,1,2,3,4,5,0,1,2,3,4,5,0,1,2,3,4,5,0,1,2,3,4,5,0,1,2,3,4,5,0,1,2,3,4,5,0,1,2,3,4,5,0,1,2,3,4,5,0,1,2,3,4,5,0,1,2,3,4,5,0,1,2,3,4,5,0,1,2,3,4,5,0,1,2,3,4,5,0,1,2,3,4,5,0,1,2,3,4,5,0,1,2,3,4,5,0,1,2,3,4,5,0,1,2,3,4,5,0,1,2,3,4,5,0,1,2,3,4,5,0,1,2,3,4,5,0,1,2,3,4,5,0,1,2,3,4,5,0,1,2,3,4,5,0,1,2,3,4,5,0,1,2,3,4,5,0,1,2,3,4,5,0,1,2,3,4,5,0,1,2,3,4,5,0,1,2,3,4,5,0,1,2,3,4,5,0,1,2,3,4,5,0,1,2,3,4,5,0,1,2,3,4,5,0,1,2,3,4,5,0,1,2,3,4,5,0,1,2,3,4,5,0,1,2,3,4,5,0,1,2,3,4,5,0,1,2,3,4,5,0,1,2,3,4,5,0,1,2,3,4,5,0,1,2,3,4,5,0,1,2,3,4,5,0,1,2,3,4,5,0,1,2,3,4,5,0,1,2,3,4,5,0,1,2,3,4,5,0,1,2,3,4,5,0,1,2,3,4,5,0,1,2,3,4,5,0,1,2,3,4,5,0,1,2,3,4,5,0,1,2,3,4,5,0,1,2,3,4,5,0,1,2,3,4,5,0,1,2,3,4,5,0,1,2,3,4,5,0,1,2,3,4,5,0,1,2,3,4,5,0,1,2,3,4,5,0,1,2,3,4,5,0,1,2,3,4,5,0,1,2,3,4,5,0,1,2,3,4,5,0,1,2,3,4,5,0,1,2,3,4,5,0,1,2,3,4,5,0,1,2,3,4,5,0,1,2,3,4,5,0,1,2,3,4,5,0,1,2,3,4,5,0,1,2,3,4,5,0,1,2,3,4,5,0,1,2,3,4,5,0,1,2,3,4,5,0,1,2,3,4,5,0,1,2,3,4,5,0,1,2,3,4,5,0,1,2,3,4,5,0,1,2,3,4,5,0,1,2,3,4,5,0,1,2,3,4,5,0,1,2,3,4,5,0,1,2,3,4,5,0,1,2,3,4,5,0,1,2,3,4,5,0,1,2,3,4,5,0,1,2,3,4,5,0,1,2,3,4,5,0,1,2,3,4,5,0,1,2,3,4,5,0,1,2,3,4,5,0,1,2,3,4,5,0,1,2,3,4,5,0,1,2,3,4,5,0,1,2,3,4,5,0,1,2,3,4,5,0,1,2,3,4,5,0,1,2,3,4,5,0,1,2,3,4,5,0,1,2,3,4,5,0,1,2,3,4,5,0,1,2,3,4,5,0,1,2,3,4,5,0,1,2,3,4,5,0,1,2,3,4,5,0,1,2,3,4,5,0,1,2,3,4,5,0,1,2,3,4,5,0,1,2,3,4,5,0,1,2,3,4,5,0,1,2,3,4,5,0,1,2,3,4,5,0,1,2,3,4,5,0,1,2,3,4,5,0,1,2,3,4,5,0,1,2,3,4,5,0,1,2,3,4,5,0,1,2,3,4,5,0,1,2,3,4,5,0,1,2,3,4,5,0,1,2,3,4,5,0,1,2,3,4,5,0,1,2,3,4,5,0,1,2,3,4,5,0,1,2,3,4,5,0,1,2,3,4,5,0,1,2,3,4,5,0,1,2,3,4,5,0,1,2,3,4,5,0,1,2,3,4,5,0,1,2,3,4,5,0,1,2,3,4,5,0,1,2,3,4,5,0,1,2,3,4,5,0,1,2,3,4,5,0,1,2,3,4,5],"trees":[{"base_weights":[-1.7798655E-1,-1.5270245E0,8.519387E-1,-3.2195054E-2,-1.5420309E-2,2.4708365E-3,2.386126E-2],"categories":[],"categories_nodes":[],"categories_segments":[],"categories_sizes":[],"default_left":[0,0,0,0,0,0,0],"id":0,"left_children":[1,3,5,-1,-1,-1,-1],"loss_changes":[6.612699E2,6.1455627E1,1.3682336E2,0E0,0E0,0E0,0E0],"parents":[2147483647,0,0,1,1,2,2],"right_children":[2,4,6,-1,-1,-1,-1],"split_conditions":[5E1,2.7E1,8E1,-3.2195054E-2,-1.5420309E-2,2.4708365E-3,2.386126E-2],"split_indices":[0,0,0,0,0,0,0],"split_type":[0,0,0,0,0,0,0],"sum_hessian":[4.74E2,2.05E2,2.69E2,9E1,1.15E2,1.4E2,1.29E2],"tree_param":{"num_deleted":"0","num_feature":"6","num_nodes":"7","size_leaf_vector":"1"}},{"base_weights":[8.2464504E-1,-5.4103523E-1,1.5876178E0,-1.7532201E-2,-2.4601335E-3,1.3505606E-2,3.129331E-2],"categories":[],"categories_nodes":[],"categories_segments":[],"categories_sizes":[],"default_left":[0,0,0,0,0,0,0],"id":1,"left_children":[1,3,5,-1,-1,-1,-1],"loss_changes":[4.9579794E2,4.028211E1,1.02633545E2,0E0,0E0,0E0,0E0],"parents":[2147483647,0,0,1,1,2,2],"right_children":[2,4,6,-1,-1,-1,-1],"split_conditions":[6.2E1,3.9E1,8.3E1,-1.7532201E-2,-2.4601335E-3,1.3505606E-2,3.129331E-2],"split_indices":[1,1,1,0,0,0,0],"split_type":[0,0,0,0,0,0,0],"sum_hessian":[4.74E2,1.7E2,3.04E2,6.3E1,1.07E2,1.29E2,1.75E2],"tree_param":{"num_deleted":"0","num_feature":"6","num_nodes":"7","size_leaf_vector":"1"}},{"base_weights":[-4.0361813E-1,-1.5433733E0,7.4745834E-1,-3.2940604E-2,-1.48279965E-2,3.7327274E-3,2.3607168E-2],"categories":[],"categories_nodes":[],"categories_segments":[],"categories_sizes":[],"default_left":[0,0,0,0,0,0,0],"id":2,"left_children":[1,3,5,-1,-1,-1,-1],"loss_changes":[6.243277E2,8.43772E1,9.725891E1,0E0,0E0,0E0,0E0],"parents":[2147483647,0,0,1,1,2,2],"right_children":[2,4,6,-1,-1,-1,-1],"split_conditions":[4.7E1,2.5E1,7.9E1,-3.2940604E-2,-1.48279965E-2,3.7327274E-3,2.3607168E-2],"split_indices":[2,2,2,0,0,0,0],"split_type":[0,0,0,0,0,0,0],"sum_hessian":[4.74E2,2.38E2,2.36E2,1.08E2,1.3E2,1.48E2,8.8E1],"tree_param":{"num_deleted":"0","num_feature":"6","num_nodes":"7","size_leaf_vector":"1"}},{"base_weights":[-4.6686235E-1,-1.5400834E0,6.357467E-1,-3.487395E-2,-1.5066398E-2,3.8308573E-3,2.8138582E-2],"categories":[],"categories_nodes":[],"categories_segments":[],"categories_sizes":[],"default_left":[0,0,0,0,0,0,0],"id":3,"left_children":[1,3,5,-1,-1,-1,-1],"loss_changes":[5.630672E2,9.898328E1,1.10370926E2,0E0,0E0,0E0,0E0],"parents":[2147483647,0,0,1,1,2,2],"right_children":[2,4,6,-1,-1,-1,-1],"split_conditions":[4.6E1,2.2E1,8.7E1,-3.487395E-2,-1.5066398E-2,3.8308573E-3,2.8138582E-2],"split_indices":[3,3,3,0,0,0,0],"split_type":[0,0,0,0,0,0,0],"sum_hessian":[4.74E2,2.4E2,2.34E2,9.6E1,1.44E2,1.8E2,5.4E1],"tree_param":{"num_deleted":"0","num_feature":"6","num_nodes":"7","size_leaf_vector":"1"}},{"base_weights":[6.0539335E-1,-7.5563383E-1,1.4236374E0,-2.3949482E-2,-3.7545275E-3,1.0451114E-2,3.0880686E-2],"categories":[],"categories_nodes":[],"categories_segments":[],"categories_sizes":[],"default_left":[0,0,0,0,0,0,0],"id":4,"left_children":[1,3,5,-1,-1,-1,-1],"loss_changes":[5.300606E2,7.567236E1,1.3567084E2,0E0,0E0,0E0,0E0],"parents":[2147483647,0,0,1,1,2,2],"right_children":[2,4,6,-1,-1,-1,-1],"split_conditions":[5.9E1,3.5E1,8.3E1,-2.3949482E-2,-3.7545275E-3,1.0451114E-2,3.0880686E-2],"split_indices":[4,4,4,0,0,0,0],"split_type":[0,0,0,0,0,0,0],"sum_hessian":[4.74E2,1.78E2,2.96E2,6.6E1,1.12E2,1.39E2,1.57E2],"tree_param":{"num_deleted":"0","num_feature":"6","num_nodes":"7","size_leaf_vector":"1"}},{"base_weights":[-3.815718E-1,-1.6209431E0,7.498292E-1,-3.2864198E-2,-1.4418159E-2,7.485693E-4,2.0107603E-2],"categories":[],"categories_nodes":[],"categories_segments":[],"categories_sizes":[],"default_left":[0,0,0,0,0,0,0],"id":5,"left_children":[1,3,5,-1,-1,-1,-1],"loss_changes":[6.6727277E2,8.3257385E1,1.0287714E2,0E0,0E0,0E0,0E0],"parents":[2147483647,0,0,1,1,2,2],"right_children":[2,4,6,-1,-1,-1,-1],"split_conditions":[5.1E1,3.1E1,7.2E1,-3.2864198E-2,-1.4418159E-2,7.485693E-4,2.0107603E-2],"split_indices":[5,5,5,0,0,0,0],"split_type":[0,0,0,0,0,0,0],"sum_hessian":[4.74E2,2.26E2,2.48E2,1.2E2,1.06E2,1.14E2,1.34E2],"tree_param":{"num_deleted":"0","num_feature":"6","num_nodes":"7","size_leaf_vector":"1"}},{"base_weights":[-1.7536151E-1,-1.5043504E0,8.3925724E-1,-3.171743E-2,-1.5191002E-2,2.4340386E-3,2.3506094E-2],"categories":[],"categories_nodes":[],"categories_segments":[],"categories_sizes":[],"default_left":[0,0,0,0,0,0,0],"id":6,"left_children":[1,3,5,-1,-1,-1,-1],"loss_changes":[6.417606E2,5.964984E1,1.3278079E2,0E0,0E0,0E0,0E0],"parents":[2147483647,0,0,1,1,2,2],"right_children":[2,4,6,-1,-1,-1,-1],"split_conditions":[5E1,2.7E1,8E1,-3.171743E-2,-1.5191002E-2,2.4340386E-3,2.3506094E-2],"split_indices":[0,0,0,0,0,0,0],"split_type":[0,0,0,0,0,0,0],"sum_hessian":[4.74E2,2.05E2,2.69E2,9E1,1.15E2,1.4E2,1.29E2],"tree_param":{"num_deleted":"0","num_feature":"6","num_nodes":"7","size_leaf_vector":"1"}},{"base_weights":[8.1232756E-1,-3.713519E-1,1.6671231E0,-1.1980454E-2,4.6094907E-3,1.4617941E-2,3.0826574E-2],"categories":[],"categories_nodes":[],"categories_segments":[],"categories_sizes":[],"default_left":[0,0,0,0,0,0,0],"id":7,"left_children":[1,3,5,-1,-1,-1,-1],"loss_changes":[4.8122592E2,5.82491E1,7.216223E1,0E0,0E0,0E0,0E0],"parents":[2147483647,0,0,1,1,2,2],"right_children":[2,4,6,-1,-1,-1,-1],"split_conditions":[6.6E1,5E1,8.3E1,-1.1980454E-2,4.6094907E-3,1.4617941E-2,3.0826574E-2],"split_indices":[1,1,1,0,0,0,0],"split_type":[0,0,0,0,0,0,0],"sum_hessian":[4.74E2,1.99E2,2.75E2,1.22E2,7.7E1,1E2,1.75E2],"tree_param":{"num_deleted":"0","num_feature":"6","num_nodes":"7","size_leaf_vector":"1"}},{"base_weights":[-3.9760685E-1,-1.5204226E0,7.363618E-1,-3.2962263E-2,-1.5004395E-2,3.6771132E-3,2.325704E-2],"categories":[],"categories_nodes":[],"categories_segments":[],"categories_sizes":[],"default_left":[0,0,0,0,0,0,0],"id":8,"left_children":[1,3,5,-1,-1,-1,-1],"loss_changes":[6.0590765E2,8.196808E1,9.439778E1,0E0,0E0,0E0,0E0],"parents":[2147483647,0,0,1,1,2,2],"right_children":[2,4,6,-1,-1,-1,-1],"split_conditions":[4.7E1,2.4E1,7.9E1,-3.2962263E-2,-1.5004395E-2,3.6771132E-3,2.325704E-2],"split_indices":[2,2,2,0,0,0,0],"split_type":[0,0,0,0,0,0,0],"sum_hessian":[4.74E2,2.38E2,2.36E2,1.02E2,1.36E2,1.48E2,8.8E1],"tree_param":{"num_deleted":"0","num_feature":"6","num_nodes":"7","size_leaf_vector":"1"}},{"base_weights":[-4.5989728E-1,-1.5171894E0,6.263465E-1,-3.4356236E-2,-1.4841962E-2,3.7737112E-3,2.7724177E-2],"categories":[],"categories_nodes":[],"categories_segments":[],"categories_sizes":[],"default_left":[0,0,0,0,0,0,0],"id":9,"left_children":[1,3,5,-1,-1,-1,-1],"loss_changes":[5.464768E2,9.60741E1,1.0715051E2,0E0,0E0,0E0,0E0],"parents":[2147483647,0,0,1,1,2,2],"right_children":[2,4,6,-1,-1,-1,-1],"split_conditions":[4.6E1,2.2E1,8.7E1,-3.4356236E-2,-1.4841962E-2,3.7737112E-3,2.7724177E-2],"split_indices":[3,3,3,0,0,0,0],"split_type":[0,0,0,0,0,0,0],"sum_hessian":[4.74E2,2.4E2,2.34E2,9.6E1,1.44E2,1.8E2,5.4E1],"tree_param":{"num_deleted":"0","num_feature":"6","num_nodes":"7","size_leaf_vector":"1"}},{"base_weights":[5.9634113E-1,-7.444541E-1,1.402422E0,-2.3595601E-2,-3.6987069E-3,1.0295467E-2,3.0420406E-2],"categories":[],"categories_nodes":[],"categories_segments":[],"categories_sizes":[],"default_left":[0,0,0,0,0,0,0],"id":10,"left_children":[1,3,5,-1,-1,-1,-1],"loss_changes":[5.1441895E2,7.34552E1,1.316549E2,0E0,0E0,0E0,0E0],"parents":[2147483647,0,0,1,1,2,2],"right_children":[2,4,6,-1,-1,-1,-1],"split_conditions":[5.9E1,3.5E1,8.3E1,-2.3595601E-2,-3.6987069E-3,1.0295467E-2,3.0420406E-2],"split_indices":[4,4,4,0,0,0,0],"split_type":[0,0,0,0,0,0,0],"sum_hessian":[4.74E2,1.78E2,2.96E2,6.6E1,1.12E2,1.39E2,1.57E2],"tree_param":{"num_deleted":"0","num_feature":"6","num_nodes":"7","size_leaf_vector":"1"}},{"base_weights":[-3.7590387E-1,-1.5968373E0,7.386655E-1,-3.1184789E-2,-1.2597002E-2,3.9625135E-3,2.383091E-2],"categories":[],"categories_nodes":[],"categories_segments":[],"categories_sizes":[],"default_left":[0,0,0,0,0,0,0],"id":11,"left_children":[1,3,5,-1,-1,-1,-1],"loss_changes":[6.475667E2,8.111011E1,1.0001511E2,0E0,0E0,0E0,0E0],"parents":[2147483647,0,0,1,1,2,2],"right_children":[2,4,6,-1,-1,-1,-1],"split_conditions":[5.1E1,3.4E1,8.6E1,-3.1184789E-2,-1.2597002E-2,3.9625135E-3,2.383091E-2],"split_indices":[5,5,5,0,0,0,0],"split_type":[0,0,0,0,0,0,0],"sum_hessian":[4.74E2,2.26E2,2.48E2,1.37E2,8.9E1,1.6E2,8.8E1],"tree_param":{"num_deleted":"0","num_feature":"6","num_nodes":"7","size_leaf_vector":"1"}},{"base_weights":[-1.7277521E-1,-1.4820127E0,8.2676446E-1,-3.1246897E-2,-1.4965098E-2,2.397787E-3,2.3156215E-2],"categories":[],"categories_nodes":[],"categories_segments":[],"categories_sizes":[],"default_left":[0,0,0,0,0,0,0],"id":12,"left_children":[1,3,5,-1,-1,-1,-1],"loss_changes":[6.228268E2,5.7897217E1,1.2885768E2,0E0,0E0,0E0,0E0],"parents":[2147483647,0,0,1,1,2,2],"right_children":[2,4,6,-1,-1,-1,-1],"split_conditions":[5E1,2.7E1,8E1,-3.1246897E-2,-1.4965098E-2,2.397787E-3,2.3156215E-2],"split_indices":[0,0,0,0,0,0,0],"split_type":[0,0,0,0,0,0,0],"sum_hessian":[4.74E2,2.05E2,2.69E2,9E1,1.15E2,1.4E2,1.29E2],"tree_param":{"num_deleted":"0","num_feature":"6","num_nodes":"7","size_leaf_vector":"1"}},{"base_weights":[8.002228E-1,-5.25783E-1,1.5410318E0,-1.7096428E-2,-2.3561283E-3,1.3120486E-2,3.0366804E-2],"categories":[],"categories_nodes":[],"categories_segments":[],"categories_sizes":[],"default_left":[0,0,0,0,0,0,0],"id":13,"left_children":[1,3,5,-1,-1,-1,-1],"loss_changes":[4.6741086E2,3.8531742E1,9.647577E1,0E0,0E0,0E0,0E0],"parents":[2147483647,0,0,1,1,2,2],"right_children":[2,4,6,-1,-1,-1,-1],"split_conditions":[6.2E1,3.9E1,8.3E1,-1.7096428E-2,-2.3561283E-3,1.3120486E-2,3.0366804E-2],"split_indices":[1,1,1,0,0,0,0],"split_type":[0,0,0,0,0,0,0],"sum_hessian":[4.74E2,1.7E2,3.04E2,6.3E1,1.07E2,1.29E2,1.75E2],"tree_param":{"num_deleted":"0","num_feature":"6","num_nodes":"7","size_leaf_vector":"1"}},{"base_weights":[-3.91687E-1,-1.4978169E0,7.254301E-1,-3.1071914E-2,-1.3529177E-2,3.6223263E-3,2.2912104E-2],"categories":[],"categories_nodes":[],"categories_segments":[],"categories_sizes":[],"default_left":[0,0,0,0,0,0,0],"id":14,"left_children":[1,3,5,-1,-1,-1,-1],"loss_changes":[5.8803296E2,7.982623E1,9.1620834E1,0E0,0E0,0E0,0E0],"parents":[2147483647,0,0,1,1,2,2],"right_children":[2,4,6,-1,-1,-1,-1],"split_conditions":[4.7E1,2.8E1,7.9E1,-3.1071914E-2,-1.3529177E-2,3.6223263E-3,2.2912104E-2],"split_indices":[2,2,2,0,0,0,0],"split_type":[0,0,0,0,0,0,0],"sum_hessian":[4.74E2,2.38E2,2.36E2,1.2E2,1.18E2,1.48E2,8.8E1],"tree_param":{"num_deleted":"0","num_feature":"6","num_nodes":"7","size_leaf_vector":"1"}},{"base_weights":[-4.5303604E-1,-1.4946356E0,6.1708534E-1,-3.3846203E-2,-1.4620866E-2,3.7174185E-3,2.7315874E-2],"categories":[],"categories_nodes":[],"categories_segments":[],"categories_sizes":[],"default_left":[0,0,0,0,0,0,0],"id":15,"left_children":[1,3,5,-1,-1,-1,-1],"loss_changes":[5.3037537E2,9.325037E1,1.04024025E2,0E0,0E0,0E0,0E0],"parents":[2147483647,0,0,1,1,2,2],"right_children":[2,4,6,-1,-1,-1,-1],"split_conditions":[4.6E1,2.2E1,8.7E1,-3.3846203E-2,-1.4620866E-2,3.7174185E-3,2.7315874E-2],"split_indices":[3,3,3,0,0,0,0],"split_type":[0,0,0,0,0,0,0],"sum_hessian":[4.74E2,2.4E2,2.34E2,9.6E1,1.44E2,1.8E2,5.4E1],"tree_param":{"num_deleted":"0","num_feature":"6","num_nodes":"7","size_leaf_vector":"1"}},{"base_weights":[5.8742434E-1,-3.1705946E-1,1.7499928E0,-1.8950302E-2,3.406729E-3,1.9239156E-2,3.294386E-2],"categories":[],"categories_nodes":[],"categories_segments":[],"categories_sizes":[],"default_left":[0,0,0,0,0,0,0],"id":16,"left_children":[1,3,5,-1,-1,-1,-1],"loss_changes":[5.000289E2,1.3829333E2,4.0566895E1,0E0,0E0,0E0,0E0],"parents":[2147483647,0,0,1,1,2,2],"right_children":[2,4,6,-1,-1,-1,-1],"split_conditions":[7.5E1,4.4E1,9.9E1,-1.8950302E-2,3.406729E-3,1.9239156E-2,3.294386E-2],"split_indices":[4,4,4,0,0,0,0],"split_type":[0,0,0,0,0,0,0],"sum_hessian":[4.74E2,2.67E2,2.07E2,9.7E1,1.7E2,1.03E2,1.04E2],"tree_param":{"num_deleted":"0","num_feature":"6","num_nodes":"7","size_leaf_vector":"1"}},{"base_weights":[-3.70299E-1,-1.4358075E0,8.7124854E-1,-3.0524146E-2,-1.0427549E-2,7.190646E-3,2.6384488E-2],"categories":[],"categories_nodes":[],"categories_segments":[],"categories_sizes":[],"default_left":[0,0,0,0,0,0,0],"id":17,"left_children":[1,3,5,-1,-1,-1,-1],"loss_changes":[6.2961865E2,1.1218341E2,7.568857E1,0E0,0E0,0E0,0E0],"parents":[2147483647,0,0,1,1,2,2],"right_children":[2,4,6,-1,-1,-1,-1],"split_conditions":[5.6E1,3.5E1,9.1E1,-3.0524146E-2,-1.0427549E-2,7.190646E-3,2.6384488E-2],"split_indices":[5,5,5,0,0,0,0],"split_type":[0,0,0,0,0,0,0],"sum_hessian":[4.74E2,2.55E2,2.19E2,1.4E2,1.15E2,1.53E2,6.6E1],"tree_param":{"num_deleted":"0","num_feature":"6","num_nodes":"7","size_leaf_vector":"1"}},{"base_weights":[-1.7022707E-1,-1.460007E0,8.1445765E-1,-3.0783348E-2,-1.4742559E-2,3.2652388E-3,2.3894928E-2],"categories":[],"categories_nodes":[],"categories_segments":[],"categories_sizes":[],"default_left":[0,0,0,0,0,0,0],"id":18,"left_children":[1,3,5,-1,-1,-1,-1],"loss_changes":[6.0445166E2,5.6196045E1,1.2509842E2,0E0,0E0,0E0,0E0],"parents":[2147483647,0,0,1,1,2,2],"right_children":[2,4,6,-1,-1,-1,-1],"split_conditions":[5E1,2.7E1,8.3E1,-3.0783348E-2,-1.4742559E-2,3.2652388E-3,2.3894928E-2],"split_indices":[0,0,0,0,0,0,0],"split_type":[0,0,0,0,0,0,0],"sum_hessian":[4.74E2,2.05E2,2.69E2,9E1,1.15E2,1.53E2,1.16E2],"tree_param":{"num_deleted":"0","num_feature":"6","num_nodes":"7","size_leaf_vector":"1"}},{"base_weights":[7.8827006E-1,-3.61075E-1,1.6182727E0,-1.1204143E-2,5.257937E-3,1.4205987E-2,2.9913887E-2],"categories":[],"categories_nodes":[],"categories_segments":[],"categories_sizes":[],"default_left":[0,0,0,0,0,0,0],"id":19,"left_children":[1,3,5,-1,-1,-1,-1],"loss_changes":[4.5371506E2,5.5178856E1,6.7763916E1,0E0,0E0,0E0,0E0],"parents":[2147483647,0,0,1,1,2,2],"right_children":[2,4,6,-1,-1,-1,-1],"split_conditions":[6.6E1,5.2E1,8.3E1,-1.1204143E-2,5.257937E-3,1.4205987E-2,2.9913887E-2],"split_indices":[1,1,1,0,0,0,0],"split_type":[0,0,0,0,0,0,0],"sum_hessian":[4.74E2,1.99E2,2.75E2,1.29E2,7E1,1E2,1.75E2],"tree_param":{"num_deleted":"0","num_feature":"6","num_nodes":"7","size_leaf_vector":"1"}},{"base_weights":[-3.8584974E-1,-1.4755363E0,7.146606E-1,-3.2011073E-2,-1.4544943E-2,3.5683564E-3,2.2572283E-2],"categories":[],"categories_nodes":[],"categories_segments":[],"categories_sizes":[],"default_left":[0,0,0,0,0,0,0],"id":20,"left_children":[1,3,5,-1,-1,-1,-1],"loss_changes":[5.7068E2,7.755005E1,8.892559E1,0E0,0E0,0E0,0E0],"parents":[2147483647,0,0,1,1,2,2],"right_children":[2,4,6,-1,-1,-1,-1],"split_conditions":[4.7E1,2.4E1,7.9E1,-3.2011073E-2,-1.4544943E-2,3.5683564E-3,2.2572283E-2],"split_indices":[2,2,2,0,0,0,0],"split_type":[0,0,0,0,0,0,0],"sum_hessian":[4.74E2,2.38E2,2.36E2,1.02E2,1.36E2,1.48E2,8.8E1],"tree_param":{"num_deleted":"0","num_feature":"6","num_nodes":"7","size_leaf_vector":"1"}},{"base_weights":[-4.4627723E-1,-1.4724172E0,6.079611E-1,-3.3343744E-2,-1.4403067E-2,3.6619653E-3,2.6913585E-2],"categories":[],"categories_nodes":[],"categories_segments":[],"categories_sizes":[],"default_left":[0,0,0,0,0,0,0],"id":21,"left_children":[1,3,5,-1,-1,-1,-1],"loss_changes":[5.147483E2,9.050964E1,1.0098884E2,0E0,0E0,0E0,0E0],"parents":[2147483647,0,0,1,1,2,2],"right_children":[2,4,6,-1,-1,-1,-1],"split_conditions":[4.6E1,2.2E1,8.7E1,-3.3343744E-2,-1.4403067E-2,3.6619653E-3,2.6913585E-2],"split_indices":[3,3,3,0,0,0,0],"split_type":[0,0,0,0,0,0,0],"sum_hessian":[4.74E2,2.4E2,2.34E2,9.6E1,1.44E2,1.8E2,5.4E1],"tree_param":{"num_deleted":"0","num_feature":"6","num_nodes":"7","size_leaf_vector":"1"}},{"base_weights":[5.7869005E-1,-7.247122E-1,1.3622938E0,-2.296694E-2,-3.6023646E-3,1.0006587E-2,2.9544916E-2],"categories":[],"categories_nodes":[],"categories_segments":[],"categories_sizes":[],"default_left":[0,0,0,0,0,0,0],"id":22,"left_children":[1,3,5,-1,-1,-1,-1],"loss_changes":[4.8612897E2,6.9577095E1,1.2408966E2,0E0,0E0,0E0,0E0],"parents":[2147483647,0,0,1,1,2,2],"right_children":[2,4,6,-1,-1,-1,-1],"split_conditions":[5.9E1,3.5E1,8.3E1,-2.296694E-2,-3.6023646E-3,1.0006587E-2,2.9544916E-2],"split_indices":[4,4,4,0,0,0,0],"split_type":[0,0,0,0,0,0,0],"sum_hessian":[4.74E2,1.78E2,2.96E2,6.6E1,1.12E2,1.39E2,1.57E2],"tree_param":{"num_deleted":"0","num_feature":"6","num_nodes":"7","size_leaf_vector":"1"}},{"base_weights":[-3.6476007E-1,-1.4144303E0,8.5833234E-1,-3.006953E-2,-1.0272486E-2,7.083486E-3,2.5994627E-2],"categories":[],"categories_nodes":[],"categories_segments":[],"categories_sizes":[],"default_left":[0,0,0,0,0,0,0],"id":23,"left_children":[1,3,5,-1,-1,-1,-1],"loss_changes":[6.110398E2,1.0886395E2,7.347554E1,0E0,0E0,0E0,0E0],"parents":[2147483647,0,0,1,1,2,2],"right_children":[2,4,6,-1,-1,-1,-1],"split_conditions":[5.6E1,3.5E1,9.1E1,-3.006953E-2,-1.0272486E-2,7.083486E-3,2.5994627E-2],"split_indices":[5,5,5,0,0,0,0],"split_type":[0,0,0,0,0,0,0],"sum_hessian":[4.74E2,2.55E2,2.19E2,1.4E2,1.15E2,1.53E2,6.6E1],"tree_param":{"num_deleted":"0","num_feature":"6","num_nodes":"7","size_leaf_vector":"1"}},{"base_weights":[-1.6771229E-1,-1.2591381E0,9.617439E-1,-2.7646625E-2,-9.4478205E-3,5.267727E-3,2.3539567E-2],"categories":[],"categories_nodes":[],"categories_segments":[],"categories_sizes":[],"default_left":[0,0,0,0,0,0,0],"id":24,"left_children":[1,3,5,-1,-1,-1,-1],"loss_changes":[5.8675183E2,8.776996E1,8.6252E1,0E0,0E0,0E0,0E0],"parents":[2147483647,0,0,1,1,2,2],"right_children":[2,4,6,-1,-1,-1,-1],"split_conditions":[5.5E1,3.5E1,8.3E1,-2.7646625E-2,-9.4478205E-3,5.267727E-3,2.3539567E-2],"split_indices":[0,0,0,0,0,0,0],"split_type":[0,0,0,0,0,0,0],"sum_hessian":[4.74E2,2.41E2,2.33E2,1.24E2,1.17E2,1.17E2,1.16E2],"tree_param":{"num_deleted":"0","num_feature":"6","num_nodes":"7","size_leaf_vector":"1"}},{"base_weights":[7.765264E-1,-5.1081836E-1,1.4957377E0,-1.6678551E-2,-2.2483498E-3,1.2743685E-2,2.946773E-2],"categories":[],"categories_nodes":[],"categories_segments":[],"categories_sizes":[],"default_left":[0,0,0,0,0,0,0],"id":25,"left_children":[1,3,5,-1,-1,-1,-1],"loss_changes":[4.4055362E2,3.6931557E1,9.071692E1,0E0,0E0,0E0,0E0],"parents":[2147483647,0,0,1,1,2,2],"right_children":[2,4,6,-1,-1,-1,-1],"split_conditions":[6.2E1,3.9E1,8.3E1,-1.6678551E-2,-2.2483498E-3,1.2743685E-2,2.946773E-2],"split_indices":[1,1,1,0,0,0,0],"split_type":[0,0,0,0,0,0,0],"sum_hessian":[4.74E2,1.7E2,3.04E2,6.3E1,1.07E2,1.29E2,1.75E2],"tree_param":{"num_deleted":"0","num_feature":"6","num_nodes":"7","size_leaf_vector":"1"}},{"base_weights":[-3.8010502E-1,-1.4535981E0,7.0405096E-1,-3.0172465E-2,-1.3111604E-2,3.5151895E-3,2.2237504E-2],"categories":[],"categories_nodes":[],"categories_segments":[],"categories_sizes":[],"default_left":[0,0,0,0,0,0,0],"id":26,"left_children":[1,3,5,-1,-1,-1,-1],"loss_changes":[5.5384454E2,7.550992E1,8.6309616E1,0E0,0E0,0E0,0E0],"parents":[2147483647,0,0,1,1,2,2],"right_children":[2,4,6,-1,-1,-1,-1],"split_conditions":[4.7E1,2.8E1,7.9E1,-3.0172465E-2,-1.3111604E-2,3.5151895E-3,2.2237504E-2],"split_indices":[2,2,2,0,0,0,0],"split_type":[0,0,0,0,0,0,0],"sum_hessian":[4.74E2,2.38E2,2.36E2,1.2E2,1.18E2,1.48E2,8.8E1],"tree_param":{"num_deleted":"0","num_feature":"6","num_nodes":"7","size_leaf_vector":"1"}},{"base_weights":[-4.3961915E-1,-1.450529E0,5.989719E-1,-3.2848746E-2,-1.418851E-2,1.7373059E-4,1.9705575E-2],"categories":[],"categories_nodes":[],"categories_segments":[],"categories_sizes":[],"default_left":[0,0,0,0,0,0,0],"id":27,"left_children":[1,3,5,-1,-1,-1,-1],"loss_changes":[4.9958176E2,8.784949E1,9.864411E1,0E0,0E0,0E0,0E0],"parents":[2147483647,0,0,1,1,2,2],"right_children":[2,4,6,-1,-1,-1,-1],"split_conditions":[4.6E1,2.2E1,7.1E1,-3.2848746E-2,-1.418851E-2,1.7373059E-4,1.9705575E-2],"split_indices":[3,3,3,0,0,0,0],"split_type":[0,0,0,0,0,0,0],"sum_hessian":[4.74E2,2.4E2,2.34E2,9.6E1,1.44E2,1.29E2,1.05E2],"tree_param":{"num_deleted":"0","num_feature":"6","num_nodes":"7","size_leaf_vector":"1"}},{"base_weights":[5.70037E-1,-7.1399003E-1,1.3419926E0,-2.2627579E-2,-3.548809E-3,9.857559E-3,2.9104548E-2],"categories":[],"categories_nodes":[],"categories_segments":[],"categories_sizes":[],"default_left":[0,0,0,0,0,0,0],"id":28,"left_children":[1,3,5,-1,-1,-1,-1],"loss_changes":[4.717838E2,6.753849E1,1.20416565E2,0E0,0E0,0E0,0E0],"parents":[2147483647,0,0,1,1,2,2],"right_children":[2,4,6,-1,-1,-1,-1],"split_conditions":[5.9E1,3.5E1,8.3E1,-2.2627579E-2,-3.548809E-3,9.857559E-3,2.9104548E-2],"split_indices":[4,4,4,0,0,0,0],"split_type":[0,0,0,0,0,0,0],"sum_hessian":[4.74E2,1.78E2,2.96E2,6.6E1,1.12E2,1.39E2,1.57E2],"tree_param":{"num_deleted":"0","num_feature":"6","num_nodes":"7","size_leaf_vector":"1"}},{"base_weights":[-3.593039E-1,-1.5278647E0,7.0745355E-1,-3.1010011E-2,-1.355297E-2,5.985599E-4,1.9062998E-2],"categories":[],"categories_nodes":[],"categories_segments":[],"categories_sizes":[],"default_left":[0,0,0,0,0,0,0],"id":29,"left_children":[1,3,5,-1,-1,-1,-1],"loss_changes":[5.932021E2,7.458771E1,9.3599686E1,0E0,0E0,0E0,0E0],"parents":[2147483647,0,0,1,1,2,2],"right_children":[2,4,6,-1,-1,-1,-1],"split_conditions":[5.1E1,3.1E1,7.2E1,-3.1010011E-2,-1.355297E-2,5.985599E-4,1.9062998E-2],"split_indices":[5,5,5,0,0,0,0],"split_type":[0,0,0,0,0,0,0],"sum_hessian":[4.74E2,2.26E2,2.48E2,1.2E2,1.06E2,1.14E2,1.34E2],"tree_param":{"num_deleted":"0","num_feature":"6","num_nodes":"7","size_leaf_vector":"1"}},{"base_weights":[-1.6521405E-1,-1.4179713E0,7.9120517E-1,-3.6082882E-2,-1.7140394E-2,2.2913488E-3,2.2163853E-2],"categories":[],"categories_nodes":[],"categories_segments":[],"categories_sizes":[],"default_left":[0,0,0,0,0,0,0],"id":30,"left_children":[1,3,5,-1,-1,-1,-1],"loss_changes":[5.702484E2,5.3252808E1,1.1809407E2,0E0,0E0,0E0,0E0],"parents":[2147483647,0,0,1,1,2,2],"right_children":[2,4,6,-1,-1,-1,-1],"split_conditions":[5E1,1.6E1,8E1,-3.6082882E-2,-1.7140394E-2,2.2913488E-3,2.2163853E-2],"split_indices":[0,0,0,0,0,0,0],"split_type":[0,0,0,0,0,0,0],"sum_hessian":[4.74E2,2.05E2,2.69E2,4.3E1,1.62E2,1.4E2,1.29E2],"tree_param":{"num_deleted":"0","num_feature":"6","num_nodes":"7","size_leaf_vector":"1"}},{"base_weights":[7.6492745E-1,-3.510798E-1,1.5708569E0,-1.214764E-2,3.2794299E-3,1.3805743E-2,2.9028222E-2],"categories":[],"categories_nodes":[],"categories_segments":[],"categories_sizes":[],"default_left":[0,0,0,0,0,0,0],"id":31,"left_children":[1,3,5,-1,-1,-1,-1],"loss_changes":[4.277775E2,5.2449276E1,6.3632324E1,0E0,0E0,0E0,0E0],"parents":[2147483647,0,0,1,1,2,2],"right_children":[2,4,6,-1,-1,-1,-1],"split_conditions":[6.6E1,4.8E1,8.3E1,-1.214764E-2,3.2794299E-3,1.3805743E-2,2.9028222E-2],"split_indices":[1,1,1,0,0,0,0],"split_type":[0,0,0,0,0,0,0],"sum_hessian":[4.74E2,1.99E2,2.75E2,1.1E2,8.9E1,1E2,1.75E2],"tree_param":{"num_deleted":"0","num_feature":"6","num_nodes":"7","size_leaf_vector":"1"}},{"base_weights":[-3.744404E-1,-1.2869788E0,8.652129E-1,-2.972362E-2,-1.0993017E-2,8.121841E-3,2.7197555E-2],"categories":[],"categories_nodes":[],"categories_segments":[],"categories_sizes":[],"default_left":[0,0,0,0,0,0,0],"id":32,"left_children":[1,3,5,-1,-1,-1,-1],"loss_changes":[5.3844836E2,1.040058E2,6.1013596E1,0E0,0E0,0E0,0E0],"parents":[2147483647,0,0,1,1,2,2],"right_children":[2,4,6,-1,-1,-1,-1],"split_conditions":[5.3E1,2.8E1,9.1E1,-2.972362E-2,-1.0993017E-2,8.121841E-3,2.7197555E-2],"split_indices":[2,2,3,0,0,0,0],"split_type":[0,0,0,0,0,0,0],"sum_hessian":[4.74E2,2.73E2,2.01E2,1.2E2,1.53E2,1.51E2,5E1],"tree_param":{"num_deleted":"0","num_feature":"6","num_nodes":"7","size_leaf_vector":"1"}},{"base_weights":[-4.3308204E-1,-1.3027973E0,7.386684E-1,-2.8635126E-2,-9.169469E-3,5.4144934E-3,2.6227012E-2],"categories":[],"categories_nodes":[],"categories_segments":[],"categories_sizes":[],"default_left":[0,0,0,0,0,0,0],"id":33,"left_children":[1,3,5,-1,-1,-1,-1],"loss_changes":[4.850297E2,1.1327316E2,7.679373E1,0E0,0E0,0E0,0E0],"parents":[2147483647,0,0,1,1,2,2],"right_children":[2,4,6,-1,-1,-1,-1],"split_conditions":[5E1,3.1E1,8.7E1,-2.8635126E-2,-9.169469E-3,5.4144934E-3,2.6227012E-2],"split_indices":[3,3,3,0,0,0,0],"split_type":[0,0,0,0,0,0,0],"sum_hessian":[4.74E2,2.72E2,2.02E2,1.44E2,1.28E2,1.48E2,5.4E1],"tree_param":{"num_deleted":"0","num_feature":"6","num_nodes":"7","size_leaf_vector":"1"}},{"base_weights":[5.6151336E-1,-3.0474132E-1,1.6749496E0,-1.8174421E-2,3.2516557E-3,1.8786343E-2,3.204652E-2],"categories":[],"categories_nodes":[],"categories_segments":[],"categories_sizes":[],"default_left":[0,0,0,0,0,0,0],"id":34,"left_children":[1,3,5,-1,-1,-1,-1],"loss_changes":[4.586571E2,1.2701544E2,3.788214E1,0E0,0E0,0E0,0E0],"parents":[2147483647,0,0,1,1,2,2],"right_children":[2,4,6,-1,-1,-1,-1],"split_conditions":[7.5E1,4.4E1,1.02E2,-1.8174421E-2,3.2516557E-3,1.8786343E-2,3.204652E-2],"split_indices":[4,4,4,0,0,0,0],"split_type":[0,0,0,0,0,0,0],"sum_hessian":[4.74E2,2.67E2,2.07E2,9.7E1,1.7E2,1.1E2,9.7E1],"tree_param":{"num_deleted":"0","num_feature":"6","num_nodes":"7","size_leaf_vector":"1"}},{"base_weights":[-3.5396683E-1,-1.3732915E0,8.337654E-1,-2.9196978E-2,-9.971253E-3,6.8467064E-3,2.532885E-2],"categories":[],"categories_nodes":[],"categories_segments":[],"categories_sizes":[],"default_left":[0,0,0,0,0,0,0],"id":35,"left_children":[1,3,5,-1,-1,-1,-1],"loss_changes":[5.7622034E2,1.0267215E2,7.018828E1,0E0,0E0,0E0,0E0],"parents":[2147483647,0,0,1,1,2,2],"right_children":[2,4,6,-1,-1,-1,-1],"split_conditions":[5.6E1,3.5E1,9.1E1,-2.9196978E-2,-9.971253E-3,6.8467064E-3,2.532885E-2],"split_indices":[5,5,5,0,0,0,0],"split_type":[0,0,0,0,0,0,0],"sum_hessian":[4.74E2,2.55E2,2.19E2,1.4E2,1.15E2,1.53E2,6.6E1],"tree_param":{"num_deleted":"0","num_feature":"6","num_nodes":"7","size_leaf_vector":"1"}},{"base_weights":[-1.6279642E-1,-1.2228596E0,9.34204E-1,-2.6882453E-2,-9.141303E-3,5.122462E-3,2.2859875E-2],"categories":[],"categories_nodes":[],"categories_segments":[],"categories_sizes":[],"default_left":[0,0,0,0,0,0,0],"id":36,"left_children":[1,3,5,-1,-1,-1,-1],"loss_changes":[5.535151E2,8.342233E1,8.127919E1,0E0,0E0,0E0,0E0],"parents":[2147483647,0,0,1,1,2,2],"right_children":[2,4,6,-1,-1,-1,-1],"split_conditions":[5.5E1,3.5E1,8.3E1,-2.6882453E-2,-9.141303E-3,5.122462E-3,2.2859875E-2],"split_indices":[0,0,0,0,0,0,0],"split_type":[0,0,0,0,0,0,0],"sum_hessian":[4.74E2,2.41E2,2.33E2,1.24E2,1.17E2,1.17E2,1.16E2],"tree_param":{"num_deleted":"0","num_feature":"6","num_nodes":"7","size_leaf_vector":"1"}},{"base_weights":[7.5352514E-1,-4.9660316E-1,1.4519461E0,-1.6252913E-2,-2.162969E-3,1.2383731E-2,2.8595274E-2],"categories":[],"categories_nodes":[],"categories_segments":[],"categories_sizes":[],"default_left":[0,0,0,0,0,0,0],"id":37,"left_children":[1,3,5,-1,-1,-1,-1],"loss_changes":[4.1545108E2,3.521258E1,8.523627E1,0E0,0E0,0E0,0E0],"parents":[2147483647,0,0,1,1,2,2],"right_children":[2,4,6,-1,-1,-1,-1],"split_conditions":[6.2E1,3.9E1,8.3E1,-1.6252913E-2,-2.162969E-3,1.2383731E-2,2.8595274E-2],"split_indices":[1,1,1,0,0,0,0],"split_type":[0,0,0,0,0,0,0],"sum_hessian":[4.74E2,1.7E2,3.04E2,6.3E1,1.07E2,1.29E2,1.75E2],"tree_param":{"num_deleted":"0","num_feature":"6","num_nodes":"7","size_leaf_vector":"1"}},{"base_weights":[-3.6883512E-1,-1.4116238E0,6.843098E-1,-3.0645853E-2,-1.3898894E-2,3.4072367E-3,2.1629695E-2],"categories":[],"categories_nodes":[],"categories_segments":[],"categories_sizes":[],"default_left":[0,0,0,0,0,0,0],"id":38,"left_children":[1,3,5,-1,-1,-1,-1],"loss_changes":[5.2261456E2,7.130417E1,8.176377E1,0E0,0E0,0E0,0E0],"parents":[2147483647,0,0,1,1,2,2],"right_children":[2,4,6,-1,-1,-1,-1],"split_conditions":[4.7E1,2.4E1,7.9E1,-3.0645853E-2,-1.3898894E-2,3.4072367E-3,2.1629695E-2],"split_indices":[2,2,2,0,0,0,0],"split_type":[0,0,0,0,0,0,0],"sum_hessian":[4.74E2,2.38E2,2.36E2,1.02E2,1.36E2,1.48E2,8.8E1],"tree_param":{"num_deleted":"0","num_feature":"6","num_nodes":"7","size_leaf_vector":"1"}},{"base_weights":[-4.265988E-1,-1.4082038E0,5.818839E-1,-3.0804709E-2,-1.2894992E-2,1.4439985E-4,1.917329E-2],"categories":[],"categories_nodes":[],"categories_segments":[],"categories_sizes":[],"default_left":[0,0,0,0,0,0,0],"id":39,"left_children":[1,3,5,-1,-1,-1,-1],"loss_changes":[4.71037E2,8.356058E1,9.36312E1,0E0,0E0,0E0,0E0],"parents":[2147483647,0,0,1,1,2,2],"right_children":[2,4,6,-1,-1,-1,-1],"split_conditions":[4.6E1,2.4E1,7.1E1,-3.0804709E-2,-1.2894992E-2,1.4439985E-4,1.917329E-2],"split_indices":[3,3,3,0,0,0,0],"split_type":[0,0,0,0,0,0,0],"sum_hessian":[4.74E2,2.4E2,2.34E2,1.09E2,1.31E2,1.29E2,1.05E2],"tree_param":{"num_deleted":"0","num_feature":"6","num_nodes":"7","size_leaf_vector":"1"}},{"base_weights":[5.531663E-1,-6.9504905E-1,1.3035952E0,-2.4477242E-2,-4.63586E-3,9.579103E-3,2.826862E-2],"categories":[],"categories_nodes":[],"categories_segments":[],"categories_sizes":[],"default_left":[0,0,0,0,0,0,0],"id":40,"left_children":[1,3,5,-1,-1,-1,-1],"loss_changes":[4.4583713E2,6.4219284E1,1.1354077E2,0E0,0E0,0E0,0E0],"parents":[2147483647,0,0,1,1,2,2],"right_children":[2,4,6,-1,-1,-1,-1],"split_conditions":[5.9E1,3.1E1,8.3E1,-2.4477242E-2,-4.63586E-3,9.579103E-3,2.826862E-2],"split_indices":[4,4,4,0,0,0,0],"split_type":[0,0,0,0,0,0,0],"sum_hessian":[4.74E2,1.78E2,2.96E2,5.1E1,1.27E2,1.39E2,1.57E2],"tree_param":{"num_deleted":"0","num_feature":"6","num_nodes":"7","size_leaf_vector":"1"}},{"base_weights":[-3.4867206E-1,-1.4833586E0,6.871613E-1,-3.3159304E-2,-1.5610455E-2,5.514662E-4,1.8541694E-2],"categories":[],"categories_nodes":[],"categories_segments":[],"categories_sizes":[],"default_left":[0,0,0,0,0,0,0],"id":41,"left_children":[1,3,5,-1,-1,-1,-1],"loss_changes":[5.593087E2,7.077768E1,8.885664E1,0E0,0E0,0E0,0E0],"parents":[2147483647,0,0,1,1,2,2],"right_children":[2,4,6,-1,-1,-1,-1],"split_conditions":[5.1E1,2.3E1,7.2E1,-3.3159304E-2,-1.5610455E-2,5.514662E-4,1.8541694E-2],"split_indices":[5,5,5,0,0,0,0],"split_type":[0,0,0,0,0,0,0],"sum_hessian":[4.74E2,2.26E2,2.48E2,8.4E1,1.42E2,1.14E2,1.34E2],"tree_param":{"num_deleted":"0","num_feature":"6","num_nodes":"7","size_leaf_vector":"1"}},{"base_weights":[-1.6037142E-1,-1.377184E0,7.686055E-1,-2.912918E-2,-1.3833992E-2,2.235556E-3,2.1520298E-2],"categories":[],"categories_nodes":[],"categories_segments":[],"categories_sizes":[],"default_left":[0,0,0,0,0,0,0],"id":42,"left_children":[1,3,5,-1,-1,-1,-1],"loss_changes":[5.379942E2,5.113452E1,1.1121051E2,0E0,0E0,0E0,0E0],"parents":[2147483647,0,0,1,1,2,2],"right_children":[2,4,6,-1,-1,-1,-1],"split_conditions":[5E1,2.7E1,8E1,-2.912918E-2,-1.3833992E-2,2.235556E-3,2.1520298E-2],"split_indices":[0,0,0,0,0,0,0],"split_type":[0,0,0,0,0,0,0],"sum_hessian":[4.74E2,2.05E2,2.69E2,9E1,1.15E2,1.4E2,1.29E2],"tree_param":{"num_deleted":"0","num_feature":"6","num_nodes":"7","size_leaf_vector":"1"}},{"base_weights":[7.4226975E-1,-3.413767E-1,1.5248314E0,-1.06174E-2,5.015942E-3,1.3416793E-2,2.8168784E-2],"categories":[],"categories_nodes":[],"categories_segments":[],"categories_sizes":[],"default_left":[0,0,0,0,0,0,0],"id":43,"left_children":[1,3,5,-1,-1,-1,-1],"loss_changes":[4.0333017E2,4.9764084E1,5.9751953E1,0E0,0E0,0E0,0E0],"parents":[2147483647,0,0,1,1,2,2],"right_children":[2,4,6,-1,-1,-1,-1],"split_conditions":[6.6E1,5.2E1,8.3E1,-1.06174E-2,5.015942E-3,1.3416793E-2,2.8168784E-2],"split_indices":[1,1,1,0,0,0,0],"split_type":[0,0,0,0,0,0,0],"sum_hessian":[4.74E2,1.99E2,2.75E2,1.29E2,7E1,1E2,1.75E2],"tree_param":{"num_deleted":"0","num_feature":"6","num_nodes":"7","size_leaf_vector":"1"}},{"base_weights":[-3.6334372E-1,-1.249951E0,8.410807E-1,-2.886293E-2,-1.0681062E-2,7.879911E-3,2.6484864E-2],"categories":[],"categories_nodes":[],"categories_segments":[],"categories_sizes":[],"default_left":[0,0,0,0,0,0,0],"id":44,"left_children":[1,3,5,-1,-1,-1,-1],"loss_changes":[5.0828076E2,9.799942E1,5.8043976E1,0E0,0E0,0E0,0E0],"parents":[2147483647,0,0,1,1,2,2],"right_children":[2,4,6,-1,-1,-1,-1],"split_conditions":[5.3E1,2.8E1,9.1E1,-2.886293E-2,-1.0681062E-2,7.879911E-3,2.6484864E-2],"split_indices":[2,2,3,0,0,0,0],"split_type":[0,0,0,0,0,0,0],"sum_hessian":[4.74E2,2.73E2,2.01E2,1.2E2,1.53E2,1.51E2,5E1],"tree_param":{"num_deleted":"0","num_feature":"6","num_nodes":"7","size_leaf_vector":"1"}},{"base_weights":[-4.2025116E-1,-1.2649237E0,7.1775794E-1,-2.7814524E-2,-8.889584E-3,5.3690574E-3,2.5940476E-2],"categories":[],"categories_nodes":[],"categories_segments":[],"categories_sizes":[],"default_left":[0,0,0,0,0,0,0],"id":45,"left_children":[1,3,5,-1,-1,-1,-1],"loss_changes":[4.5749927E2,1.0707184E2,7.327245E1,0E0,0E0,0E0,0E0],"parents":[2147483647,0,0,1,1,2,2],"right_children":[2,4,6,-1,-1,-1,-1],"split_conditions":[5E1,3.1E1,9E1,-2.7814524E-2,-8.889584E-3,5.3690574E-3,2.5940476E-2],"split_indices":[3,3,3,0,0,0,0],"split_type":[0,0,0,0,0,0,0],"sum_hessian":[4.74E2,2.72E2,2.02E2,1.44E2,1.28E2,1.5E2,5.2E1],"tree_param":{"num_deleted":"0","num_feature":"6","num_nodes":"7","size_leaf_vector":"1"}},{"base_weights":[5.448872E-1,-2.9655218E-1,1.6264298E0,-1.7680874E-2,3.1613216E-3,1.8213157E-2,3.115102E-2],"categories":[],"categories_nodes":[],"categories_segments":[],"categories_sizes":[],"default_left":[0,0,0,0,0,0,0],"id":46,"left_children":[1,3,5,-1,-1,-1,-1],"loss_changes":[4.3275723E2,1.2018712E2,3.6088318E1,0E0,0E0,0E0,0E0],"parents":[2147483647,0,0,1,1,2,2],"right_children":[2,4,6,-1,-1,-1,-1],"split_conditions":[7.5E1,4.4E1,1.02E2,-1.7680874E-2,3.1613216E-3,1.8213157E-2,3.115102E-2],"split_indices":[4,4,4,0,0,0,0],"split_type":[0,0,0,0,0,0,0],"sum_hessian":[4.74E2,2.67E2,2.07E2,9.7E1,1.7E2,1.1E2,9.7E1],"tree_param":{"num_deleted":"0","num_feature":"6","num_nodes":"7","size_leaf_vector":"1"}},{"base_weights":[-3.4350443E-1,-1.3333684E0,8.098986E-1,-2.8372815E-2,-9.651444E-3,6.6172997E-3,2.4680616E-2],"categories":[],"categories_nodes":[],"categories_segments":[],"categories_sizes":[],"default_left":[0,0,0,0,0,0,0],"id":47,"left_children":[1,3,5,-1,-1,-1,-1],"loss_changes":[5.433931E2,9.73663E1,6.7051254E1,0E0,0E0,0E0,0E0],"parents":[2147483647,0,0,1,1,2,2],"right_children":[2,4,6,-1,-1,-1,-1],"split_conditions":[5.6E1,3.5E1,9.1E1,-2.8372815E-2,-9.651444E-3,6.6172997E-3,2.4680616E-2],"split_indices":[5,5,5,0,0,0,0],"split_type":[0,0,0,0,0,0,0],"sum_hessian":[4.74E2,2.55E2,2.19E2,1.4E2,1.15E2,1.53E2,6.6E1],"tree_param":{"num_deleted":"0","num_feature":"6","num_nodes":"7","size_leaf_vector":"1"}},{"base_weights":[-1.5800631E-1,-1.1875911E0,9.074531E-1,-2.6111403E-2,-8.873134E-3,4.981157E-3,2.2199862E-2],"categories":[],"categories_nodes":[],"categories_segments":[],"categories_sizes":[],"default_left":[0,0,0,0,0,0,0],"id":48,"left_children":[1,3,5,-1,-1,-1,-1],"loss_changes":[5.221436E2,7.8761505E1,7.659384E1,0E0,0E0,0E0,0E0],"parents":[2147483647,0,0,1,1,2,2],"right_children":[2,4,6,-1,-1,-1,-1],"split_conditions":[5.5E1,3.5E1,8.3E1,-2.6111403E-2,-8.873134E-3,4.981157E-3,2.2199862E-2],"split_indices":[0,0,0,0,0,0,0],"split_type":[0,0,0,0,0,0,0],"sum_hessian":[4.74E2,2.41E2,2.33E2,1.24E2,1.17E2,1.17E2,1.16E2],"tree_param":{"num_deleted":"0","num_feature":"6","num_nodes":"7","size_leaf_vector":"1"}},{"base_weights":[7.3121154E-1,-4.8245475E-1,1.4092631E0,-1.5856154E-2,-2.062061E-3,1.1581664E-2,2.744718E-2],"categories":[],"categories_nodes":[],"categories_segments":[],"categories_sizes":[],"default_left":[0,0,0,0,0,0,0],"id":49,"left_children":[1,3,5,-1,-1,-1,-1],"loss_changes":[3.915709E2,3.375295E1,8.031305E1,0E0,0E0,0E0,0E0],"parents":[2147483647,0,0,1,1,2,2],"right_children":[2,4,6,-1,-1,-1,-1],"split_conditions":[6.2E1,3.9E1,8.2E1,-1.5856154E-2,-2.062061E-3,1.1581664E-2,2.744718E-2],"split_indices":[1,1,1,0,0,0,0],"split_type":[0,0,0,0,0,0,0],"sum_hessian":[4.74E2,1.7E2,3.04E2,6.3E1,1.07E2,1.22E2,1.82E2],"tree_param":{"num_deleted":"0","num_feature":"6","num_nodes":"7","size_leaf_vector":"1"}},{"base_weights":[-3.5790443E-1,-1.2313459E0,8.2863456E-1,-2.8433565E-2,-1.0521886E-2,7.762489E-3,2.609538E-2],"categories":[],"categories_nodes":[],"categories_segments":[],"categories_sizes":[],"default_left":[0,0,0,0,0,0,0],"id":50,"left_children":[1,3,5,-1,-1,-1,-1],"loss_changes":[4.9329724E2,9.510849E1,5.6359055E1,0E0,0E0,0E0,0E0],"parents":[2147483647,0,0,1,1,2,2],"right_children":[2,4,6,-1,-1,-1,-1],"split_conditions":[5.3E1,2.8E1,9.1E1,-2.8433565E-2,-1.0521886E-2,7.762489E-3,2.609538E-2],"split_indices":[2,2,3,0,0,0,0],"split_type":[0,0,0,0,0,0,0],"sum_hessian":[4.74E2,2.73E2,2.01E2,1.2E2,1.53E2,1.51E2,5E1],"tree_param":{"num_deleted":"0","num_feature":"6","num_nodes":"7","size_leaf_vector":"1"}},{"base_weights":[-4.1395867E-1,-1.5733649E0,3.920847E-1,-3.1581353E-2,-1.6458942E-2,-2.8959466E-3,1.7179612E-2],"categories":[],"categories_nodes":[],"categories_segments":[],"categories_sizes":[],"default_left":[0,0,0,0,0,0,0],"id":51,"left_children":[1,3,5,-1,-1,-1,-1],"loss_changes":[4.445194E2,4.708606E1,1.2407094E2,0E0,0E0,0E0,0E0],"parents":[2147483647,0,0,1,1,2,2],"right_children":[2,4,6,-1,-1,-1,-1],"split_conditions":[3.9E1,2E1,6.7E1,-3.1581353E-2,-1.6458942E-2,-2.8959466E-3,1.7179612E-2],"split_indices":[3,3,3,0,0,0,0],"split_type":[0,0,0,0,0,0,0],"sum_hessian":[4.74E2,1.94E2,2.8E2,9E1,1.04E2,1.58E2,1.22E2],"tree_param":{"num_deleted":"0","num_feature":"6","num_nodes":"7","size_leaf_vector":"1"}},{"base_weights":[5.3678715E-1,-6.766353E-1,1.2663018E0,-2.3857031E-2,-4.5015644E-3,9.308724E-3,2.7456664E-2],"categories":[],"categories_nodes":[],"categories_segments":[],"categories_sizes":[],"default_left":[0,0,0,0,0,0,0],"id":52,"left_children":[1,3,5,-1,-1,-1,-1],"loss_changes":[4.213313E2,6.1114212E1,1.0705469E2,0E0,0E0,0E0,0E0],"parents":[2147483647,0,0,1,1,2,2],"right_children":[2,4,6,-1,-1,-1,-1],"split_conditions":[5.9E1,3.1E1,8.3E1,-2.3857031E-2,-4.5015644E-3,9.308724E-3,2.7456664E-2],"split_indices":[4,4,4,0,0,0,0],"split_type":[0,0,0,0,0,0,0],"sum_hessian":[4.74E2,1.78E2,2.96E2,5.1E1,1.27E2,1.39E2,1.57E2],"tree_param":{"num_deleted":"0","num_feature":"6","num_nodes":"7","size_leaf_vector":"1"}},{"base_weights":[-3.3836606E-1,-1.5030844E0,6.142602E-1,-3.2247182E-2,-1.6029924E-2,-1.612042E-4,1.8034643E-2],"categories":[],"categories_nodes":[],"categories_segments":[],"categories_sizes":[],"default_left":[0,0,0,0,0,0,0],"id":53,"left_children":[1,3,5,-1,-1,-1,-1],"loss_changes":[5.279554E2,5.78266E1,9.630711E1,0E0,0E0,0E0,0E0],"parents":[2147483647,0,0,1,1,2,2],"right_children":[2,4,6,-1,-1,-1,-1],"split_conditions":[4.9E1,2.3E1,7.2E1,-3.2247182E-2,-1.6029924E-2,-1.612042E-4,1.8034643E-2],"split_indices":[5,5,5,0,0,0,0],"split_type":[0,0,0,0,0,0,0],"sum_hessian":[4.74E2,2.13E2,2.61E2,8.4E1,1.29E2,1.27E2,1.34E2],"tree_param":{"num_deleted":"0","num_feature":"6","num_nodes":"7","size_leaf_vector":"1"}},{"base_weights":[-1.5565261E-1,-1.3375282E0,7.4665123E-1,-3.435009E-2,-1.6083179E-2,2.1811326E-3,2.0895366E-2],"categories":[],"categories_nodes":[],"categories_segments":[],"categories_sizes":[],"default_left":[0,0,0,0,0,0,0],"id":54,"left_children":[1,3,5,-1,-1,-1,-1],"loss_changes":[5.0754388E2,4.9602417E1,1.0472673E2,0E0,0E0,0E0,0E0],"parents":[2147483647,0,0,1,1,2,2],"right_children":[2,4,6,-1,-1,-1,-1],"split_conditions":[5E1,1.6E1,8E1,-3.435009E-2,-1.6083179E-2,2.1811326E-3,2.0895366E-2],"split_indices":[0,0,0,0,0,0,0],"split_type":[0,0,0,0,0,0,0],"sum_hessian":[4.74E2,2.05E2,2.69E2,4.3E1,1.62E2,1.4E2,1.29E2],"tree_param":{"num_deleted":"0","num_feature":"6","num_nodes":"7","size_leaf_vector":"1"}},{"base_weights":[7.2028786E-1,-1.7978515E-1,1.6098151E0,-1.0328395E-2,6.5144007E-3,1.985871E-2,3.2422412E-2],"categories":[],"categories_nodes":[],"categories_segments":[],"categories_sizes":[],"default_left":[0,0,0,0,0,0,0],"id":55,"left_children":[1,3,5,-1,-1,-1,-1],"loss_changes":[3.805931E2,7.4344376E1,3.4834778E1,0E0,0E0,0E0,0E0],"parents":[2147483647,0,0,1,1,2,2],"right_children":[2,4,6,-1,-1,-1,-1],"split_conditions":[7.2E1,5.2E1,1.08E2,-1.0328395E-2,6.5144007E-3,1.985871E-2,3.2422412E-2],"split_indices":[1,1,1,0,0,0,0],"split_type":[0,0,0,0,0,0,0],"sum_hessian":[4.74E2,2.36E2,2.38E2,1.29E2,1.07E2,1.59E2,7.9E1],"tree_param":{"num_deleted":"0","num_feature":"6","num_nodes":"7","size_leaf_vector":"1"}},{"base_weights":[-3.525466E-1,-1.3513993E0,6.562228E-1,-2.9339526E-2,-1.33050755E-2,2.7657722E-3,2.0029878E-2],"categories":[],"categories_nodes":[],"categories_segments":[],"categories_sizes":[],"default_left":[0,0,0,0,0,0,0],"id":56,"left_children":[1,3,5,-1,-1,-1,-1],"loss_changes":[4.7950253E2,6.536627E1,7.569482E1,0E0,0E0,0E0,0E0],"parents":[2147483647,0,0,1,1,2,2],"right_children":[2,4,6,-1,-1,-1,-1],"split_conditions":[4.7E1,2.4E1,7.7E1,-2.9339526E-2,-1.33050755E-2,2.7657722E-3,2.0029878E-2],"split_indices":[2,2,2,0,0,0,0],"split_type":[0,0,0,0,0,0,0],"sum_hessian":[4.74E2,2.38E2,2.36E2,1.02E2,1.36E2,1.4E2,9.6E1],"tree_param":{"num_deleted":"0","num_feature":"6","num_nodes":"7","size_leaf_vector":"1"}},{"base_weights":[-4.078204E-1,-1.2285752E0,6.9796234E-1,-2.7014205E-2,-8.635315E-3,5.192608E-3,2.5305878E-2],"categories":[],"categories_nodes":[],"categories_segments":[],"categories_sizes":[],"default_left":[0,0,0,0,0,0,0],"id":57,"left_children":[1,3,5,-1,-1,-1,-1],"loss_changes":[4.3195636E2,1.0098175E2,7.0050385E1,0E0,0E0,0E0,0E0],"parents":[2147483647,0,0,1,1,2,2],"right_children":[2,4,6,-1,-1,-1,-1],"split_conditions":[5E1,3.1E1,9E1,-2.7014205E-2,-8.635315E-3,5.192608E-3,2.5305878E-2],"split_indices":[3,3,3,0,0,0,0],"split_type":[0,0,0,0,0,0,0],"sum_hessian":[4.74E2,2.72E2,2.02E2,1.44E2,1.28E2,1.5E2,5.2E1],"tree_param":{"num_deleted":"0","num_feature":"6","num_nodes":"7","size_leaf_vector":"1"}},{"base_weights":[5.28753E-1,-6.666442E-1,1.2474309E0,-2.1180866E-2,-3.2816066E-3,9.170089E-3,2.7047418E-2],"categories":[],"categories_nodes":[],"categories_segments":[],"categories_sizes":[],"default_left":[0,0,0,0,0,0,0],"id":58,"left_children":[1,3,5,-1,-1,-1,-1],"loss_changes":[4.0890674E2,5.944999E1,1.038858E2,0E0,0E0,0E0,0E0],"parents":[2147483647,0,0,1,1,2,2],"right_children":[2,4,6,-1,-1,-1,-1],"split_conditions":[5.9E1,3.5E1,8.3E1,-2.1180866E-2,-3.2816066E-3,9.170089E-3,2.7047418E-2],"split_indices":[4,4,4,0,0,0,0],"split_type":[0,0,0,0,0,0,0],"sum_hessian":[4.74E2,1.78E2,2.96E2,6.6E1,1.12E2,1.39E2,1.57E2],"tree_param":{"num_deleted":"0","num_feature":"6","num_nodes":"7","size_leaf_vector":"1"}},{"base_weights":[-3.3335465E-1,-1.2948314E0,7.869699E-1,-2.756658E-2,-9.355729E-3,6.4005684E-3,2.404945E-2],"categories":[],"categories_nodes":[],"categories_segments":[],"categories_sizes":[],"default_left":[0,0,0,0,0,0,0],"id":59,"left_children":[1,3,5,-1,-1,-1,-1],"loss_changes":[5.126728E2,9.2134094E1,6.40166E1,0E0,0E0,0E0,0E0],"parents":[2147483647,0,0,1,1,2,2],"right_children":[2,4,6,-1,-1,-1,-1],"split_conditions":[5.6E1,3.5E1,9.1E1,-2.756658E-2,-9.355729E-3,6.4005684E-3,2.404945E-2],"split_indices":[5,5,5,0,0,0,0],"split_type":[0,0,0,0,0,0,0],"sum_hessian":[4.74E2,2.55E2,2.19E2,1.4E2,1.15E2,1.53E2,6.6E1],"tree_param":{"num_deleted":"0","num_feature":"6","num_nodes":"7","size_leaf_vector":"1"}},{"base_weights":[-1.5337539E-1,-1.0458554E0,1.0071584E0,-2.5389291E-2,-7.2163097E-3,7.0127784E-3,2.1910712E-2],"categories":[],"categories_nodes":[],"categories_segments":[],"categories_sizes":[],"default_left":[0,0,0,0,0,0,0],"id":60,"left_children":[1,3,5,-1,-1,-1,-1],"loss_changes":[4.930361E2,9.7443756E1,4.9981766E1,0E0,0E0,0E0,0E0],"parents":[2147483647,0,0,1,1,2,2],"right_children":[2,4,6,-1,-1,-1,-1],"split_conditions":[6.1E1,3.5E1,8.4E1,-2.5389291E-2,-7.2163097E-3,7.0127784E-3,2.1910712E-2],"split_indices":[0,0,0,0,0,0,0],"split_type":[0,0,0,0,0,0,0],"sum_hessian":[4.74E2,2.68E2,2.06E2,1.24E2,1.44E2,9.5E1,1.11E2],"tree_param":{"num_deleted":"0","num_feature":"6","num_nodes":"7","size_leaf_vector":"1"}},{"base_weights":[7.095856E-1,-3.2748362E-1,1.4585141E0,-1.5469522E-2,5.5464112E-5,1.28074335E-2,2.6958508E-2],"categories":[],"categories_nodes":[],"categories_segments":[],"categories_sizes":[],"default_left":[0,0,0,0,0,0,0],"id":61,"left_children":[1,3,5,-1,-1,-1,-1],"loss_changes":[3.6940564E2,4.662207E1,5.4995483E1,0E0,0E0,0E0,0E0],"parents":[2147483647,0,0,1,1,2,2],"right_children":[2,4,6,-1,-1,-1,-1],"split_conditions":[6.6E1,3.9E1,8.3E1,-1.5469522E-2,5.5464112E-5,1.28074335E-2,2.6958508E-2],"split_indices":[1,1,1,0,0,0,0],"split_type":[0,0,0,0,0,0,0],"sum_hessian":[4.74E2,1.99E2,2.75E2,6.3E1,1.36E2,1E2,1.75E2],"tree_param":{"num_deleted":"0","num_feature":"6","num_nodes":"7","size_leaf_vector":"1"}},{"base_weights":[-3.4730008E-1,-1.1958451E0,8.05416E-1,-2.7609909E-2,-1.02215875E-2,7.5255325E-3,2.5422147E-2],"categories":[],"categories_nodes":[],"categories_segments":[],"categories_sizes":[],"default_left":[0,0,0,0,0,0,0],"id":62,"left_children":[1,3,5,-1,-1,-1,-1],"loss_changes":[4.655756E2,8.963071E1,5.3714188E1,0E0,0E0,0E0,0E0],"parents":[2147483647,0,0,1,1,2,2],"right_children":[2,4,6,-1,-1,-1,-1],"split_conditions":[5.3E1,2.8E1,9.1E1,-2.7609909E-2,-1.02215875E-2,7.5255325E-3,2.5422147E-2],"split_indices":[2,2,3,0,0,0,0],"split_type":[0,0,0,0,0,0,0],"sum_hessian":[4.74E2,2.73E2,2.01E2,1.2E2,1.53E2,1.51E2,5E1],"tree_param":{"num_deleted":"0","num_feature":"6","num_nodes":"7","size_leaf_vector":"1"}},{"base_weights":[-4.017139E-1,-1.3280711E0,5.500044E-1,-3.020993E-2,-1.29007865E-2,3.244524E-3,2.457285E-2],"categories":[],"categories_nodes":[],"categories_segments":[],"categories_sizes":[],"default_left":[0,0,0,0,0,0,0],"id":63,"left_children":[1,3,5,-1,-1,-1,-1],"loss_changes":[4.1950528E2,7.563498E1,8.498136E1,0E0,0E0,0E0,0E0],"parents":[2147483647,0,0,1,1,2,2],"right_children":[2,4,6,-1,-1,-1,-1],"split_conditions":[4.6E1,2.2E1,8.7E1,-3.020993E-2,-1.29007865E-2,3.244524E-3,2.457285E-2],"split_indices":[3,3,3,0,0,0,0],"split_type":[0,0,0,0,0,0,0],"sum_hessian":[4.74E2,2.4E2,2.34E2,9.6E1,1.44E2,1.8E2,5.4E1],"tree_param":{"num_deleted":"0","num_feature":"6","num_nodes":"7","size_leaf_vector":"1"}},{"base_weights":[5.208465E-1,-2.85034E-1,1.5566883E0,-1.6391957E-2,3.3874358E-3,1.7375637E-2,2.9879306E-2],"categories":[],"categories_nodes":[],"categories_segments":[],"categories_sizes":[],"default_left":[0,0,0,0,0,0,0],"id":64,"left_children":[1,3,5,-1,-1,-1,-1],"loss_changes":[3.9695694E2,1.1083869E2,3.3753876E1,0E0,0E0,0E0,0E0],"parents":[2147483647,0,0,1,1,2,2],"right_children":[2,4,6,-1,-1,-1,-1],"split_conditions":[7.5E1,4.5E1,1.02E2,-1.6391957E-2,3.3874358E-3,1.7375637E-2,2.9879306E-2],"split_indices":[4,4,4,0,0,0,0],"split_type":[0,0,0,0,0,0,0],"sum_hessian":[4.74E2,2.67E2,2.07E2,1.03E2,1.64E2,1.1E2,9.7E1],"tree_param":{"num_deleted":"0","num_feature":"6","num_nodes":"7","size_leaf_vector":"1"}},{"base_weights":[-3.2836792E-1,-1.4595381E0,5.9681827E-1,-3.136053E-2,-1.5534399E-2,-1.7651335E-4,1.7541403E-2],"categories":[],"categories_nodes":[],"categories_segments":[],"categories_sizes":[],"default_left":[0,0,0,0,0,0,0],"id":65,"left_children":[1,3,5,-1,-1,-1,-1],"loss_changes":[4.97979E2,5.5092133E1,9.131592E1,0E0,0E0,0E0,0E0],"parents":[2147483647,0,0,1,1,2,2],"right_children":[2,4,6,-1,-1,-1,-1],"split_conditions":[4.9E1,2.3E1,7.2E1,-3.136053E-2,-1.5534399E-2,-1.7651335E-4,1.7541403E-2],"split_indices":[5,5,5,0,0,0,0],"split_type":[0,0,0,0,0,0,0],"sum_hessian":[4.74E2,2.13E2,2.61E2,8.4E1,1.29E2,1.27E2,1.34E2],"tree_param":{"num_deleted":"0","num_feature":"6","num_nodes":"7","size_leaf_vector":"1"}},{"base_weights":[-1.5108258E-1,-1.2995899E0,7.257455E-1,-3.4124557E-2,-1.5762806E-2,2.139567E-3,2.0289155E-2],"categories":[],"categories_nodes":[],"categories_segments":[],"categories_sizes":[],"default_left":[0,0,0,0,0,0,0],"id":66,"left_children":[1,3,5,-1,-1,-1,-1],"loss_changes":[4.792888E2,4.7587463E1,9.850009E1,0E0,0E0,0E0,0E0],"parents":[2147483647,0,0,1,1,2,2],"right_children":[2,4,6,-1,-1,-1,-1],"split_conditions":[5E1,1.5E1,8E1,-3.4124557E-2,-1.5762806E-2,2.139567E-3,2.0289155E-2],"split_indices":[0,0,0,0,0,0,0],"split_type":[0,0,0,0,0,0,0],"sum_hessian":[4.74E2,2.05E2,2.69E2,4E1,1.65E2,1.4E2,1.29E2],"tree_param":{"num_deleted":"0","num_feature":"6","num_nodes":"7","size_leaf_vector":"1"}},{"base_weights":[6.989931E-1,-4.634285E-1,1.3484197E0,-1.5241105E-2,-1.974661E-3,1.1075849E-2,2.6266068E-2],"categories":[],"categories_nodes":[],"categories_segments":[],"categories_sizes":[],"default_left":[0,0,0,0,0,0,0],"id":67,"left_children":[1,3,5,-1,-1,-1,-1],"loss_changes":[3.5920593E2,3.1220642E1,7.362402E1,0E0,0E0,0E0,0E0],"parents":[2147483647,0,0,1,1,2,2],"right_children":[2,4,6,-1,-1,-1,-1],"split_conditions":[6.2E1,3.9E1,8.2E1,-1.5241105E-2,-1.974661E-3,1.1075849E-2,2.6266068E-2],"split_indices":[1,1,1,0,0,0,0],"split_type":[0,0,0,0,0,0,0],"sum_hessian":[4.74E2,1.7E2,3.04E2,6.3E1,1.07E2,1.22E2,1.82E2],"tree_param":{"num_deleted":"0","num_feature":"6","num_nodes":"7","size_leaf_vector":"1"}},{"base_weights":[-3.421009E-1,-1.3123974E0,6.378272E-1,-2.8493578E-2,-1.2920482E-2,3.1430107E-3,2.0215362E-2],"categories":[],"categories_nodes":[],"categories_segments":[],"categories_sizes":[],"default_left":[0,0,0,0,0,0,0],"id":68,"left_children":[1,3,5,-1,-1,-1,-1],"loss_changes":[4.52477E2,6.165921E1,7.177266E1,0E0,0E0,0E0,0E0],"parents":[2147483647,0,0,1,1,2,2],"right_children":[2,4,6,-1,-1,-1,-1],"split_conditions":[4.7E1,2.4E1,7.9E1,-2.8493578E-2,-1.2920482E-2,3.1430107E-3,2.0215362E-2],"split_indices":[2,2,2,0,0,0,0],"split_type":[0,0,0,0,0,0,0],"sum_hessian":[4.74E2,2.38E2,2.36E2,1.02E2,1.36E2,1.48E2,8.8E1],"tree_param":{"num_deleted":"0","num_feature":"6","num_nodes":"7","size_leaf_vector":"1"}},{"base_weights":[-3.9572042E-1,-1.5064914E0,3.7650764E-1,-3.0263906E-2,-1.5737828E-2,-2.8067266E-3,1.653048E-2],"categories":[],"categories_nodes":[],"categories_segments":[],"categories_sizes":[],"default_left":[0,0,0,0,0,0,0],"id":69,"left_children":[1,3,5,-1,-1,-1,-1],"loss_changes":[4.0800726E2,4.3460266E1,1.1511331E2,0E0,0E0,0E0,0E0],"parents":[2147483647,0,0,1,1,2,2],"right_children":[2,4,6,-1,-1,-1,-1],"split_conditions":[3.9E1,2E1,6.7E1,-3.0263906E-2,-1.5737828E-2,-2.8067266E-3,1.653048E-2],"split_indices":[3,3,3,0,0,0,0],"split_type":[0,0,0,0,0,0,0],"sum_hessian":[4.74E2,1.94E2,2.8E2,9E1,1.04E2,1.58E2,1.22E2],"tree_param":{"num_deleted":"0","num_feature":"6","num_nodes":"7","size_leaf_vector":"1"}},{"base_weights":[5.1310587E-1,-6.4876825E-1,1.2116324E0,-2.2953302E-2,-4.284149E-3,8.908135E-3,2.6270144E-2],"categories":[],"categories_nodes":[],"categories_segments":[],"categories_sizes":[],"default_left":[0,0,0,0,0,0,0],"id":70,"left_children":[1,3,5,-1,-1,-1,-1],"loss_changes":[3.8629602E2,5.6862038E1,9.7982605E1,0E0,0E0,0E0,0E0],"parents":[2147483647,0,0,1,1,2,2],"right_children":[2,4,6,-1,-1,-1,-1],"split_conditions":[5.9E1,3.1E1,8.3E1,-2.2953302E-2,-4.284149E-3,8.908135E-3,2.6270144E-2],"split_indices":[4,4,4,0,0,0,0],"split_type":[0,0,0,0,0,0,0],"sum_hessian":[4.74E2,1.78E2,2.96E2,5.1E1,1.27E2,1.39E2,1.57E2],"tree_param":{"num_deleted":"0","num_feature":"6","num_nodes":"7","size_leaf_vector":"1"}},{"base_weights":[-3.235046E-1,-1.257406E0,7.646876E-1,-2.6783222E-2,-9.069005E-3,6.1904606E-3,2.3434896E-2],"categories":[],"categories_nodes":[],"categories_segments":[],"categories_sizes":[],"default_left":[0,0,0,0,0,0,0],"id":71,"left_children":[1,3,5,-1,-1,-1,-1],"loss_changes":[4.8368704E2,8.718268E1,6.1122665E1,0E0,0E0,0E0,0E0],"parents":[2147483647,0,0,1,1,2,2],"right_children":[2,4,6,-1,-1,-1,-1],"split_conditions":[5.6E1,3.5E1,9.1E1,-2.6783222E-2,-9.069005E-3,6.1904606E-3,2.3434896E-2],"split_indices":[5,5,5,0,0,0,0],"split_type":[0,0,0,0,0,0,0],"sum_hessian":[4.74E2,2.55E2,2.19E2,1.4E2,1.15E2,1.53E2,6.6E1],"tree_param":{"num_deleted":"0","num_feature":"6","num_nodes":"7","size_leaf_vector":"1"}},{"base_weights":[-1.4887415E-1,-1.330615E0,6.7887616E-1,-3.3625174E-2,-1.623959E-2,1.6751597E-3,1.998716E-2],"categories":[],"categories_nodes":[],"categories_segments":[],"categories_sizes":[],"default_left":[0,0,0,0,0,0,0],"id":72,"left_children":[1,3,5,-1,-1,-1,-1],"loss_changes":[4.6554184E2,4.185367E1,1.0365329E2,0E0,0E0,0E0,0E0],"parents":[2147483647,0,0,1,1,2,2],"right_children":[2,4,6,-1,-1,-1,-1],"split_conditions":[4.8E1,1.5E1,8E1,-3.3625174E-2,-1.623959E-2,1.6751597E-3,1.998716E-2],"split_indices":[0,0,0,0,0,0,0],"split_type":[0,0,0,0,0,0,0],"sum_hessian":[4.74E2,1.95E2,2.79E2,4E1,1.55E2,1.5E2,1.29E2],"tree_param":{"num_deleted":"0","num_feature":"6","num_nodes":"7","size_leaf_vector":"1"}},{"base_weights":[6.885506E-1,-1.7316511E-1,1.5401742E0,-9.936806E-3,6.2609515E-3,1.8932646E-2,3.1153772E-2],"categories":[],"categories_nodes":[],"categories_segments":[],"categories_sizes":[],"default_left":[0,0,0,0,0,0,0],"id":73,"left_children":[1,3,5,-1,-1,-1,-1],"loss_changes":[3.4884894E2,6.8758896E1,3.304065E1,0E0,0E0,0E0,0E0],"parents":[2147483647,0,0,1,1,2,2],"right_children":[2,4,6,-1,-1,-1,-1],"split_conditions":[7.2E1,5.2E1,1.08E2,-9.936806E-3,6.2609515E-3,1.8932646E-2,3.1153772E-2],"split_indices":[1,1,1,0,0,0,0],"split_type":[0,0,0,0,0,0,0],"sum_hessian":[4.74E2,2.36E2,2.38E2,1.29E2,1.07E2,1.59E2,7.9E1],"tree_param":{"num_deleted":"0","num_feature":"6","num_nodes":"7","size_leaf_vector":"1"}},{"base_weights":[-3.370074E-1,-1.161427E0,7.82933E-1,-2.6810063E-2,-9.931475E-3,7.300852E-3,2.475603E-2],"categories":[],"categories_nodes":[],"categories_segments":[],"categories_sizes":[],"default_left":[0,0,0,0,0,0,0],"id":74,"left_children":[1,3,5,-1,-1,-1,-1],"loss_changes":[4.3947717E2,8.445123E1,5.1101135E1,0E0,0E0,0E0,0E0],"parents":[2147483647,0,0,1,1,2,2],"right_children":[2,4,6,-1,-1,-1,-1],"split_conditions":[5.3E1,2.8E1,9.1E1,-2.6810063E-2,-9.931475E-3,7.300852E-3,2.475603E-2],"split_indices":[2,2,3,0,0,0,0],"split_type":[0,0,0,0,0,0,0],"sum_hessian":[4.74E2,2.73E2,2.01E2,1.2E2,1.53E2,1.51E2,5E1],"tree_param":{"num_deleted":"0","num_feature":"6","num_nodes":"7","size_leaf_vector":"1"}},{"base_weights":[-3.8985258E-1,-1.176455E0,6.699125E-1,-2.5878029E-2,-8.2579E-3,4.9700085E-3,2.4328534E-2],"categories":[],"categories_nodes":[],"categories_segments":[],"categories_sizes":[],"default_left":[0,0,0,0,0,0,0],"id":75,"left_children":[1,3,5,-1,-1,-1,-1],"loss_changes":[3.9675467E2,9.2819244E1,6.489423E1,0E0,0E0,0E0,0E0],"parents":[2147483647,0,0,1,1,2,2],"right_children":[2,4,6,-1,-1,-1,-1],"split_conditions":[5E1,3.1E1,9E1,-2.5878029E-2,-8.2579E-3,4.9700085E-3,2.4328534E-2],"split_indices":[3,3,3,0,0,0,0],"split_type":[0,0,0,0,0,0,0],"sum_hessian":[4.74E2,2.72E2,2.02E2,1.44E2,1.28E2,1.5E2,5.2E1],"tree_param":{"num_deleted":"0","num_feature":"6","num_nodes":"7","size_leaf_vector":"1"}},{"base_weights":[5.05426E-1,-6.391889E-1,1.1935763E0,-2.2615625E-2,-4.220389E-3,8.775469E-3,2.5878586E-2],"categories":[],"categories_nodes":[],"categories_segments":[],"categories_sizes":[],"default_left":[0,0,0,0,0,0,0],"id":76,"left_children":[1,3,5,-1,-1,-1,-1],"loss_changes":[3.7490482E2,5.5205772E1,9.5082275E1,0E0,0E0,0E0,0E0],"parents":[2147483647,0,0,1,1,2,2],"right_children":[2,4,6,-1,-1,-1,-1],"split_conditions":[5.9E1,3.1E1,8.3E1,-2.2615625E-2,-4.220389E-3,8.775469E-3,2.5878586E-2],"split_indices":[4,4,4,0,0,0,0],"split_type":[0,0,0,0,0,0,0],"sum_hessian":[4.74E2,1.78E2,2.96E2,5.1E1,1.27E2,1.39E2,1.57E2],"tree_param":{"num_deleted":"0","num_feature":"6","num_nodes":"7","size_leaf_vector":"1"}},{"base_weights":[-3.1866515E-1,-1.4172487E0,5.798675E-1,-3.0498633E-2,-1.5053726E-2,-1.9091486E-4,1.7061602E-2],"categories":[],"categories_nodes":[],"categories_segments":[],"categories_sizes":[],"default_left":[0,0,0,0,0,0,0],"id":77,"left_children":[1,3,5,-1,-1,-1,-1],"loss_changes":[4.6970062E2,5.2490173E1,8.6583176E1,0E0,0E0,0E0,0E0],"parents":[2147483647,0,0,1,1,2,2],"right_children":[2,4,6,-1,-1,-1,-1],"split_conditions":[4.9E1,2.3E1,7.2E1,-3.0498633E-2,-1.5053726E-2,-1.9091486E-4,1.7061602E-2],"split_indices":[5,5,5,0,0,0,0],"split_type":[0,0,0,0,0,0,0],"sum_hessian":[4.74E2,2.13E2,2.61E2,8.4E1,1.29E2,1.27E2,1.34E2],"tree_param":{"num_deleted":"0","num_feature":"6","num_nodes":"7","size_leaf_vector":"1"}},{"base_weights":[-1.4670037E-1,-1.0021441E0,9.65672E-1,-2.4363717E-2,-6.884048E-3,6.749509E-3,2.0986238E-2],"categories":[],"categories_nodes":[],"categories_segments":[],"categories_sizes":[],"default_left":[0,0,0,0,0,0,0],"id":78,"left_children":[1,3,5,-1,-1,-1,-1],"loss_changes":[4.5296445E2,9.015811E1,4.563742E1,0E0,0E0,0E0,0E0],"parents":[2147483647,0,0,1,1,2,2],"right_children":[2,4,6,-1,-1,-1,-1],"split_conditions":[6.1E1,3.5E1,8.4E1,-2.4363717E-2,-6.884048E-3,6.749509E-3,2.0986238E-2],"split_indices":[0,0,0,0,0,0,0],"split_type":[0,0,0,0,0,0,0],"sum_hessian":[4.74E2,2.68E2,2.06E2,1.24E2,1.44E2,9.5E1,1.11E2],"tree_param":{"num_deleted":"0","num_feature":"6","num_nodes":"7","size_leaf_vector":"1"}},{"base_weights":[6.7832005E-1,-4.5058274E-1,1.309022E0,-1.4869337E-2,-1.8898813E-3,1.1138248E-2,2.5800016E-2],"categories":[],"categories_nodes":[],"categories_segments":[],"categories_sizes":[],"default_left":[0,0,0,0,0,0,0],"id":79,"left_children":[1,3,5,-1,-1,-1,-1],"loss_changes":[3.387903E2,2.9887012E1,6.972931E1,0E0,0E0,0E0,0E0],"parents":[2147483647,0,0,1,1,2,2],"right_children":[2,4,6,-1,-1,-1,-1],"split_conditions":[6.2E1,3.9E1,8.3E1,-1.4869337E-2,-1.8898813E-3,1.1138248E-2,2.5800016E-2],"split_indices":[1,1,1,0,0,0,0],"split_type":[0,0,0,0,0,0,0],"sum_hessian":[4.74E2,1.7E2,3.04E2,6.3E1,1.07E2,1.29E2,1.75E2],"tree_param":{"num_deleted":"0","num_feature":"6","num_nodes":"7","size_leaf_vector":"1"}},{"base_weights":[-3.319621E-1,-1.2745202E0,6.199507E-1,-2.7672075E-2,-1.2546941E-2,2.5834339E-3,1.8965572E-2],"categories":[],"categories_nodes":[],"categories_segments":[],"categories_sizes":[],"default_left":[0,0,0,0,0,0,0],"id":80,"left_children":[1,3,5,-1,-1,-1,-1],"loss_changes":[4.2697586E2,5.816324E1,6.8161766E1,0E0,0E0,0E0,0E0],"parents":[2147483647,0,0,1,1,2,2],"right_children":[2,4,6,-1,-1,-1,-1],"split_conditions":[4.7E1,2.4E1,7.7E1,-2.7672075E-2,-1.2546941E-2,2.5834339E-3,1.8965572E-2],"split_indices":[2,2,2,0,0,0,0],"split_type":[0,0,0,0,0,0,0],"sum_hessian":[4.74E2,2.38E2,2.36E2,1.02E2,1.36E2,1.4E2,9.6E1],"tree_param":{"num_deleted":"0","num_feature":"6","num_nodes":"7","size_leaf_vector":"1"}},{"base_weights":[-3.8401505E-1,-1.1589333E0,6.6000813E-1,-2.5492536E-2,-8.134992E-3,4.769375E-3,2.3619777E-2],"categories":[],"categories_nodes":[],"categories_segments":[],"categories_sizes":[],"default_left":[0,0,0,0,0,0,0],"id":81,"left_children":[1,3,5,-1,-1,-1,-1],"loss_changes":[3.850554E2,9.0073364E1,6.3008614E1,0E0,0E0,0E0,0E0],"parents":[2147483647,0,0,1,1,2,2],"right_children":[2,4,6,-1,-1,-1,-1],"split_conditions":[5E1,3.1E1,8.7E1,-2.5492536E-2,-8.134992E-3,4.769375E-3,2.3619777E-2],"split_indices":[3,3,3,0,0,0,0],"split_type":[0,0,0,0,0,0,0],"sum_hessian":[4.74E2,2.72E2,2.02E2,1.44E2,1.28E2,1.48E2,5.4E1],"tree_param":{"num_deleted":"0","num_feature":"6","num_nodes":"7","size_leaf_vector":"1"}},{"base_weights":[4.978611E-1,-2.7397764E-1,1.489952E0,-1.5749462E-2,3.2518427E-3,1.723513E-2,2.9546987E-2],"categories":[],"categories_nodes":[],"categories_segments":[],"categories_sizes":[],"default_left":[0,0,0,0,0,0,0],"id":82,"left_children":[1,3,5,-1,-1,-1,-1],"loss_changes":[3.6413196E2,1.0228972E2,3.1765625E1,0E0,0E0,0E0,0E0],"parents":[2147483647,0,0,1,1,2,2],"right_children":[2,4,6,-1,-1,-1,-1],"split_conditions":[7.5E1,4.5E1,1.05E2,-1.5749462E-2,3.2518427E-3,1.723513E-2,2.9546987E-2],"split_indices":[4,4,4,0,0,0,0],"split_type":[0,0,0,0,0,0,0],"sum_hessian":[4.74E2,2.67E2,2.07E2,1.03E2,1.64E2,1.23E2,8.4E1],"tree_param":{"num_deleted":"0","num_feature":"6","num_nodes":"7","size_leaf_vector":"1"}},{"base_weights":[-3.1394556E-1,-1.2210606E0,7.430335E-1,-2.6022099E-2,-8.791004E-3,5.9867804E-3,2.2836514E-2],"categories":[],"categories_nodes":[],"categories_segments":[],"categories_sizes":[],"default_left":[0,0,0,0,0,0,0],"id":83,"left_children":[1,3,5,-1,-1,-1,-1],"loss_changes":[4.5633804E2,8.249704E1,5.836281E1,0E0,0E0,0E0,0E0],"parents":[2147483647,0,0,1,1,2,2],"right_children":[2,4,6,-1,-1,-1,-1],"split_conditions":[5.6E1,3.5E1,9.1E1,-2.6022099E-2,-8.791004E-3,5.9867804E-3,2.2836514E-2],"split_indices":[5,5,5,0,0,0,0],"split_type":[0,0,0,0,0,0,0],"sum_hessian":[4.74E2,2.55E2,2.19E2,1.4E2,1.15E2,1.53E2,6.6E1],"tree_param":{"num_deleted":"0","num_feature":"6","num_nodes":"7","size_leaf_vector":"1"}},{"base_weights":[-1.4450723E-1,-1.0893553E0,8.33261E-1,-2.4001183E-2,-8.0865435E-3,4.617666E-3,2.0340696E-2],"categories":[],"categories_nodes":[],"categories_segments":[],"categories_sizes":[],"default_left":[0,0,0,0,0,0,0],"id":84,"left_children":[1,3,5,-1,-1,-1,-1],"loss_changes":[4.3973294E2,6.7145874E1,6.385771E1,0E0,0E0,0E0,0E0],"parents":[2147483647,0,0,1,1,2,2],"right_children":[2,4,6,-1,-1,-1,-1],"split_conditions":[5.5E1,3.5E1,8.3E1,-2.4001183E-2,-8.0865435E-3,4.617666E-3,2.0340696E-2],"split_indices":[0,0,0,0,0,0,0],"split_type":[0,0,0,0,0,0,0],"sum_hessian":[4.74E2,2.41E2,2.33E2,1.24E2,1.17E2,1.17E2,1.16E2],"tree_param":{"num_deleted":"0","num_feature":"6","num_nodes":"7","size_leaf_vector":"1"}},{"base_weights":[6.681878E-1,-1.6887899E-1,1.4954541E0,-9.666419E-3,6.07657E-3,1.8352445E-2,3.0310145E-2],"categories":[],"categories_nodes":[],"categories_segments":[],"categories_sizes":[],"default_left":[0,0,0,0,0,0,0],"id":85,"left_children":[1,3,5,-1,-1,-1,-1],"loss_changes":[3.291792E2,6.495195E1,3.1666016E1,0E0,0E0,0E0,0E0],"parents":[2147483647,0,0,1,1,2,2],"right_children":[2,4,6,-1,-1,-1,-1],"split_conditions":[7.2E1,5.2E1,1.08E2,-9.666419E-3,6.07657E-3,1.8352445E-2,3.0310145E-2],"split_indices":[1,1,1,0,0,0,0],"split_type":[0,0,0,0,0,0,0],"sum_hessian":[4.74E2,2.36E2,2.38E2,1.29E2,1.07E2,1.59E2,7.9E1],"tree_param":{"num_deleted":"0","num_feature":"6","num_nodes":"7","size_leaf_vector":"1"}},{"base_weights":[-3.2702196E-1,-1.1279405E0,7.609915E-1,-2.6033333E-2,-9.648068E-3,7.07758E-3,2.4117885E-2],"categories":[],"categories_nodes":[],"categories_segments":[],"categories_sizes":[],"default_left":[0,0,0,0,0,0,0],"id":86,"left_children":[1,3,5,-1,-1,-1,-1],"loss_changes":[4.1477826E2,7.958569E1,4.8705933E1,0E0,0E0,0E0,0E0],"parents":[2147483647,0,0,1,1,2,2],"right_children":[2,4,6,-1,-1,-1,-1],"split_conditions":[5.3E1,2.8E1,9.1E1,-2.6033333E-2,-9.648068E-3,7.07758E-3,2.4117885E-2],"split_indices":[2,2,3,0,0,0,0],"split_type":[0,0,0,0,0,0,0],"sum_hessian":[4.74E2,2.73E2,2.01E2,1.2E2,1.53E2,1.51E2,5E1],"tree_param":{"num_deleted":"0","num_feature":"6","num_nodes":"7","size_leaf_vector":"1"}},{"base_weights":[-3.7826586E-1,-1.4419917E0,3.6125302E-1,-2.905285E-2,-1.4990631E-2,-2.717769E-3,1.5892737E-2],"categories":[],"categories_nodes":[],"categories_segments":[],"categories_sizes":[],"default_left":[0,0,0,0,0,0,0],"id":87,"left_children":[1,3,5,-1,-1,-1,-1],"loss_changes":[3.7417746E2,4.0776215E1,1.06624664E2,0E0,0E0,0E0,0E0],"parents":[2147483647,0,0,1,1,2,2],"right_children":[2,4,6,-1,-1,-1,-1],"split_conditions":[3.9E1,2E1,6.7E1,-2.905285E-2,-1.4990631E-2,-2.717769E-3,1.5892737E-2],"split_indices":[3,3,3,0,0,0,0],"split_type":[0,0,0,0,0,0,0],"sum_hessian":[4.74E2,1.94E2,2.8E2,9E1,1.04E2,1.58E2,1.22E2],"tree_param":{"num_deleted":"0","num_feature":"6","num_nodes":"7","size_leaf_vector":"1"}},{"base_weights":[4.9046537E-1,-6.220509E-1,1.1593204E0,-2.2051213E-2,-4.090183E-3,8.521439E-3,2.5137791E-2],"categories":[],"categories_nodes":[],"categories_segments":[],"categories_sizes":[],"default_left":[0,0,0,0,0,0,0],"id":88,"left_children":[1,3,5,-1,-1,-1,-1],"loss_changes":[3.5417444E2,5.2632896E1,8.974774E1,0E0,0E0,0E0,0E0],"parents":[2147483647,0,0,1,1,2,2],"right_children":[2,4,6,-1,-1,-1,-1],"split_conditions":[5.9E1,3.1E1,8.3E1,-2.2051213E-2,-4.090183E-3,8.521439E-3,2.5137791E-2],"split_indices":[4,4,4,0,0,0,0],"split_type":[0,0,0,0,0,0,0],"sum_hessian":[4.74E2,1.78E2,2.96E2,5.1E1,1.27E2,1.39E2,1.57E2],"tree_param":{"num_deleted":"0","num_feature":"6","num_nodes":"7","size_leaf_vector":"1"}},{"base_weights":[-3.0924892E-1,-1.3761802E0,5.6339437E-1,-2.9660795E-2,-1.4587467E-2,-2.044376E-4,1.6594872E-2],"categories":[],"categories_nodes":[],"categories_segments":[],"categories_sizes":[],"default_left":[0,0,0,0,0,0,0],"id":89,"left_children":[1,3,5,-1,-1,-1,-1],"loss_changes":[4.4302426E2,5.0014008E1,8.20954E1,0E0,0E0,0E0,0E0],"parents":[2147483647,0,0,1,1,2,2],"right_children":[2,4,6,-1,-1,-1,-1],"split_conditions":[4.9E1,2.3E1,7.2E1,-2.9660795E-2,-1.4587467E-2,-2.044376E-4,1.6594872E-2],"split_indices":[5,5,5,0,0,0,0],"split_type":[0,0,0,0,0,0,0],"sum_hessian":[4.74E2,2.13E2,2.61E2,8.4E1,1.29E2,1.27E2,1.34E2],"tree_param":{"num_deleted":"0","num_feature":"6","num_nodes":"7","size_leaf_vector":"1"}},{"base_weights":[-1.4235467E-1,-1.274889E0,6.509277E-1,-3.2425318E-2,-1.5504714E-2,1.6377395E-3,1.9127676E-2],"categories":[],"categories_nodes":[],"categories_segments":[],"categories_sizes":[],"default_left":[0,0,0,0,0,0,0],"id":90,"left_children":[1,3,5,-1,-1,-1,-1],"loss_changes":[4.2757916E2,3.969635E1,9.45525E1,0E0,0E0,0E0,0E0],"parents":[2147483647,0,0,1,1,2,2],"right_children":[2,4,6,-1,-1,-1,-1],"split_conditions":[4.8E1,1.5E1,8E1,-3.2425318E-2,-1.5504714E-2,1.6377395E-3,1.9127676E-2],"split_indices":[0,0,0,0,0,0,0],"split_type":[0,0,0,0,0,0,0],"sum_hessian":[4.74E2,1.95E2,2.79E2,4E1,1.55E2,1.5E2,1.29E2],"tree_param":{"num_deleted":"0","num_feature":"6","num_nodes":"7","size_leaf_vector":"1"}},{"base_weights":[6.5825987E-1,-4.3808666E-1,1.2707746E0,-1.4507048E-2,-1.8077884E-3,1.0391418E-2,2.478497E-2],"categories":[],"categories_nodes":[],"categories_segments":[],"categories_sizes":[],"default_left":[0,0,0,0,0,0,0],"id":91,"left_children":[1,3,5,-1,-1,-1,-1],"loss_changes":[3.195327E2,2.8612984E1,6.612152E1,0E0,0E0,0E0,0E0],"parents":[2147483647,0,0,1,1,2,2],"right_children":[2,4,6,-1,-1,-1,-1],"split_conditions":[6.2E1,3.9E1,8.2E1,-1.4507048E-2,-1.8077884E-3,1.0391418E-2,2.478497E-2],"split_indices":[1,1,1,0,0,0,0],"split_type":[0,0,0,0,0,0,0],"sum_hessian":[4.74E2,1.7E2,3.04E2,6.3E1,1.07E2,1.22E2,1.82E2],"tree_param":{"num_deleted":"0","num_feature":"6","num_nodes":"7","size_leaf_vector":"1"}},{"base_weights":[-3.221261E-1,-1.237736E0,6.025696E-1,-2.6874313E-2,-1.2184152E-2,2.5000079E-3,1.8449832E-2],"categories":[],"categories_nodes":[],"categories_segments":[],"categories_sizes":[],"default_left":[0,0,0,0,0,0,0],"id":92,"left_children":[1,3,5,-1,-1,-1,-1],"loss_changes":[4.0290952E2,5.4866364E1,6.4612976E1,0E0,0E0,0E0,0E0],"parents":[2147483647,0,0,1,1,2,2],"right_children":[2,4,6,-1,-1,-1,-1],"split_conditions":[4.7E1,2.4E1,7.7E1,-2.6874313E-2,-1.2184152E-2,2.5000079E-3,1.8449832E-2],"split_indices":[2,2,2,0,0,0,0],"split_type":[0,0,0,0,0,0,0],"sum_hessian":[4.74E2,2.38E2,2.36E2,1.02E2,1.36E2,1.4E2,9.6E1],"tree_param":{"num_deleted":"0","num_feature":"6","num_nodes":"7","size_leaf_vector":"1"}},{"base_weights":[-3.7265688E-1,-1.0417839E0,7.7001786E-1,-2.4758555E-2,-7.038698E-3,5.3953887E-3,2.1977901E-2],"categories":[],"categories_nodes":[],"categories_segments":[],"categories_sizes":[],"default_left":[0,0,0,0,0,0,0],"id":93,"left_children":[1,3,5,-1,-1,-1,-1],"loss_changes":[3.6398462E2,1.0379138E2,4.967666E1,0E0,0E0,0E0,0E0],"parents":[2147483647,0,0,1,1,2,2],"right_children":[2,4,6,-1,-1,-1,-1],"split_conditions":[5.6E1,3.1E1,8.8E1,-2.4758555E-2,-7.038698E-3,5.3953887E-3,2.1977901E-2],"split_indices":[3,3,2,0,0,0,0],"split_type":[0,0,0,0,0,0,0],"sum_hessian":[4.74E2,2.99E2,1.75E2,1.44E2,1.55E2,1.11E2,6.4E1],"tree_param":{"num_deleted":"0","num_feature":"6","num_nodes":"7","size_leaf_vector":"1"}},{"base_weights":[4.831241E-1,-6.128663E-1,1.1420438E0,-1.9578595E-2,-2.9538057E-3,8.394528E-3,2.4763107E-2],"categories":[],"categories_nodes":[],"categories_segments":[],"categories_sizes":[],"default_left":[0,0,0,0,0,0,0],"id":94,"left_children":[1,3,5,-1,-1,-1,-1],"loss_changes":[3.437305E2,5.129316E1,8.709122E1,0E0,0E0,0E0,0E0],"parents":[2147483647,0,0,1,1,2,2],"right_children":[2,4,6,-1,-1,-1,-1],"split_conditions":[5.9E1,3.5E1,8.3E1,-1.9578595E-2,-2.9538057E-3,8.394528E-3,2.4763107E-2],"split_indices":[4,4,4,0,0,0,0],"split_type":[0,0,0,0,0,0,0],"sum_hessian":[4.74E2,1.78E2,2.96E2,6.6E1,1.12E2,1.39E2,1.57E2],"tree_param":{"num_deleted":"0","num_feature":"6","num_nodes":"7","size_leaf_vector":"1"}},{"base_weights":[-3.046689E-1,-1.1857641E0,7.219903E-1,-2.5282579E-2,-8.5214665E-3,5.7893405E-3,2.2253871E-2],"categories":[],"categories_nodes":[],"categories_segments":[],"categories_sizes":[],"default_left":[0,0,0,0,0,0,0],"id":95,"left_children":[1,3,5,-1,-1,-1,-1],"loss_changes":[4.305337E2,7.8062836E1,5.5730682E1,0E0,0E0,0E0,0E0],"parents":[2147483647,0,0,1,1,2,2],"right_children":[2,4,6,-1,-1,-1,-1],"split_conditions":[5.6E1,3.5E1,9.1E1,-2.5282579E-2,-8.5214665E-3,5.7893405E-3,2.2253871E-2],"split_indices":[5,5,5,0,0,0,0],"split_type":[0,0,0,0,0,0,0],"sum_hessian":[4.74E2,2.55E2,2.19E2,1.4E2,1.15E2,1.53E2,6.6E1],"tree_param":{"num_deleted":"0","num_feature":"6","num_nodes":"7","size_leaf_vector":"1"}},{"base_weights":[-1.4027654E-1,-9.5979965E-1,9.253853E-1,-2.3332119E-2,-6.595012E-3,6.4949947E-3,2.0087516E-2],"categories":[],"categories_nodes":[],"categories_segments":[],"categories_sizes":[],"default_left":[0,0,0,0,0,0,0],"id":96,"left_children":[1,3,5,-1,-1,-1,-1],"loss_changes":[4.157221E2,8.266028E1,4.159442E1,0E0,0E0,0E0,0E0],"parents":[2147483647,0,0,1,1,2,2],"right_children":[2,4,6,-1,-1,-1,-1],"split_conditions":[6.1E1,3.5E1,8.4E1,-2.3332119E-2,-6.595012E-3,6.4949947E-3,2.0087516E-2],"split_indices":[0,0,0,0,0,0,0],"split_type":[0,0,0,0,0,0,0],"sum_hessian":[4.74E2,2.68E2,2.06E2,1.24E2,1.44E2,9.5E1,1.11E2],"tree_param":{"num_deleted":"0","num_feature":"6","num_nodes":"7","size_leaf_vector":"1"}},{"base_weights":[6.4842564E-1,-1.6458233E-1,1.451917E0,-9.403315E-3,5.901304E-3,1.7784992E-2,2.9494045E-2],"categories":[],"categories_nodes":[],"categories_segments":[],"categories_sizes":[],"default_left":[0,0,0,0,0,0,0],"id":97,"left_children":[1,3,5,-1,-1,-1,-1],"loss_changes":[3.1053033E2,6.1384956E1,3.0398956E1,0E0,0E0,0E0,0E0],"parents":[2147483647,0,0,1,1,2,2],"right_children":[2,4,6,-1,-1,-1,-1],"split_conditions":[7.2E1,5.2E1,1.08E2,-9.403315E-3,5.901304E-3,1.7784992E-2,2.9494045E-2],"split_indices":[1,1,1,0,0,0,0],"split_type":[0,0,0,0,0,0,0],"sum_hessian":[4.74E2,2.36E2,2.38E2,1.29E2,1.07E2,1.59E2,7.9E1],"tree_param":{"num_deleted":"0","num_feature":"6","num_nodes":"7","size_leaf_vector":"1"}},{"base_weights":[-3.1733233E-1,-1.095419E0,7.3966324E-1,-2.5279056E-2,-9.37277E-3,6.860881E-3,2.349658E-2],"categories":[],"categories_nodes":[],"categories_segments":[],"categories_sizes":[],"default_left":[0,0,0,0,0,0,0],"id":98,"left_children":[1,3,5,-1,-1,-1,-1],"loss_changes":[3.9146655E2,7.4999725E1,4.6425247E1,0E0,0E0,0E0,0E0],"parents":[2147483647,0,0,1,1,2,2],"right_children":[2,4,6,-1,-1,-1,-1],"split_conditions":[5.3E1,2.8E1,9.1E1,-2.5279056E-2,-9.37277E-3,6.860881E-3,2.349658E-2],"split_indices":[2,2,3,0,0,0,0],"split_type":[0,0,0,0,0,0,0],"sum_hessian":[4.74E2,2.73E2,2.01E2,1.2E2,1.53E2,1.51E2,5E1],"tree_param":{"num_deleted":"0","num_feature":"6","num_nodes":"7","size_leaf_vector":"1"}},{"base_weights":[-3.670764E-1,-1.0262632E0,7.586231E-1,-2.4389738E-2,-6.9337958E-3,5.31518E-3,2.1653306E-2],"categories":[],"categories_nodes":[],"categories_segments":[],"categories_sizes":[],"default_left":[0,0,0,0,0,0,0],"id":99,"left_children":[1,3,5,-1,-1,-1,-1],"loss_changes":[3.5325055E2,1.0072272E2,4.8223267E1,0E0,0E0,0E0,0E0],"parents":[2147483647,0,0,1,1,2,2],"right_children":[2,4,6,-1,-1,-1,-1],"split_conditions":[5.6E1,3.1E1,8.8E1,-2.4389738E-2,-6.9337958E-3,5.31518E-3,2.1653306E-2],"split_indices":[3,3,2,0,0,0,0],"split_type":[0,0,0,0,0,0,0],"sum_hessian":[4.74E2,2.99E2,1.75E2,1.44E2,1.55E2,1.11E2,6.4E1],"tree_param":{"num_deleted":"0","num_feature":"6","num_nodes":"7","size_leaf_vector":"1"}},{"base_weights":[4.7589964E-1,-2.6334167E-1,1.4260957E0,-1.5120477E-2,3.1145213E-3,1.6435718E-2,2.8369285E-2],"categories":[],"categories_nodes":[],"categories_segments":[],"categories_sizes":[],"default_left":[0,0,0,0,0,0,0],"id":100,"left_children":[1,3,5,-1,-1,-1,-1],"loss_changes":[3.34027E2,9.4205345E1,2.9895233E1,0E0,0E0,0E0,0E0],"parents":[2147483647,0,0,1,1,2,2],"right_children":[2,4,6,-1,-1,-1,-1],"split_conditions":[7.5E1,4.5E1,1.05E2,-1.5120477E-2,3.1145213E-3,1.6435718E-2,2.8369285E-2],"split_indices":[4,4,4,0,0,0,0],"split_type":[0,0,0,0,0,0,0],"sum_hessian":[4.74E2,2.67E2,2.07E2,1.03E2,1.64E2,1.23E2,8.4E1],"tree_param":{"num_deleted":"0","num_feature":"6","num_nodes":"7","size_leaf_vector":"1"}},{"base_weights":[-3.0011097E-1,-1.3362974E0,5.473853E-1,-2.884634E-2,-1.4135197E-2,-2.1712133E-4,1.6140856E-2],"categories":[],"categories_nodes":[],"categories_segments":[],"categories_sizes":[],"default_left":[0,0,0,0,0,0,0],"id":101,"left_children":[1,3,5,-1,-1,-1,-1],"loss_changes":[4.1785944E2,4.7657562E1,7.7839935E1,0E0,0E0,0E0,0E0],"parents":[2147483647,0,0,1,1,2,2],"right_children":[2,4,6,-1,-1,-1,-1],"split_conditions":[4.9E1,2.3E1,7.2E1,-2.884634E-2,-1.4135197E-2,-2.1712133E-4,1.6140856E-2],"split_indices":[5,5,5,0,0,0,0],"split_type":[0,0,0,0,0,0,0],"sum_hessian":[4.74E2,2.13E2,2.61E2,8.4E1,1.29E2,1.27E2,1.34E2],"tree_param":{"num_deleted":"0","num_feature":"6","num_nodes":"7","size_leaf_vector":"1"}},{"base_weights":[-1.3817945E-1,-1.2388601E0,6.327905E-1,-3.1609353E-2,-1.5040161E-2,1.6114803E-3,1.8572206E-2],"categories":[],"categories_nodes":[],"categories_segments":[],"categories_sizes":[],"default_left":[0,0,0,0,0,0,0],"id":102,"left_children":[1,3,5,-1,-1,-1,-1],"loss_changes":[4.0386505E2,3.8088257E1,8.891514E1,0E0,0E0,0E0,0E0],"parents":[2147483647,0,0,1,1,2,2],"right_children":[2,4,6,-1,-1,-1,-1],"split_conditions":[4.8E1,1.5E1,8E1,-3.1609353E-2,-1.5040161E-2,1.6114803E-3,1.8572206E-2],"split_indices":[0,0,0,0,0,0,0],"split_type":[0,0,0,0,0,0,0],"sum_hessian":[4.74E2,1.95E2,2.79E2,4E1,1.55E2,1.5E2,1.29E2],"tree_param":{"num_deleted":"0","num_feature":"6","num_nodes":"7","size_leaf_vector":"1"}},{"base_weights":[6.387913E-1,-2.9796147E-1,1.3152833E0,-1.4153998E-2,8.738326E-5,1.1486747E-2,2.4347223E-2],"categories":[],"categories_nodes":[],"categories_segments":[],"categories_sizes":[],"default_left":[0,0,0,0,0,0,0],"id":103,"left_children":[1,3,5,-1,-1,-1,-1],"loss_changes":[3.014021E2,3.9232815E1,4.5448425E1,0E0,0E0,0E0,0E0],"parents":[2147483647,0,0,1,1,2,2],"right_children":[2,4,6,-1,-1,-1,-1],"split_conditions":[6.6E1,3.9E1,8.3E1,-1.4153998E-2,8.738326E-5,1.1486747E-2,2.4347223E-2],"split_indices":[1,1,1,0,0,0,0],"split_type":[0,0,0,0,0,0,0],"sum_hessian":[4.74E2,1.99E2,2.75E2,6.3E1,1.36E2,1E2,1.75E2],"tree_param":{"num_deleted":"0","num_feature":"6","num_nodes":"7","size_leaf_vector":"1"}},{"base_weights":[-3.1258145E-1,-1.2020134E0,5.856752E-1,-2.609961E-2,-1.1831811E-2,2.849649E-3,1.8623343E-2],"categories":[],"categories_nodes":[],"categories_segments":[],"categories_sizes":[],"default_left":[0,0,0,0,0,0,0],"id":104,"left_children":[1,3,5,-1,-1,-1,-1],"loss_changes":[3.801996E2,5.175708E1,6.1273026E1,0E0,0E0,0E0,0E0],"parents":[2147483647,0,0,1,1,2,2],"right_children":[2,4,6,-1,-1,-1,-1],"split_conditions":[4.7E1,2.4E1,7.9E1,-2.609961E-2,-1.1831811E-2,2.849649E-3,1.8623343E-2],"split_indices":[2,2,2,0,0,0,0],"split_type":[0,0,0,0,0,0,0],"sum_hessian":[4.74E2,2.38E2,2.36E2,1.02E2,1.36E2,1.48E2,8.8E1],"tree_param":{"num_deleted":"0","num_feature":"6","num_nodes":"7","size_leaf_vector":"1"}},{"base_weights":[-3.6157942E-1,-1.235813E0,4.6417382E-1,-2.7415162E-2,-1.20209E-2,-3.9461863E-4,1.6614014E-2],"categories":[],"categories_nodes":[],"categories_segments":[],"categories_sizes":[],"default_left":[0,0,0,0,0,0,0],"id":105,"left_children":[1,3,5,-1,-1,-1,-1],"loss_changes":[3.434767E2,5.7929504E1,7.7348495E1,0E0,0E0,0E0,0E0],"parents":[2147483647,0,0,1,1,2,2],"right_children":[2,4,6,-1,-1,-1,-1],"split_conditions":[4.5E1,2.2E1,7.1E1,-2.7415162E-2,-1.20209E-2,-3.9461863E-4,1.6614014E-2],"split_indices":[3,3,3,0,0,0,0],"split_type":[0,0,0,0,0,0,0],"sum_hessian":[4.74E2,2.3E2,2.44E2,9.6E1,1.34E2,1.39E2,1.05E2],"tree_param":{"num_deleted":"0","num_feature":"6","num_nodes":"7","size_leaf_vector":"1"}},{"base_weights":[4.6883026E-1,-5.964034E-1,1.1092613E0,-2.121633E-2,-3.89136E-3,8.151763E-3,2.4053873E-2],"categories":[],"categories_nodes":[],"categories_segments":[],"categories_sizes":[],"default_left":[0,0,0,0,0,0,0],"id":106,"left_children":[1,3,5,-1,-1,-1,-1],"loss_changes":[3.247107E2,4.8975384E1,8.219861E1,0E0,0E0,0E0,0E0],"parents":[2147483647,0,0,1,1,2,2],"right_children":[2,4,6,-1,-1,-1,-1],"split_conditions":[5.9E1,3.1E1,8.3E1,-2.121633E-2,-3.89136E-3,8.151763E-3,2.4053873E-2],"split_indices":[4,4,4,0,0,0,0],"split_type":[0,0,0,0,0,0,0],"sum_hessian":[4.74E2,1.78E2,2.96E2,5.1E1,1.27E2,1.39E2,1.57E2],"tree_param":{"num_deleted":"0","num_feature":"6","num_nodes":"7","size_leaf_vector":"1"}},{"base_weights":[-2.956663E-1,-1.1514859E0,7.015405E-1,-2.4564045E-2,-8.260136E-3,5.597956E-3,2.1686545E-2],"categories":[],"categories_nodes":[],"categories_segments":[],"categories_sizes":[],"default_left":[0,0,0,0,0,0,0],"id":107,"left_children":[1,3,5,-1,-1,-1,-1],"loss_changes":[4.0618668E2,7.386664E1,5.3220238E1,0E0,0E0,0E0,0E0],"parents":[2147483647,0,0,1,1,2,2],"right_children":[2,4,6,-1,-1,-1,-1],"split_conditions":[5.6E1,3.5E1,9.1E1,-2.4564045E-2,-8.260136E-3,5.597956E-3,2.1686545E-2],"split_indices":[5,5,5,0,0,0,0],"split_type":[0,0,0,0,0,0,0],"sum_hessian":[4.74E2,2.55E2,2.19E2,1.4E2,1.15E2,1.53E2,6.6E1],"tree_param":{"num_deleted":"0","num_feature":"6","num_nodes":"7","size_leaf_vector":"1"}},{"base_weights":[-1.3616246E-1,-9.3258476E-1,8.994596E-1,-2.2681607E-2,-6.398473E-3,6.326963E-3,1.95128E-2],"categories":[],"categories_nodes":[],"categories_segments":[],"categories_sizes":[],"default_left":[0,0,0,0,0,0,0],"id":108,"left_children":[1,3,5,-1,-1,-1,-1],"loss_changes":[3.9261526E2,7.82392E1,3.913951E1,0E0,0E0,0E0,0E0],"parents":[2147483647,0,0,1,1,2,2],"right_children":[2,4,6,-1,-1,-1,-1],"split_conditions":[6.1E1,3.5E1,8.4E1,-2.2681607E-2,-6.398473E-3,6.326963E-3,1.95128E-2],"split_indices":[0,0,0,0,0,0,0],"split_type":[0,0,0,0,0,0,0],"sum_hessian":[4.74E2,2.68E2,2.06E2,1.24E2,1.44E2,9.5E1,1.11E2],"tree_param":{"num_deleted":"0","num_feature":"6","num_nodes":"7","size_leaf_vector":"1"}},{"base_weights":[6.2925524E-1,-4.5012057E-1,1.1998911E0,-1.3945007E-2,-2.172235E-3,9.7445855E-3,2.371825E-2],"categories":[],"categories_nodes":[],"categories_segments":[],"categories_sizes":[],"default_left":[0,0,0,0,0,0,0],"id":109,"left_children":[1,3,5,-1,-1,-1,-1],"loss_changes":[2.9310712E2,2.402267E1,6.4228424E1,0E0,0E0,0E0,0E0],"parents":[2147483647,0,0,1,1,2,2],"right_children":[2,4,6,-1,-1,-1,-1],"split_conditions":[6.1E1,3.9E1,8.2E1,-1.3945007E-2,-2.172235E-3,9.7445855E-3,2.371825E-2],"split_indices":[1,1,1,0,0,0,0],"split_type":[0,0,0,0,0,0,0],"sum_hessian":[4.74E2,1.64E2,3.1E2,6.3E1,1.01E2,1.28E2,1.82E2],"tree_param":{"num_deleted":"0","num_feature":"6","num_nodes":"7","size_leaf_vector":"1"}},{"base_weights":[-3.0792734E-1,-1.0638896E0,7.190113E-1,-2.4546582E-2,-9.106819E-3,6.6554733E-3,2.2881808E-2],"categories":[],"categories_nodes":[],"categories_segments":[],"categories_sizes":[],"default_left":[0,0,0,0,0,0,0],"id":110,"left_children":[1,3,5,-1,-1,-1,-1],"loss_changes":[3.6952023E2,7.0663605E1,4.417206E1,0E0,0E0,0E0,0E0],"parents":[2147483647,0,0,1,1,2,2],"right_children":[2,4,6,-1,-1,-1,-1],"split_conditions":[5.3E1,2.8E1,9.1E1,-2.4546582E-2,-9.106819E-3,6.6554733E-3,2.2881808E-2],"split_indices":[2,2,3,0,0,0,0],"split_type":[0,0,0,0,0,0,0],"sum_hessian":[4.74E2,2.73E2,2.01E2,1.2E2,1.53E2,1.51E2,5E1],"tree_param":{"num_deleted":"0","num_feature":"6","num_nodes":"7","size_leaf_vector":"1"}},{"base_weights":[-3.5620463E-1,-1.361173E0,3.42461E-1,-2.7486015E-2,-1.4097177E-2,-1.6559395E-3,1.6367156E-2],"categories":[],"categories_nodes":[],"categories_segments":[],"categories_sizes":[],"default_left":[0,0,0,0,0,0,0],"id":111,"left_children":[1,3,5,-1,-1,-1,-1],"loss_changes":[3.3398114E2,3.699652E1,9.5392426E1,0E0,0E0,0E0,0E0],"parents":[2147483647,0,0,1,1,2,2],"right_children":[2,4,6,-1,-1,-1,-1],"split_conditions":[3.9E1,2E1,7.1E1,-2.7486015E-2,-1.4097177E-2,-1.6559395E-3,1.6367156E-2],"split_indices":[3,3,3,0,0,0,0],"split_type":[0,0,0,0,0,0,0],"sum_hessian":[4.74E2,1.94E2,2.8E2,9E1,1.04E2,1.75E2,1.05E2],"tree_param":{"num_deleted":"0","num_feature":"6","num_nodes":"7","size_leaf_vector":"1"}},{"base_weights":[4.6181282E-1,-2.562619E-1,1.3848041E0,-1.5247861E-2,2.714138E-3,1.5929457E-2,2.7592193E-2],"categories":[],"categories_nodes":[],"categories_segments":[],"categories_sizes":[],"default_left":[0,0,0,0,0,0,0],"id":112,"left_children":[1,3,5,-1,-1,-1,-1],"loss_changes":[3.1517383E2,8.926444E1,2.85784E1,0E0,0E0,0E0,0E0],"parents":[2147483647,0,0,1,1,2,2],"right_children":[2,4,6,-1,-1,-1,-1],"split_conditions":[7.5E1,4.4E1,1.05E2,-1.5247861E-2,2.714138E-3,1.5929457E-2,2.7592193E-2],"split_indices":[4,4,4,0,0,0,0],"split_type":[0,0,0,0,0,0,0],"sum_hessian":[4.74E2,2.67E2,2.07E2,9.7E1,1.7E2,1.23E2,8.4E1],"tree_param":{"num_deleted":"0","num_feature":"6","num_nodes":"7","size_leaf_vector":"1"}},{"base_weights":[-2.91243E-1,-1.2438455E0,5.783634E-1,-2.8054612E-2,-1.2941619E-2,2.8978263E-3,1.9029634E-2],"categories":[],"categories_nodes":[],"categories_segments":[],"categories_sizes":[],"default_left":[0,0,0,0,0,0,0],"id":113,"left_children":[1,3,5,-1,-1,-1,-1],"loss_changes":[3.9420425E2,5.257724E1,6.595859E1,0E0,0E0,0E0,0E0],"parents":[2147483647,0,0,1,1,2,2],"right_children":[2,4,6,-1,-1,-1,-1],"split_conditions":[5.1E1,2.3E1,8.6E1,-2.8054612E-2,-1.2941619E-2,2.8978263E-3,1.9029634E-2],"split_indices":[5,5,5,0,0,0,0],"split_type":[0,0,0,0,0,0,0],"sum_hessian":[4.74E2,2.26E2,2.48E2,8.4E1,1.42E2,1.6E2,8.8E1],"tree_param":{"num_deleted":"0","num_feature":"6","num_nodes":"7","size_leaf_vector":"1"}},{"base_weights":[-1.3412683E-1,-1.2038478E0,6.151569E-1,-3.081485E-2,-1.4589125E-2,2.2663644E-3,1.890577E-2],"categories":[],"categories_nodes":[],"categories_segments":[],"categories_sizes":[],"default_left":[0,0,0,0,0,0,0],"id":114,"left_children":[1,3,5,-1,-1,-1,-1],"loss_changes":[3.814647E2,3.6547974E1,8.364946E1,0E0,0E0,0E0,0E0],"parents":[2147483647,0,0,1,1,2,2],"right_children":[2,4,6,-1,-1,-1,-1],"split_conditions":[4.8E1,1.5E1,8.3E1,-3.081485E-2,-1.4589125E-2,2.2663644E-3,1.890577E-2],"split_indices":[0,0,0,0,0,0,0],"split_type":[0,0,0,0,0,0,0],"sum_hessian":[4.74E2,1.95E2,2.79E2,4E1,1.55E2,1.63E2,1.16E2],"tree_param":{"num_deleted":"0","num_feature":"6","num_nodes":"7","size_leaf_vector":"1"}},{"base_weights":[6.1985284E-1,-1.5853724E-1,1.3891357E0,-9.043218E-3,5.666837E-3,1.6952725E-2,2.8345192E-2],"categories":[],"categories_nodes":[],"categories_segments":[],"categories_sizes":[],"default_left":[0,0,0,0,0,0,0],"id":115,"left_children":[1,3,5,-1,-1,-1,-1],"loss_changes":[2.8465125E2,5.670803E1,2.8842987E1,0E0,0E0,0E0,0E0],"parents":[2147483647,0,0,1,1,2,2],"right_children":[2,4,6,-1,-1,-1,-1],"split_conditions":[7.2E1,5.2E1,1.08E2,-9.043218E-3,5.666837E-3,1.6952725E-2,2.8345192E-2],"split_indices":[1,1,1,0,0,0,0],"split_type":[0,0,0,0,0,0,0],"sum_hessian":[4.74E2,2.36E2,2.38E2,1.29E2,1.07E2,1.59E2,7.9E1],"tree_param":{"num_deleted":"0","num_feature":"6","num_nodes":"7","size_leaf_vector":"1"}},{"base_weights":[-3.0331707E-1,-1.2007325E0,5.3696287E-1,-2.9516218E-2,-1.39597105E-2,1.9124597E-3,1.746932E-2],"categories":[],"categories_nodes":[],"categories_segments":[],"categories_sizes":[],"default_left":[0,0,0,0,0,0,0],"id":116,"left_children":[1,3,5,-1,-1,-1,-1],"loss_changes":[3.5883286E2,4.581537E1,6.307463E1,0E0,0E0,0E0,0E0],"parents":[2147483647,0,0,1,1,2,2],"right_children":[2,4,6,-1,-1,-1,-1],"split_conditions":[4.6E1,1.7E1,7.7E1,-2.9516218E-2,-1.39597105E-2,1.9124597E-3,1.746932E-2],"split_indices":[2,2,2,0,0,0,0],"split_type":[0,0,0,0,0,0,0],"sum_hessian":[4.74E2,2.29E2,2.45E2,5.8E1,1.71E2,1.49E2,9.6E1],"tree_param":{"num_deleted":"0","num_feature":"6","num_nodes":"7","size_leaf_vector":"1"}},{"base_weights":[-3.5091805E-1,-9.830283E-1,7.2853637E-1,-2.335981E-2,-6.6439416E-3,5.0555216E-3,2.087873E-2],"categories":[],"categories_nodes":[],"categories_segments":[],"categories_sizes":[],"default_left":[0,0,0,0,0,0,0],"id":117,"left_children":[1,3,5,-1,-1,-1,-1],"loss_changes":[3.248249E2,9.236261E1,4.5240532E1,0E0,0E0,0E0,0E0],"parents":[2147483647,0,0,1,1,2,2],"right_children":[2,4,6,-1,-1,-1,-1],"split_conditions":[5.6E1,3.1E1,8.8E1,-2.335981E-2,-6.6439416E-3,5.0555216E-3,2.087873E-2],"split_indices":[3,3,2,0,0,0,0],"split_type":[0,0,0,0,0,0,0],"sum_hessian":[4.74E2,2.99E2,1.75E2,1.44E2,1.55E2,1.11E2,6.4E1],"tree_param":{"num_deleted":"0","num_feature":"6","num_nodes":"7","size_leaf_vector":"1"}},{"base_weights":[4.5495084E-1,-5.8056295E-1,1.0775166E0,-2.0679886E-2,-3.777012E-3,8.4500285E-3,2.3870487E-2],"categories":[],"categories_nodes":[],"categories_segments":[],"categories_sizes":[],"default_left":[0,0,0,0,0,0,0],"id":118,"left_children":[1,3,5,-1,-1,-1,-1],"loss_changes":[3.0684637E2,4.661955E1,7.757437E1,0E0,0E0,0E0,0E0],"parents":[2147483647,0,0,1,1,2,2],"right_children":[2,4,6,-1,-1,-1,-1],"split_conditions":[5.9E1,3.1E1,8.5E1,-2.0679886E-2,-3.777012E-3,8.4500285E-3,2.3870487E-2],"split_indices":[4,4,4,0,0,0,0],"split_type":[0,0,0,0,0,0,0],"sum_hessian":[4.74E2,1.78E2,2.96E2,5.1E1,1.27E2,1.49E2,1.47E2],"tree_param":{"num_deleted":"0","num_feature":"6","num_nodes":"7","size_leaf_vector":"1"}},{"base_weights":[-2.8691444E-1,-1.1182861E0,6.8180406E-1,-2.40413E-2,-8.206042E-3,5.436778E-3,2.1084916E-2],"categories":[],"categories_nodes":[],"categories_segments":[],"categories_sizes":[],"default_left":[0,0,0,0,0,0,0],"id":119,"left_children":[1,3,5,-1,-1,-1,-1],"loss_changes":[3.8331088E2,6.996753E1,5.0346886E1,0E0,0E0,0E0,0E0],"parents":[2147483647,0,0,1,1,2,2],"right_children":[2,4,6,-1,-1,-1,-1],"split_conditions":[5.6E1,3.4E1,9.1E1,-2.40413E-2,-8.206042E-3,5.436778E-3,2.1084916E-2],"split_indices":[5,5,5,0,0,0,0],"split_type":[0,0,0,0,0,0,0],"sum_hessian":[4.74E2,2.55E2,2.19E2,1.37E2,1.18E2,1.53E2,6.6E1],"tree_param":{"num_deleted":"0","num_feature":"6","num_nodes":"7","size_leaf_vector":"1"}},{"base_weights":[-1.32166E-1,-9.0633065E-1,8.745125E-1,-2.2049135E-2,-6.2131193E-3,6.186406E-3,1.8941663E-2],"categories":[],"categories_nodes":[],"categories_segments":[],"categories_sizes":[],"default_left":[0,0,0,0,0,0,0],"id":120,"left_children":[1,3,5,-1,-1,-1,-1],"loss_changes":[3.7097668E2,7.400258E1,3.66174E1,0E0,0E0,0E0,0E0],"parents":[2147483647,0,0,1,1,2,2],"right_children":[2,4,6,-1,-1,-1,-1],"split_conditions":[6.1E1,3.5E1,8.4E1,-2.2049135E-2,-6.2131193E-3,6.186406E-3,1.8941663E-2],"split_indices":[0,0,0,0,0,0,0],"split_type":[0,0,0,0,0,0,0],"sum_hessian":[4.74E2,2.68E2,2.06E2,1.24E2,1.44E2,9.5E1,1.11E2],"tree_param":{"num_deleted":"0","num_feature":"6","num_nodes":"7","size_leaf_vector":"1"}},{"base_weights":[6.106433E-1,-4.0923008E-1,1.1804391E0,-1.36055695E-2,-1.6566548E-3,9.996701E-3,2.3300784E-2],"categories":[],"categories_nodes":[],"categories_segments":[],"categories_sizes":[],"default_left":[0,0,0,0,0,0,0],"id":121,"left_children":[1,3,5,-1,-1,-1,-1],"loss_changes":[2.765149E2,2.5334066E1,5.7430664E1,0E0,0E0,0E0,0E0],"parents":[2147483647,0,0,1,1,2,2],"right_children":[2,4,6,-1,-1,-1,-1],"split_conditions":[6.2E1,3.9E1,8.3E1,-1.36055695E-2,-1.6566548E-3,9.996701E-3,2.3300784E-2],"split_indices":[1,1,1,0,0,0,0],"split_type":[0,0,0,0,0,0,0],"sum_hessian":[4.74E2,1.7E2,3.04E2,6.3E1,1.07E2,1.29E2,1.75E2],"tree_param":{"num_deleted":"0","num_feature":"6","num_nodes":"7","size_leaf_vector":"1"}},{"base_weights":[-2.9881805E-1,-1.0334013E0,6.9907606E-1,-2.386191E-2,-8.83109E-3,6.4556454E-3,2.2292985E-2],"categories":[],"categories_nodes":[],"categories_segments":[],"categories_sizes":[],"default_left":[0,0,0,0,0,0,0],"id":122,"left_children":[1,3,5,-1,-1,-1,-1],"loss_changes":[3.489146E2,6.69747E1,4.2083313E1,0E0,0E0,0E0,0E0],"parents":[2147483647,0,0,1,1,2,2],"right_children":[2,4,6,-1,-1,-1,-1],"split_conditions":[5.3E1,2.8E1,9.1E1,-2.386191E-2,-8.83109E-3,6.4556454E-3,2.2292985E-2],"split_indices":[2,2,3,0,0,0,0],"split_type":[0,0,0,0,0,0,0],"sum_hessian":[4.74E2,2.73E2,2.01E2,1.2E2,1.53E2,1.51E2,5E1],"tree_param":{"num_deleted":"0","num_feature":"6","num_nodes":"7","size_leaf_vector":"1"}},{"base_weights":[-3.4566283E-1,-1.0471888E0,5.9947133E-1,-2.5280373E-2,-9.191444E-3,4.363527E-3,2.200939E-2],"categories":[],"categories_nodes":[],"categories_segments":[],"categories_sizes":[],"default_left":[0,0,0,0,0,0,0],"id":123,"left_children":[1,3,5,-1,-1,-1,-1],"loss_changes":[3.155699E2,7.4653046E1,5.393315E1,0E0,0E0,0E0,0E0],"parents":[2147483647,0,0,1,1,2,2],"right_children":[2,4,6,-1,-1,-1,-1],"split_conditions":[5E1,2.4E1,9E1,-2.5280373E-2,-9.191444E-3,4.363527E-3,2.200939E-2],"split_indices":[3,3,3,0,0,0,0],"split_type":[0,0,0,0,0,0,0],"sum_hessian":[4.74E2,2.72E2,2.02E2,1.09E2,1.63E2,1.5E2,5.2E1],"tree_param":{"num_deleted":"0","num_feature":"6","num_nodes":"7","size_leaf_vector":"1"}},{"base_weights":[4.4814315E-1,-5.7199115E-1,1.0614626E0,-1.8336449E-2,-2.719062E-3,7.7932975E-3,2.3023762E-2],"categories":[],"categories_nodes":[],"categories_segments":[],"categories_sizes":[],"default_left":[0,0,0,0,0,0,0],"id":124,"left_children":[1,3,5,-1,-1,-1,-1],"loss_changes":[2.9779956E2,4.526942E1,7.540369E1,0E0,0E0,0E0,0E0],"parents":[2147483647,0,0,1,1,2,2],"right_children":[2,4,6,-1,-1,-1,-1],"split_conditions":[5.9E1,3.5E1,8.3E1,-1.8336449E-2,-2.719062E-3,7.7932975E-3,2.3023762E-2],"split_indices":[4,4,4,0,0,0,0],"split_type":[0,0,0,0,0,0,0],"sum_hessian":[4.74E2,1.78E2,2.96E2,6.6E1,1.12E2,1.39E2,1.57E2],"tree_param":{"num_deleted":"0","num_feature":"6","num_nodes":"7","size_leaf_vector":"1"}},{"base_weights":[-2.826227E-1,-1.2604475E0,5.1713735E-1,-2.7282363E-2,-1.3284888E-2,-2.6175583E-4,1.5302625E-2],"categories":[],"categories_nodes":[],"categories_segments":[],"categories_sizes":[],"default_left":[0,0,0,0,0,0,0],"id":125,"left_children":[1,3,5,-1,-1,-1,-1],"loss_changes":[3.7211377E2,4.3173553E1,7.047426E1,0E0,0E0,0E0,0E0],"parents":[2147483647,0,0,1,1,2,2],"right_children":[2,4,6,-1,-1,-1,-1],"split_conditions":[4.9E1,2.3E1,7.2E1,-2.7282363E-2,-1.3284888E-2,-2.6175583E-4,1.5302625E-2],"split_indices":[5,5,5,0,0,0,0],"split_type":[0,0,0,0,0,0,0],"sum_hessian":[4.74E2,2.13E2,2.61E2,8.4E1,1.29E2,1.27E2,1.34E2],"tree_param":{"num_deleted":"0","num_feature":"6","num_nodes":"7","size_leaf_vector":"1"}},{"base_weights":[-1.3019009E-1,-1.1260402E0,6.3008887E-1,-2.9471485E-2,-1.3390913E-2,2.6284603E-3,1.8351085E-2],"categories":[],"categories_nodes":[],"categories_segments":[],"categories_sizes":[],"default_left":[0,0,0,0,0,0,0],"id":126,"left_children":[1,3,5,-1,-1,-1,-1],"loss_changes":[3.6034335E2,3.855713E1,7.2651886E1,0E0,0E0,0E0,0E0],"parents":[2147483647,0,0,1,1,2,2],"right_children":[2,4,6,-1,-1,-1,-1],"split_conditions":[5E1,1.6E1,8.3E1,-2.9471485E-2,-1.3390913E-2,2.6284603E-3,1.8351085E-2],"split_indices":[0,0,0,0,0,0,0],"split_type":[0,0,0,0,0,0,0],"sum_hessian":[4.74E2,2.05E2,2.69E2,4.3E1,1.62E2,1.53E2,1.16E2],"tree_param":{"num_deleted":"0","num_feature":"6","num_nodes":"7","size_leaf_vector":"1"}},{"base_weights":[6.015217E-1,-1.5459259E-1,1.3487918E0,-8.797093E-3,5.500421E-3,1.6431272E-2,2.7580185E-2],"categories":[],"categories_nodes":[],"categories_segments":[],"categories_sizes":[],"default_left":[0,0,0,0,0,0,0],"id":127,"left_children":[1,3,5,-1,-1,-1,-1],"loss_changes":[2.685938E2,5.3571754E1,2.7651642E1,0E0,0E0,0E0,0E0],"parents":[2147483647,0,0,1,1,2,2],"right_children":[2,4,6,-1,-1,-1,-1],"split_conditions":[7.2E1,5.2E1,1.08E2,-8.797093E-3,5.500421E-3,1.6431272E-2,2.7580185E-2],"split_indices":[1,1,1,0,0,0,0],"split_type":[0,0,0,0,0,0,0],"sum_hessian":[4.74E2,2.36E2,2.38E2,1.29E2,1.07E2,1.59E2,7.9E1],"tree_param":{"num_deleted":"0","num_feature":"6","num_nodes":"7","size_leaf_vector":"1"}},{"base_weights":[-2.9434413E-1,-1.1339012E0,5.535398E-1,-2.8729117E-2,-1.3094021E-2,3.6813947E-3,1.9735249E-2],"categories":[],"categories_nodes":[],"categories_segments":[],"categories_sizes":[],"default_left":[0,0,0,0,0,0,0],"id":128,"left_children":[1,3,5,-1,-1,-1,-1],"loss_changes":[3.38755E2,4.706308E1,5.533101E1,0E0,0E0,0E0,0E0],"parents":[2147483647,0,0,1,1,2,2],"right_children":[2,4,6,-1,-1,-1,-1],"split_conditions":[4.7E1,1.7E1,8.8E1,-2.8729117E-2,-1.3094021E-2,3.6813947E-3,1.9735249E-2],"split_indices":[2,2,2,0,0,0,0],"split_type":[0,0,0,0,0,0,0],"sum_hessian":[4.74E2,2.38E2,2.36E2,5.8E1,1.8E2,1.69E2,6.7E1],"tree_param":{"num_deleted":"0","num_feature":"6","num_nodes":"7","size_leaf_vector":"1"}},{"base_weights":[-3.404949E-1,-1.303877E0,3.29256E-1,-2.6356667E-2,-1.3479842E-2,-2.456313E-3,1.44582745E-2],"categories":[],"categories_nodes":[],"categories_segments":[],"categories_sizes":[],"default_left":[0,0,0,0,0,0,0],"id":129,"left_children":[1,3,5,-1,-1,-1,-1],"loss_changes":[3.0691165E2,3.423468E1,8.807673E1,0E0,0E0,0E0,0E0],"parents":[2147483647,0,0,1,1,2,2],"right_children":[2,4,6,-1,-1,-1,-1],"split_conditions":[3.9E1,2E1,6.7E1,-2.6356667E-2,-1.3479842E-2,-2.456313E-3,1.44582745E-2],"split_indices":[3,3,3,0,0,0,0],"split_type":[0,0,0,0,0,0,0],"sum_hessian":[4.74E2,1.94E2,2.8E2,9E1,1.04E2,1.58E2,1.22E2],"tree_param":{"num_deleted":"0","num_feature":"6","num_nodes":"7","size_leaf_vector":"1"}},{"base_weights":[4.414416E-1,-3.7292045E-1,1.1883492E0,-1.8065507E-2,-4.0122773E-4,