{"learner":{"attributes":{"scikit_learn":"{\"_estimator_type\": \"regressor\"}"},"feature_names":["1p","2p","3p","4p","5p","6p"],"feature_types":["int","int","int","int","int","int"],"gradient_booster":{"model":{"gbtree_model_param":{"num_parallel_tree":"1","num_trees":"5400"},"iteration_indptr":[0,6,12,18,24,30,36,42,48,54,60,66,72,78,84,90,96,102,108,114,120,126,132,138,144,150,156,162,168,174,180,186,192,198,204,210,216,222,228,234,240,246,252,258,264,270,276,282,288,294,300,306,312,318,324,330,336,342,348,354,360,366,372,378,384,390,396,402,408,414,420,426,432,438,444,450,456,462,468,474,480,486,492,498,504,510,516,522,528,534,540,546,552,558,564,570,576,582,588,594,600,606,612,618,624,630,636,642,648,654,660,666,672,678,684,690,696,702,708,714,720,726,732,738,744,750,756,762,768,774,780,786,792,798,804,810,816,822,828,834,840,846,852,858,864,870,876,882,888,894,900,906,912,918,924,930,936,942,948,954,960,966,972,978,984,990,996,1002,1008,1014,1020,1026,1032,1038,1044,1050,1056,1062,1068,1074,1080,1086,1092,1098,1104,1110,1116,1122,1128,1134,1140,1146,1152,1158,1164,1170,1176,1182,1188,1194,1200,1206,1212,1218,1224,1230,1236,1242,1248,1254,1260,1266,1272,1278,1284,1290,1296,1302,1308,1314,1320,1326,1332,1338,1344,1350,1356,1362,1368,1374,1380,1386,1392,1398,1404,1410,1416,1422,1428,1434,1440,1446,1452,1458,1464,1470,1476,1482,1488,1494,1500,1506,1512,1518,1524,1530,1536,1542,1548,1554,1560,1566,1572,1578,1584,1590,1596,1602,1608,1614,1620,1626,1632,1638,1644,1650,1656,1662,1668,1674,1680,1686,1692,1698,1704,1710,1716,1722,1728,1734,1740,1746,1752,1758,1764,1770,1776,1782,1788,1794,1800,1806,1812,1818,1824,1830,1836,1842,1848,1854,1860,1866,1872,1878,1884,1890,1896,1902,1908,1914,1920,1926,1932,1938,1944,1950,1956,1962,1968,1974,1980,1986,1992,1998,2004,2010,2016,2022,2028,2034,2040,2046,2052,2058,2064,2070,2076,2082,2088,2094,2100,2106,2112,2118,2124,2130,2136,2142,2148,2154,2160,2166,2172,2178,2184,2190,2196,2202,2208,2214,2220,2226,2232,2238,2244,2250,2256,2262,2268,2274,2280,2286,2292,2298,2304,2310,2316,2322,2328,2334,2340,2346,2352,2358,2364,2370,2376,2382,2388,2394,2400,2406,2412,2418,2424,2430,2436,2442,2448,2454,2460,2466,2472,2478,2484,2490,2496,2502,2508,2514,2520,2526,2532,2538,2544,2550,2556,2562,2568,2574,2580,2586,2592,2598,2604,2610,2616,2622,2628,2634,2640,2646,2652,2658,2664,2670,2676,2682,2688,2694,2700,2706,2712,2718,2724,2730,2736,2742,2748,2754,2760,2766,2772,2778,2784,2790,2796,2802,2808,2814,2820,2826,2832,2838,2844,2850,2856,2862,2868,2874,2880,2886,2892,2898,2904,2910,2916,2922,2928,2934,2940,2946,2952,2958,2964,2970,2976,2982,2988,2994,3000,3006,3012,3018,3024,3030,3036,3042,3048,3054,3060,3066,3072,3078,3084,3090,3096,3102,3108,3114,3120,3126,3132,3138,3144,3150,3156,3162,3168,3174,3180,3186,3192,3198,3204,3210,3216,3222,3228,3234,3240,3246,3252,3258,3264,3270,3276,3282,3288,3294,3300,3306,3312,3318,3324,3330,3336,3342,3348,3354,3360,3366,3372,3378,3384,3390,3396,3402,3408,3414,3420,3426,3432,3438,3444,3450,3456,3462,3468,3474,3480,3486,3492,3498,3504,3510,3516,3522,3528,3534,3540,3546,3552,3558,3564,3570,3576,3582,3588,3594,3600,3606,3612,3618,3624,3630,3636,3642,3648,3654,3660,3666,3672,3678,3684,3690,3696,3702,3708,3714,3720,3726,3732,3738,3744,3750,3756,3762,3768,3774,3780,3786,3792,3798,3804,3810,3816,3822,3828,3834,3840,3846,3852,3858,3864,3870,3876,3882,3888,3894,3900,3906,3912,3918,3924,3930,3936,3942,3948,3954,3960,3966,3972,3978,3984,3990,3996,4002,4008,4014,4020,4026,4032,4038,4044,4050,4056,4062,4068,4074,4080,4086,4092,4098,4104,4110,4116,4122,4128,4134,4140,4146,4152,4158,4164,4170,4176,4182,4188,4194,4200,4206,4212,4218,4224,4230,4236,4242,4248,4254,4260,4266,4272,4278,4284,4290,4296,4302,4308,4314,4320,4326,4332,4338,4344,4350,4356,4362,4368,4374,4380,4386,4392,4398,4404,4410,4416,4422,4428,4434,4440,4446,4452,4458,4464,4470,4476,4482,4488,4494,4500,4506,4512,4518,4524,4530,4536,4542,4548,4554,4560,4566,4572,4578,4584,4590,4596,4602,4608,4614,4620,4626,4632,4638,4644,4650,4656,4662,4668,4674,4680,4686,4692,4698,4704,4710,4716,4722,4728,4734,4740,4746,4752,4758,4764,4770,4776,4782,4788,4794,4800,4806,4812,4818,4824,4830,4836,4842,4848,4854,4860,4866,4872,4878,4884,4890,4896,4902,4908,4914,4920,4926,4932,4938,4944,4950,4956,4962,4968,4974,4980,4986,4992,4998,5004,5010,5016,5022,5028,5034,5040,5046,5052,5058,5064,5070,5076,5082,5088,5094,5100,5106,5112,5118,5124,5130,5136,5142,5148,5154,5160,5166,5172,5178,5184,5190,5196,5202,5208,5214,5220,5226,5232,5238,5244,5250,5256,5262,5268,5274,5280,5286,5292,5298,5304,5310,5316,5322,5328,5334,5340,5346,5352,5358,5364,5370,5376,5382,5388,5394,5400],"tree_info":[0,1,2,3,4,5,0,1,2,3,4,5,0,1,2,3,4,5,0,1,2,3,4,5,0,1,2,3,4,5,0,1,2,3,4,5,0,1,2,3,4,5,0,1,2,3,4,5,0,1,2,3,4,5,0,1,2,3,4,5,0,1,2,3,4,5,0,1,2,3,4,5,0,1,2,3,4,5,0,1,2,3,4,5,0,1,2,3,4,5,0,1,2,3,4,5,0,1,2,3,4,5,0,1,2,3,4,5,0,1,2,3,4,5,0,1,2,3,4,5,0,1,2,3,4,5,0,1,2,3,4,5,0,1,2,3,4,5,0,1,2,3,4,5,0,1,2,3,4,5,0,1,2,3,4,5,0,1,2,3,4,5,0,1,2,3,4,5,0,1,2,3,4,5,0,1,2,3,4,5,0,1,2,3,4,5,0,1,2,3,4,5,0,1,2,3,4,5,0,1,2,3,4,5,0,1,2,3,4,5,0,1,2,3,4,5,0,1,2,3,4,5,0,1,2,3,4,5,0,1,2,3,4,5,0,1,2,3,4,5,0,1,2,3,4,5,0,1,2,3,4,5,0,1,2,3,4,5,0,1,2,3,4,5,0,1,2,3,4,5,0,1,2,3,4,5,0,1,2,3,4,5,0,1,2,3,4,5,0,1,2,3,4,5,0,1,2,3,4,5,0,1,2,3,4,5,0,1,2,3,4,5,0,1,2,3,4,5,0,1,2,3,4,5,0,1,2,3,4,5,0,1,2,3,4,5,0,1,2,3,4,5,0,1,2,3,4,5,0,1,2,3,4,5,0,1,2,3,4,5,0,1,2,3,4,5,0,1,2,3,4,5,0,1,2,3,4,5,0,1,2,3,4,5,0,1,2,3,4,5,0,1,2,3,4,5,0,1,2,3,4,5,0,1,2,3,4,5,0,1,2,3,4,5,0,1,2,3,4,5,0,1,2,3,4,5,0,1,2,3,4,5,0,1,2,3,4,5,0,1,2,3,4,5,0,1,2,3,4,5,0,1,2,3,4,5,0,1,2,3,4,5,0,1,2,3,4,5,0,1,2,3,4,5,0,1,2,3,4,5,0,1,2,3,4,5,0,1,2,3,4,5,0,1,2,3,4,5,0,1,2,3,4,5,0,1,2,3,4,5,0,1,2,3,4,5,0,1,2,3,4,5,0,1,2,3,4,5,0,1,2,3,4,5,0,1,2,3,4,5,0,1,2,3,4,5,0,1,2,3,4,5,0,1,2,3,4,5,0,1,2,3,4,5,0,1,2,3,4,5,0,1,2,3,4,5,0,1,2,3,4,5,0,1,2,3,4,5,0,1,2,3,4,5,0,1,2,3,4,5,0,1,2,3,4,5,0,1,2,3,4,5,0,1,2,3,4,5,0,1,2,3,4,5,0,1,2,3,4,5,0,1,2,3,4,5,0,1,2,3,4,5,0,1,2,3,4,5,0,1,2,3,4,5,0,1,2,3,4,5,0,1,2,3,4,5,0,1,2,3,4,5,0,1,2,3,4,5,0,1,2,3,4,5,0,1,2,3,4,5,0,1,2,3,4,5,0,1,2,3,4,5,0,1,2,3,4,5,0,1,2,3,4,5,0,1,2,3,4,5,0,1,2,3,4,5,0,1,2,3,4,5,0,1,2,3,4,5,0,1,2,3,4,5,0,1,2,3,4,5,0,1,2,3,4,5,0,1,2,3,4,5,0,1,2,3,4,5,0,1,2,3,4,5,0,1,2,3,4,5,0,1,2,3,4,5,0,1,2,3,4,5,0,1,2,3,4,5,0,1,2,3,4,5,0,1,2,3,4,5,0,1,2,3,4,5,0,1,2,3,4,5,0,1,2,3,4,5,0,1,2,3,4,5,0,1,2,3,4,5,0,1,2,3,4,5,0,1,2,3,4,5,0,1,2,3,4,5,0,1,2,3,4,5,0,1,2,3,4,5,0,1,2,3,4,5,0,1,2,3,4,5,0,1,2,3,4,5,0,1,2,3,4,5,0,1,2,3,4,5,0,1,2,3,4,5,0,1,2,3,4,5,0,1,2,3,4,5,0,1,2,3,4,5,0,1,2,3,4,5,0,1,2,3,4,5,0,1,2,3,4,5,0,1,2,3,4,5,0,1,2,3,4,5,0,1,2,3,4,5,0,1,2,3,4,5,0,1,2,3,4,5,0,1,2,3,4,5,0,1,2,3,4,5,0,1,2,3,4,5,0,1,2,3,4,5,0,1,2,3,4,5,0,1,2,3,4,5,0,1,2,3,4,5,0,1,2,3,4,5,0,1,2,3,4,5,0,1,2,3,4,5,0,1,2,3,4,5,0,1,2,3,4,5,0,1,2,3,4,5,0,1,2,3,4,5,0,1,2,3,4,5,0,1,2,3,4,5,0,1,2,3,4,5,0,1,2,3,4,5,0,1,2,3,4,5,0,1,2,3,4,5,0,1,2,3,4,5,0,1,2,3,4,5,0,1,2,3,4,5,0,1,2,3,4,5,0,1,2,3,4,5,0,1,2,3,4,5,0,1,2,3,4,5,0,1,2,3,4,5,0,1,2,3,4,5,0,1,2,3,4,5,0,1,2,3,4,5,0,1,2,3,4,5,0,1,2,3,4,5,0,1,2,3,4,5,0,1,2,3,4,5,0,1,2,3,4,5,0,1,2,3,4,5,0,1,2,3,4,5,0,1,2,3,4,5,0,1,2,3,4,5,0,1,2,3,4,5,0,1,2,3,4,5,0,1,2,3,4,5,0,1,2,3,4,5,0,1,2,3,4,5,0,1,2,3,4,5,0,1,2,3,4,5,0,1,2,3,4,5,0,1,2,3,4,5,0,1,2,3,4,5,0,1,2,3,4,5,0,1,2,3,4,5,0,1,2,3,4,5,0,1,2,3,4,5,0,1,2,3,4,5,0,1,2,3,4,5,0,1,2,3,4,5,0,1,2,3,4,5,0,1,2,3,4,5,0,1,2,3,4,5,0,1,2,3,4,5,0,1,2,3,4,5,0,1,2,3,4,5,0,1,2,3,4,5,0,1,2,3,4,5,0,1,2,3,4,5,0,1,2,3,4,5,0,1,2,3,4,5,0,1,2,3,4,5,0,1,2,3,4,5,0,1,2,3,4,5,0,1,2,3,4,5,0,1,2,3,4,5,0,1,2,3,4,5,0,1,2,3,4,5,0,1,2,3,4,5,0,1,2,3,4,5,0,1,2,3,4,5,0,1,2,3,4,5,0,1,2,3,4,5,0,1,2,3,4,5,0,1,2,3,4,5,0,1,2,3,4,5,0,1,2,3,4,5,0,1,2,3,4,5,0,1,2,3,4,5,0,1,2,3,4,5,0,1,2,3,4,5,0,1,2,3,4,5,0,1,2,3,4,5,0,1,2,3,4,5,0,1,2,3,4,5,0,1,2,3,4,5,0,1,2,3,4,5,0,1,2,3,4,5,0,1,2,3,4,5,0,1,2,3,4,5,0,1,2,3,4,5,0,1,2,3,4,5,0,1,2,3,4,5,0,1,2,3,4,5,0,1,2,3,4,5,0,1,2,3,4,5,0,1,2,3,4,5,0,1,2,3,4,5,0,1,2,3,4,5,0,1,2,3,4,5,0,1,2,3,4,5,0,1,2,3,4,5,0,1,2,3,4,5,0,1,2,3,4,5,0,1,2,3,4,5,0,1,2,3,4,5,0,1,2,3,4,5,0,1,2,3,4,5,0,1,2,3,4,5,0,1,2,3,4,5,0,1,2,3,4,5,0,1,2,3,4,5,0,1,2,3,4,5,0,1,2,3,4,5,0,1,2,3,4,5,0,1,2,3,4,5,0,1,2,3,4,5,0,1,2,3,4,5,0,1,2,3,4,5,0,1,2,3,4,5,0,1,2,3,4,5,0,1,2,3,4,5,0,1,2,3,4,5,0,1,2,3,4,5,0,1,2,3,4,5,0,1,2,3,4,5,0,1,2,3,4,5,0,1,2,3,4,5,0,1,2,3,4,5,0,1,2,3,4,5,0,1,2,3,4,5,0,1,2,3,4,5,0,1,2,3,4,5,0,1,2,3,4,5,0,1,2,3,4,5,0,1,2,3,4,5,0,1,2,3,4,5,0,1,2,3,4,5,0,1,2,3,4,5,0,1,2,3,4,5,0,1,2,3,4,5,0,1,2,3,4,5,0,1,2,3,4,5,0,1,2,3,4,5,0,1,2,3,4,5,0,1,2,3,4,5,0,1,2,3,4,5,0,1,2,3,4,5,0,1,2,3,4,5,0,1,2,3,4,5,0,1,2,3,4,5,0,1,2,3,4,5,0,1,2,3,4,5,0,1,2,3,4,5,0,1,2,3,4,5,0,1,2,3,4,5,0,1,2,3,4,5,0,1,2,3,4,5,0,1,2,3,4,5,0,1,2,3,4,5,0,1,2,3,4,5,0,1,2,3,4,5,0,1,2,3,4,5,0,1,2,3,4,5,0,1,2,3,4,5,0,1,2,3,4,5,0,1,2,3,4,5,0,1,2,3,4,5,0,1,2,3,4,5,0,1,2,3,4,5,0,1,2,3,4,5,0,1,2,3,4,5,0,1,2,3,4,5,0,1,2,3,4,5,0,1,2,3,4,5,0,1,2,3,4,5,0,1,2,3,4,5,0,1,2,3,4,5,0,1,2,3,4,5,0,1,2,3,4,5,0,1,2,3,4,5,0,1,2,3,4,5,0,1,2,3,4,5,0,1,2,3,4,5,0,1,2,3,4,5,0,1,2,3,4,5,0,1,2,3,4,5,0,1,2,3,4,5,0,1,2,3,4,5,0,1,2,3,4,5,0,1,2,3,4,5,0,1,2,3,4,5,0,1,2,3,4,5,0,1,2,3,4,5,0,1,2,3,4,5,0,1,2,3,4,5,0,1,2,3,4,5,0,1,2,3,4,5,0,1,2,3,4,5,0,1,2,3,4,5,0,1,2,3,4,5,0,1,2,3,4,5,0,1,2,3,4,5,0,1,2,3,4,5,0,1,2,3,4,5,0,1,2,3,4,5,0,1,2,3,4,5,0,1,2,3,4,5,0,1,2,3,4,5,0,1,2,3,4,5,0,1,2,3,4,5,0,1,2,3,4,5,0,1,2,3,4,5,0,1,2,3,4,5,0,1,2,3,4,5,0,1,2,3,4,5,0,1,2,3,4,5,0,1,2,3,4,5,0,1,2,3,4,5,0,1,2,3,4,5,0,1,2,3,4,5,0,1,2,3,4,5,0,1,2,3,4,5,0,1,2,3,4,5,0,1,2,3,4,5,0,1,2,3,4,5,0,1,2,3,4,5,0,1,2,3,4,5,0,1,2,3,4,5,0,1,2,3,4,5,0,1,2,3,4,5,0,1,2,3,4,5,0,1,2,3,4,5,0,1,2,3,4,5,0,1,2,3,4,5,0,1,2,3,4,5,0,1,2,3,4,5,0,1,2,3,4,5,0,1,2,3,4,5,0,1,2,3,4,5,0,1,2,3,4,5,0,1,2,3,4,5,0,1,2,3,4,5,0,1,2,3,4,5,0,1,2,3,4,5,0,1,2,3,4,5,0,1,2,3,4,5,0,1,2,3,4,5,0,1,2,3,4,5,0,1,2,3,4,5,0,1,2,3,4,5,0,1,2,3,4,5,0,1,2,3,4,5,0,1,2,3,4,5,0,1,2,3,4,5,0,1,2,3,4,5,0,1,2,3,4,5,0,1,2,3,4,5,0,1,2,3,4,5,0,1,2,3,4,5,0,1,2,3,4,5,0,1,2,3,4,5,0,1,2,3,4,5,0,1,2,3,4,5,0,1,2,3,4,5,0,1,2,3,4,5,0,1,2,3,4,5,0,1,2,3,4,5,0,1,2,3,4,5,0,1,2,3,4,5,0,1,2,3,4,5,0,1,2,3,4,5,0,1,2,3,4,5,0,1,2,3,4,5,0,1,2,3,4,5,0,1,2,3,4,5,0,1,2,3,4,5,0,1,2,3,4,5,0,1,2,3,4,5,0,1,2,3,4,5,0,1,2,3,4,5,0,1,2,3,4,5,0,1,2,3,4,5,0,1,2,3,4,5,0,1,2,3,4,5,0,1,2,3,4,5,0,1,2,3,4,5,0,1,2,3,4,5,0,1,2,3,4,5,0,1,2,3,4,5,0,1,2,3,4,5,0,1,2,3,4,5,0,1,2,3,4,5,0,1,2,3,4,5,0,1,2,3,4,5,0,1,2,3,4,5,0,1,2,3,4,5,0,1,2,3,4,5,0,1,2,3,4,5,0,1,2,3,4,5,0,1,2,3,4,5,0,1,2,3,4,5,0,1,2,3,4,5,0,1,2,3,4,5,0,1,2,3,4,5,0,1,2,3,4,5,0,1,2,3,4,5,0,1,2,3,4,5,0,1,2,3,4,5,0,1,2,3,4,5,0,1,2,3,4,5,0,1,2,3,4,5,0,1,2,3,4,5,0,1,2,3,4,5,0,1,2,3,4,5,0,1,2,3,4,5,0,1,2,3,4,5,0,1,2,3,4,5,0,1,2,3,4,5,0,1,2,3,4,5,0,1,2,3,4,5,0,1,2,3,4,5,0,1,2,3,4,5,0,1,2,3,4,5,0,1,2,3,4,5,0,1,2,3,4,5,0,1,2,3,4,5,0,1,2,3,4,5,0,1,2,3,4,5,0,1,2,3,4,5,0,1,2,3,4,5,0,1,2,3,4,5,0,1,2,3,4,5,0,1,2,3,4,5,0,1,2,3,4,5,0,1,2,3,4,5,0,1,2,3,4,5,0,1,2,3,4,5,0,1,2,3,4,5,0,1,2,3,4,5,0,1,2,3,4,5,0,1,2,3,4,5,0,1,2,3,4,5,0,1,2,3,4,5,0,1,2,3,4,5,0,1,2,3,4,5,0,1,2,3,4,5,0,1,2,3,4,5,0,1,2,3,4,5,0,1,2,3,4,5,0,1,2,3,4,5,0,1,2,3,4,5,0,1,2,3,4,5,0,1,2,3,4,5,0,1,2,3,4,5,0,1,2,3,4,5,0,1,2,3,4,5,0,1,2,3,4,5,0,1,2,3,4,5,0,1,2,3,4,5,0,1,2,3,4,5,0,1,2,3,4,5,0,1,2,3,4,5,0,1,2,3,4,5,0,1,2,3,4,5,0,1,2,3,4,5,0,1,2,3,4,5,0,1,2,3,4,5,0,1,2,3,4,5,0,1,2,3,4,5,0,1,2,3,4,5,0,1,2,3,4,5,0,1,2,3,4,5,0,1,2,3,4,5,0,1,2,3,4,5,0,1,2,3,4,5,0,1,2,3,4,5,0,1,2,3,4,5,0,1,2,3,4,5,0,1,2,3,4,5,0,1,2,3,4,5,0,1,2,3,4,5,0,1,2,3,4,5,0,1,2,3,4,5,0,1,2,3,4,5,0,1,2,3,4,5,0,1,2,3,4,5,0,1,2,3,4,5,0,1,2,3,4,5,0,1,2,3,4,5,0,1,2,3,4,5,0,1,2,3,4,5,0,1,2,3,4,5,0,1,2,3,4,5,0,1,2,3,4,5,0,1,2,3,4,5,0,1,2,3,4,5,0,1,2,3,4,5,0,1,2,3,4,5,0,1,2,3,4,5,0,1,2,3,4,5,0,1,2,3,4,5,0,1,2,3,4,5,0,1,2,3,4,5,0,1,2,3,4,5,0,1,2,3,4,5,0,1,2,3,4,5,0,1,2,3,4,5,0,1,2,3,4,5,0,1,2,3,4,5,0,1,2,3,4,5,0,1,2,3,4,5,0,1,2,3,4,5,0,1,2,3,4,5,0,1,2,3,4,5,0,1,2,3,4,5,0,1,2,3,4,5,0,1,2,3,4,5,0,1,2,3,4,5,0,1,2,3,4,5,0,1,2,3,4,5,0,1,2,3,4,5,0,1,2,3,4,5,0,1,2,3,4,5,0,1,2,3,4,5,0,1,2,3,4,5,0,1,2,3,4,5,0,1,2,3,4,5,0,1,2,3,4,5,0,1,2,3,4,5,0,1,2,3,4,5,0,1,2,3,4,5,0,1,2,3,4,5,0,1,2,3,4,5,0,1,2,3,4,5,0,1,2,3,4,5,0,1,2,3,4,5,0,1,2,3,4,5,0,1,2,3,4,5,0,1,2,3,4,5,0,1,2,3,4,5,0,1,2,3,4,5,0,1,2,3,4,5,0,1,2,3,4,5,0,1,2,3,4,5,0,1,2,3,4,5,0,1,2,3,4,5,0,1,2,3,4,5,0,1,2,3,4,5,0,1,2,3,4,5,0,1,2,3,4,5,0,1,2,3,4,5,0,1,2,3,4,5,0,1,2,3,4,5,0,1,2,3,4,5,0,1,2,3,4,5,0,1,2,3,4,5,0,1,2,3,4,5,0,1,2,3,4,5,0,1,2,3,4,5,0,1,2,3,4,5,0,1,2,3,4,5,0,1,2,3,4,5,0,1,2,3,4,5,0,1,2,3,4,5,0,1,2,3,4,5,0,1,2,3,4,5,0,1,2,3,4,5,0,1,2,3,4,5,0,1,2,3,4,5,0,1,2,3,4,5,0,1,2,3,4,5,0,1,2,3,4,5,0,1,2,3,4,5,0,1,2,3,4,5,0,1,2,3,4,5,0,1,2,3,4,5,0,1,2,3,4,5,0,1,2,3,4,5,0,1,2,3,4,5,0,1,2,3,4,5,0,1,2,3,4,5,0,1,2,3,4,5,0,1,2,3,4,5,0,1,2,3,4,5,0,1,2,3,4,5,0,1,2,3,4,5,0,1,2,3,4,5,0,1,2,3,4,5,0,1,2,3,4,5,0,1,2,3,4,5,0,1,2,3,4,5,0,1,2,3,4,5,0,1,2,3,4,5,0,1,2,3,4,5,0,1,2,3,4,5,0,1,2,3,4,5,0,1,2,3,4,5,0,1,2,3,4,5,0,1,2,3,4,5,0,1,2,3,4,5,0,1,2,3,4,5,0,1,2,3,4,5,0,1,2,3,4,5,0,1,2,3,4,5,0,1,2,3,4,5,0,1,2,3,4,5,0,1,2,3,4,5,0,1,2,3,4,5,0,1,2,3,4,5,0,1,2,3,4,5,0,1,2,3,4,5,0,1,2,3,4,5,0,1,2,3,4,5,0,1,2,3,4,5,0,1,2,3,4,5,0,1,2,3,4,5,0,1,2,3,4,5,0,1,2,3,4,5,0,1,2,3,4,5,0,1,2,3,4,5,0,1,2,3,4,5,0,1,2,3,4,5,0,1,2,3,4,5,0,1,2,3,4,5,0,1,2,3,4,5,0,1,2,3,4,5,0,1,2,3,4,5,0,1,2,3,4,5,0,1,2,3,4,5,0,1,2,3,4,5,0,1,2,3,4,5,0,1,2,3,4,5,0,1,2,3,4,5,0,1,2,3,4,5,0,1,2,3,4,5,0,1,2,3,4,5,0,1,2,3,4,5,0,1,2,3,4,5,0,1,2,3,4,5,0,1,2,3,4,5,0,1,2,3,4,5,0,1,2,3,4,5,0,1,2,3,4,5,0,1,2,3,4,5,0,1,2,3,4,5,0,1,2,3,4,5,0,1,2,3,4,5,0,1,2,3,4,5,0,1,2,3,4,5,0,1,2,3,4,5,0,1,2,3,4,5,0,1,2,3,4,5,0,1,2,3,4,5,0,1,2,3,4,5,0,1,2,3,4,5,0,1,2,3,4,5,0,1,2,3,4,5,0,1,2,3,4,5,0,1,2,3,4,5,0,1,2,3,4,5,0,1,2,3,4,5,0,1,2,3,4,5,0,1,2,3,4,5,0,1,2,3,4,5,0,1,2,3,4,5,0,1,2,3,4,5,0,1,2,3,4,5,0,1,2,3,4,5,0,1,2,3,4,5,0,1,2,3,4,5,0,1,2,3,4,5,0,1,2,3,4,5,0,1,2,3,4,5,0,1,2,3,4,5,0,1,2,3,4,5,0,1,2,3,4,5,0,1,2,3,4,5,0,1,2,3,4,5,0,1,2,3,4,5,0,1,2,3,4,5,0,1,2,3,4,5,0,1,2,3,4,5,0,1,2,3,4,5,0,1,2,3,4,5,0,1,2,3,4,5,0,1,2,3,4,5,0,1,2,3,4,5,0,1,2,3,4,5,0,1,2,3,4,5,0,1,2,3,4,5,0,1,2,3,4,5,0,1,2,3,4,5,0,1,2,3,4,5,0,1,2,3,4,5,0,1,2,3,4,5,0,1,2,3,4,5,0,1,2,3,4,5,0,1,2,3,4,5,0,1,2,3,4,5,0,1,2,3,4,5,0,1,2,3,4,5,0,1,2,3,4,5,0,1,2,3,4,5,0,1,2,3,4,5,0,1,2,3,4,5,0,1,2,3,4,5,0,1,2,3,4,5,0,1,2,3,4,5,0,1,2,3,4,5,0,1,2,3,4,5,0,1,2,3,4,5,0,1,2,3,4,5,0,1,2,3,4,5,0,1,2,3,4,5,0,1,2,3,4,5,0,1,2,3,4,5,0,1,2,3,4,5,0,1,2,3,4,5,0,1,2,3,4,5,0,1,2,3,4,5,0,1,2,3,4,5,0,1,2,3,4,5,0,1,2,3,4,5,0,1,2,3,4,5,0,1,2,3,4,5,0,1,2,3,4,5,0,1,2,3,4,5,0,1,2,3,4,5,0,1,2,3,4,5,0,1,2,3,4,5,0,1,2,3,4,5,0,1,2,3,4,5,0,1,2,3,4,5,0,1,2,3,4,5,0,1,2,3,4,5,0,1,2,3,4,5,0,1,2,3,4,5,0,1,2,3,4,5,0,1,2,3,4,5,0,1,2,3,4,5,0,1,2,3,4,5,0,1,2,3,4,5,0,1,2,3,4,5,0,1,2,3,4,5,0,1,2,3,4,5,0,1,2,3,4,5,0,1,2,3,4,5,0,1,2,3,4,5,0,1,2,3,4,5,0,1,2,3,4,5,0,1,2,3,4,5,0,1,2,3,4,5,0,1,2,3,4,5,0,1,2,3,4,5,0,1,2,3,4,5,0,1,2,3,4,5,0,1,2,3,4,5,0,1,2,3,4,5,0,1,2,3,4,5,0,1,2,3,4,5,0,1,2,3,4,5,0,1,2,3,4,5,0,1,2,3,4,5,0,1,2,3,4,5,0,1,2,3,4,5,0,1,2,3,4,5,0,1,2,3,4,5,0,1,2,3,4,5,0,1,2,3,4,5,0,1,2,3,4,5,0,1,2,3,4,5,0,1,2,3,4,5,0,1,2,3,4,5,0,1,2,3,4,5,0,1,2,3,4,5,0,1,2,3,4,5,0,1,2,3,4,5,0,1,2,3,4,5,0,1,2,3,4,5,0,1,2,3,4,5,0,1,2,3,4,5,0,1,2,3,4,5,0,1,2,3,4,5,0,1,2,3,4,5,0,1,2,3,4,5,0,1,2,3,4,5,0,1,2,3,4,5,0,1,2,3,4,5,0,1,2,3,4,5,0,1,2,3,4,5,0,1,2,3,4,5,0,1,2,3,4,5,0,1,2,3,4,5,0,1,2,3,4,5,0,1,2,3,4,5,0,1,2,3,4,5,0,1,2,3,4,5,0,1,2,3,4,5,0,1,2,3,4,5,0,1,2,3,4,5,0,1,2,3,4,5,0,1,2,3,4,5,0,1,2,3,4,5,0,1,2,3,4,5,0,1,2,3,4,5,0,1,2,3,4,5,0,1,2,3,4,5,0,1,2,3,4,5,0,1,2,3,4,5,0,1,2,3,4,5,0,1,2,3,4,5,0,1,2,3,4,5,0,1,2,3,4,5,0,1,2,3,4,5,0,1,2,3,4,5,0,1,2,3,4,5,0,1,2,3,4,5,0,1,2,3,4,5,0,1,2,3,4,5,0,1,2,3,4,5,0,1,2,3,4,5,0,1,2,3,4,5,0,1,2,3,4,5,0,1,2,3,4,5,0,1,2,3,4,5,0,1,2,3,4,5,0,1,2,3,4,5,0,1,2,3,4,5,0,1,2,3,4,5,0,1,2,3,4,5],"trees":[{"base_weights":[-1.3736933E-1,-1.779706E-2,1.8752424E-2],"categories":[],"categories_nodes":[],"categories_segments":[],"categories_sizes":[],"default_left":[0,0,0],"id":0,"left_children":[1,-1,-1],"loss_changes":[6.929222E2,0E0,0E0],"parents":[2147483647,0,0],"right_children":[2,-1,-1],"split_conditions":[6.1E1,-1.779706E-2,1.8752424E-2],"split_indices":[0,0,0],"split_type":[0,0,0],"sum_hessian":[4.74E2,2.7E2,2.04E2],"tree_param":{"num_deleted":"0","num_feature":"6","num_nodes":"3","size_leaf_vector":"1"}},{"base_weights":[7.968475E-1,-7.8122527E-3,2.4700448E-2],"categories":[],"categories_nodes":[],"categories_segments":[],"categories_sizes":[],"default_left":[0,0,0],"id":1,"left_children":[1,-1,-1],"loss_changes":[5.327702E2,0E0,0E0],"parents":[2147483647,0,0],"right_children":[2,-1,-1],"split_conditions":[6.1E1,-7.8122527E-3,2.4700448E-2],"split_indices":[1,0,0],"split_type":[0,0,0],"sum_hessian":[4.74E2,1.86E2,2.88E2],"tree_param":{"num_deleted":"0","num_feature":"6","num_nodes":"3","size_leaf_vector":"1"}},{"base_weights":[-4.036409E-1,-2.228721E-2,1.1628451E-2],"categories":[],"categories_nodes":[],"categories_segments":[],"categories_sizes":[],"default_left":[0,0,0],"id":2,"left_children":[1,-1,-1],"loss_changes":[6.071296E2,0E0,0E0],"parents":[2147483647,0,0],"right_children":[2,-1,-1],"split_conditions":[4.7E1,-2.228721E-2,1.1628451E-2],"split_indices":[2,0,0],"split_type":[0,0,0],"sum_hessian":[4.74E2,2.47E2,2.27E2],"tree_param":{"num_deleted":"0","num_feature":"6","num_nodes":"3","size_leaf_vector":"1"}},{"base_weights":[-4.7533354E-1,-1.9723635E-2,1.3252732E-2],"categories":[],"categories_nodes":[],"categories_segments":[],"categories_sizes":[],"default_left":[0,0,0],"id":3,"left_children":[1,-1,-1],"loss_changes":[5.4306854E2,0E0,0E0],"parents":[2147483647,0,0],"right_children":[2,-1,-1],"split_conditions":[5.2E1,-1.9723635E-2,1.3252732E-2],"split_indices":[3,0,0],"split_type":[0,0,0],"sum_hessian":[4.74E2,2.93E2,1.81E2],"tree_param":{"num_deleted":"0","num_feature":"6","num_nodes":"3","size_leaf_vector":"1"}},{"base_weights":[5.9496003E-1,-1.5517134E-3,3.2081433E-2],"categories":[],"categories_nodes":[],"categories_segments":[],"categories_sizes":[],"default_left":[0,0,0],"id":4,"left_children":[1,-1,-1],"loss_changes":[5.1236774E2,0E0,0E0],"parents":[2147483647,0,0],"right_children":[2,-1,-1],"split_conditions":[8.3E1,-1.5517134E-3,3.2081433E-2],"split_indices":[4,0,0],"split_type":[0,0,0],"sum_hessian":[4.74E2,3.27E2,1.47E2],"tree_param":{"num_deleted":"0","num_feature":"6","num_nodes":"3","size_leaf_vector":"1"}},{"base_weights":[-3.7546408E-1,-2.4634033E-2,1.1139161E-2],"categories":[],"categories_nodes":[],"categories_segments":[],"categories_sizes":[],"default_left":[0,0,0],"id":5,"left_children":[1,-1,-1],"loss_changes":[6.740013E2,0E0,0E0],"parents":[2147483647,0,0],"right_children":[2,-1,-1],"split_conditions":[4.8E1,-2.4634033E-2,1.1139161E-2],"split_indices":[5,0,0],"split_type":[0,0,0],"sum_hessian":[4.74E2,2.22E2,2.52E2],"tree_param":{"num_deleted":"0","num_feature":"6","num_nodes":"3","size_leaf_vector":"1"}},{"base_weights":[-1.3530679E-1,-1.7531091E-2,1.8472513E-2],"categories":[],"categories_nodes":[],"categories_segments":[],"categories_sizes":[],"default_left":[0,0,0],"id":6,"left_children":[1,-1,-1],"loss_changes":[6.7237854E2,0E0,0E0],"parents":[2147483647,0,0],"right_children":[2,-1,-1],"split_conditions":[6.1E1,-1.7531091E-2,1.8472513E-2],"split_indices":[0,0,0],"split_type":[0,0,0],"sum_hessian":[4.74E2,2.7E2,2.04E2],"tree_param":{"num_deleted":"0","num_feature":"6","num_nodes":"3","size_leaf_vector":"1"}},{"base_weights":[7.849304E-1,-7.442457E-3,2.4498936E-2],"categories":[],"categories_nodes":[],"categories_segments":[],"categories_sizes":[],"default_left":[0,0,0],"id":7,"left_children":[1,-1,-1],"loss_changes":[5.170372E2,0E0,0E0],"parents":[2147483647,0,0],"right_children":[2,-1,-1],"split_conditions":[6.2E1,-7.442457E-3,2.4498936E-2],"split_indices":[1,0,0],"split_type":[0,0,0],"sum_hessian":[4.74E2,1.89E2,2.85E2],"tree_param":{"num_deleted":"0","num_feature":"6","num_nodes":"3","size_leaf_vector":"1"}},{"base_weights":[-3.9760876E-1,-2.1954251E-2,1.145479E-2],"categories":[],"categories_nodes":[],"categories_segments":[],"categories_sizes":[],"default_left":[0,0,0],"id":8,"left_children":[1,-1,-1],"loss_changes":[5.891269E2,0E0,0E0],"parents":[2147483647,0,0],"right_children":[2,-1,-1],"split_conditions":[4.7E1,-2.1954251E-2,1.145479E-2],"split_indices":[2,0,0],"split_type":[0,0,0],"sum_hessian":[4.74E2,2.47E2,2.27E2],"tree_param":{"num_deleted":"0","num_feature":"6","num_nodes":"3","size_leaf_vector":"1"}},{"base_weights":[-4.6821716E-1,-2.5329417E-2,6.6147414E-3],"categories":[],"categories_nodes":[],"categories_segments":[],"categories_sizes":[],"default_left":[0,0,0],"id":9,"left_children":[1,-1,-1],"loss_changes":[5.2780334E2,0E0,0E0],"parents":[2147483647,0,0],"right_children":[2,-1,-1],"split_conditions":[3.9E1,-2.5329417E-2,6.6147414E-3],"split_indices":[3,0,0],"split_type":[0,0,0],"sum_hessian":[4.74E2,2.02E2,2.72E2],"tree_param":{"num_deleted":"0","num_feature":"6","num_nodes":"3","size_leaf_vector":"1"}},{"base_weights":[5.8609986E-1,-6.151622E-3,2.4602203E-2],"categories":[],"categories_nodes":[],"categories_segments":[],"categories_sizes":[],"default_left":[0,0,0],"id":10,"left_children":[1,-1,-1],"loss_changes":[4.994464E2,0E0,0E0],"parents":[2147483647,0,0],"right_children":[2,-1,-1],"split_conditions":[6.7E1,-6.151622E-3,2.4602203E-2],"split_indices":[4,0,0],"split_type":[0,0,0],"sum_hessian":[4.74E2,2.44E2,2.3E2],"tree_param":{"num_deleted":"0","num_feature":"6","num_nodes":"3","size_leaf_vector":"1"}},{"base_weights":[-3.6986047E-1,-2.4266178E-2,1.0972735E-2],"categories":[],"categories_nodes":[],"categories_segments":[],"categories_sizes":[],"default_left":[0,0,0],"id":11,"left_children":[1,-1,-1],"loss_changes":[6.540189E2,0E0,0E0],"parents":[2147483647,0,0],"right_children":[2,-1,-1],"split_conditions":[4.8E1,-2.4266178E-2,1.0972735E-2],"split_indices":[5,0,0],"split_type":[0,0,0],"sum_hessian":[4.74E2,2.22E2,2.52E2],"tree_param":{"num_deleted":"0","num_feature":"6","num_nodes":"3","size_leaf_vector":"1"}},{"base_weights":[-1.3327514E-1,-1.7269095E-2,1.8196777E-2],"categories":[],"categories_nodes":[],"categories_segments":[],"categories_sizes":[],"default_left":[0,0,0],"id":12,"left_children":[1,-1,-1],"loss_changes":[6.524439E2,0E0,0E0],"parents":[2147483647,0,0],"right_children":[2,-1,-1],"split_conditions":[6.1E1,-1.7269095E-2,1.8196777E-2],"split_indices":[0,0,0],"split_type":[0,0,0],"sum_hessian":[4.74E2,2.7E2,2.04E2],"tree_param":{"num_deleted":"0","num_feature":"6","num_nodes":"3","size_leaf_vector":"1"}},{"base_weights":[7.7319235E-1,-2.2317292E-3,2.8911864E-2],"categories":[],"categories_nodes":[],"categories_segments":[],"categories_sizes":[],"default_left":[0,0,0],"id":13,"left_children":[1,-1,-1],"loss_changes":[5.0578326E2,0E0,0E0],"parents":[2147483647,0,0],"right_children":[2,-1,-1],"split_conditions":[7.5E1,-2.2317292E-3,2.8911864E-2],"split_indices":[1,0,0],"split_type":[0,0,0],"sum_hessian":[4.74E2,2.64E2,2.1E2],"tree_param":{"num_deleted":"0","num_feature":"6","num_nodes":"3","size_leaf_vector":"1"}},{"base_weights":[-3.916667E-1,-2.1626264E-2,1.1283722E-2],"categories":[],"categories_nodes":[],"categories_segments":[],"categories_sizes":[],"default_left":[0,0,0],"id":14,"left_children":[1,-1,-1],"loss_changes":[5.716579E2,0E0,0E0],"parents":[2147483647,0,0],"right_children":[2,-1,-1],"split_conditions":[4.7E1,-2.1626264E-2,1.1283722E-2],"split_indices":[2,0,0],"split_type":[0,0,0],"sum_hessian":[4.74E2,2.47E2,2.27E2],"tree_param":{"num_deleted":"0","num_feature":"6","num_nodes":"3","size_leaf_vector":"1"}},{"base_weights":[-4.612333E-1,-1.9198451E-2,1.2956359E-2],"categories":[],"categories_nodes":[],"categories_segments":[],"categories_sizes":[],"default_left":[0,0,0],"id":15,"left_children":[1,-1,-1],"loss_changes":[5.1634814E2,0E0,0E0],"parents":[2147483647,0,0],"right_children":[2,-1,-1],"split_conditions":[5.2E1,-1.9198451E-2,1.2956359E-2],"split_indices":[3,0,0],"split_type":[0,0,0],"sum_hessian":[4.74E2,2.93E2,1.81E2],"tree_param":{"num_deleted":"0","num_feature":"6","num_nodes":"3","size_leaf_vector":"1"}},{"base_weights":[5.773472E-1,-1.5532495E-3,3.1236922E-2],"categories":[],"categories_nodes":[],"categories_segments":[],"categories_sizes":[],"default_left":[0,0,0],"id":16,"left_children":[1,-1,-1],"loss_changes":[4.8700903E2,0E0,0E0],"parents":[2147483647,0,0],"right_children":[2,-1,-1],"split_conditions":[8.3E1,-1.5532495E-3,3.1236922E-2],"split_indices":[4,0,0],"split_type":[0,0,0],"sum_hessian":[4.74E2,3.27E2,1.47E2],"tree_param":{"num_deleted":"0","num_feature":"6","num_nodes":"3","size_leaf_vector":"1"}},{"base_weights":[-3.6434054E-1,-2.3672706E-2,1.101642E-2],"categories":[],"categories_nodes":[],"categories_segments":[],"categories_sizes":[],"default_left":[0,0,0],"id":17,"left_children":[1,-1,-1],"loss_changes":[6.3468036E2,0E0,0E0],"parents":[2147483647,0,0],"right_children":[2,-1,-1],"split_conditions":[4.9E1,-2.3672706E-2,1.101642E-2],"split_indices":[5,0,0],"split_type":[0,0,0],"sum_hessian":[4.74E2,2.25E2,2.49E2],"tree_param":{"num_deleted":"0","num_feature":"6","num_nodes":"3","size_leaf_vector":"1"}},{"base_weights":[-1.3127404E-1,-2.1743337E-2,1.3254807E-2],"categories":[],"categories_nodes":[],"categories_segments":[],"categories_sizes":[],"default_left":[0,0,0],"id":18,"left_children":[1,-1,-1],"loss_changes":[6.368123E2,0E0,0E0],"parents":[2147483647,0,0],"right_children":[2,-1,-1],"split_conditions":[5E1,-2.1743337E-2,1.3254807E-2],"split_indices":[0,0,0],"split_type":[0,0,0],"sum_hessian":[4.74E2,2.06E2,2.68E2],"tree_param":{"num_deleted":"0","num_feature":"6","num_nodes":"3","size_leaf_vector":"1"}},{"base_weights":[7.616507E-1,-7.551357E-3,2.3663891E-2],"categories":[],"categories_nodes":[],"categories_segments":[],"categories_sizes":[],"default_left":[0,0,0],"id":19,"left_children":[1,-1,-1],"loss_changes":[4.9110236E2,0E0,0E0],"parents":[2147483647,0,0],"right_children":[2,-1,-1],"split_conditions":[6.1E1,-7.551357E-3,2.3663891E-2],"split_indices":[1,0,0],"split_type":[0,0,0],"sum_hessian":[4.74E2,1.86E2,2.88E2],"tree_param":{"num_deleted":"0","num_feature":"6","num_nodes":"3","size_leaf_vector":"1"}},{"base_weights":[-3.8581344E-1,-2.130318E-2,1.1115209E-2],"categories":[],"categories_nodes":[],"categories_segments":[],"categories_sizes":[],"default_left":[0,0,0],"id":20,"left_children":[1,-1,-1],"loss_changes":[5.54707E2,0E0,0E0],"parents":[2147483647,0,0],"right_children":[2,-1,-1],"split_conditions":[4.7E1,-2.130318E-2,1.1115209E-2],"split_indices":[2,0,0],"split_type":[0,0,0],"sum_hessian":[4.74E2,2.47E2,2.27E2],"tree_param":{"num_deleted":"0","num_feature":"6","num_nodes":"3","size_leaf_vector":"1"}},{"base_weights":[-4.5432797E-1,-2.4664791E-2,6.4830245E-3],"categories":[],"categories_nodes":[],"categories_segments":[],"categories_sizes":[],"default_left":[0,0,0],"id":21,"left_children":[1,-1,-1],"loss_changes":[5.018179E2,0E0,0E0],"parents":[2147483647,0,0],"right_children":[2,-1,-1],"split_conditions":[3.9E1,-2.4664791E-2,6.4830245E-3],"split_indices":[3,0,0],"split_type":[0,0,0],"sum_hessian":[4.74E2,2.02E2,2.72E2],"tree_param":{"num_deleted":"0","num_feature":"6","num_nodes":"3","size_leaf_vector":"1"}},{"base_weights":[5.6874955E-1,-6.0365195E-3,2.3944968E-2],"categories":[],"categories_nodes":[],"categories_segments":[],"categories_sizes":[],"default_left":[0,0,0],"id":22,"left_children":[1,-1,-1],"loss_changes":[4.746787E2,0E0,0E0],"parents":[2147483647,0,0],"right_children":[2,-1,-1],"split_conditions":[6.7E1,-6.0365195E-3,2.3944968E-2],"split_indices":[4,0,0],"split_type":[0,0,0],"sum_hessian":[4.74E2,2.44E2,2.3E2],"tree_param":{"num_deleted":"0","num_feature":"6","num_nodes":"3","size_leaf_vector":"1"}},{"base_weights":[-3.5890198E-1,-2.3550317E-2,1.0650371E-2],"categories":[],"categories_nodes":[],"categories_segments":[],"categories_sizes":[],"default_left":[0,0,0],"id":23,"left_children":[1,-1,-1],"loss_changes":[6.1604865E2,0E0,0E0],"parents":[2147483647,0,0],"right_children":[2,-1,-1],"split_conditions":[4.8E1,-2.3550317E-2,1.0650371E-2],"split_indices":[5,0,0],"split_type":[0,0,0],"sum_hessian":[4.74E2,2.22E2,2.52E2],"tree_param":{"num_deleted":"0","num_feature":"6","num_nodes":"3","size_leaf_vector":"1"}},{"base_weights":[-1.2932287E-1,-1.6810045E-2,1.7727302E-2],"categories":[],"categories_nodes":[],"categories_segments":[],"categories_sizes":[],"default_left":[0,0,0],"id":24,"left_children":[1,-1,-1],"loss_changes":[6.187283E2,0E0,0E0],"parents":[2147483647,0,0],"right_children":[2,-1,-1],"split_conditions":[6.1E1,-1.6810045E-2,1.7727302E-2],"split_indices":[0,0,0],"split_type":[0,0,0],"sum_hessian":[4.74E2,2.7E2,2.04E2],"tree_param":{"num_deleted":"0","num_feature":"6","num_nodes":"3","size_leaf_vector":"1"}},{"base_weights":[7.502598E-1,-2.2233531E-3,2.8126964E-2],"categories":[],"categories_nodes":[],"categories_segments":[],"categories_sizes":[],"default_left":[0,0,0],"id":25,"left_children":[1,-1,-1],"loss_changes":[4.8035E2,0E0,0E0],"parents":[2147483647,0,0],"right_children":[2,-1,-1],"split_conditions":[7.5E1,-2.2233531E-3,2.8126964E-2],"split_indices":[1,0,0],"split_type":[0,0,0],"sum_hessian":[4.74E2,2.64E2,2.1E2],"tree_param":{"num_deleted":"0","num_feature":"6","num_nodes":"3","size_leaf_vector":"1"}},{"base_weights":[-3.8004777E-1,-1.939151E-2,1.2898187E-2],"categories":[],"categories_nodes":[],"categories_segments":[],"categories_sizes":[],"default_left":[0,0,0],"id":26,"left_children":[1,-1,-1],"loss_changes":[5.3867175E2,0E0,0E0],"parents":[2147483647,0,0],"right_children":[2,-1,-1],"split_conditions":[5.2E1,-1.939151E-2,1.2898187E-2],"split_indices":[2,0,0],"split_type":[0,0,0],"sum_hessian":[4.74E2,2.73E2,2.01E2],"tree_param":{"num_deleted":"0","num_feature":"6","num_nodes":"3","size_leaf_vector":"1"}},{"base_weights":[-4.475513E-1,-1.8423324E-2,1.3106051E-2],"categories":[],"categories_nodes":[],"categories_segments":[],"categories_sizes":[],"default_left":[0,0,0],"id":27,"left_children":[1,-1,-1],"loss_changes":[4.9103107E2,0E0,0E0],"parents":[2147483647,0,0],"right_children":[2,-1,-1],"split_conditions":[5.3E1,-1.8423324E-2,1.3106051E-2],"split_indices":[3,0,0],"split_type":[0,0,0],"sum_hessian":[4.74E2,2.98E2,1.76E2],"tree_param":{"num_deleted":"0","num_feature":"6","num_nodes":"3","size_leaf_vector":"1"}},{"base_weights":[5.6025606E-1,-1.554249E-2,1.756812E-2],"categories":[],"categories_nodes":[],"categories_segments":[],"categories_sizes":[],"default_left":[0,0,0],"id":28,"left_children":[1,-1,-1],"loss_changes":[4.6449872E2,0E0,0E0],"parents":[2147483647,0,0],"right_children":[2,-1,-1],"split_conditions":[5E1,-1.554249E-2,1.756812E-2],"split_indices":[4,0,0],"split_type":[0,0,0],"sum_hessian":[4.74E2,1.31E2,3.43E2],"tree_param":{"num_deleted":"0","num_feature":"6","num_nodes":"3","size_leaf_vector":"1"}},{"base_weights":[-3.5354564E-1,-2.0383477E-2,1.3501063E-2],"categories":[],"categories_nodes":[],"categories_segments":[],"categories_sizes":[],"default_left":[0,0,0],"id":29,"left_children":[1,-1,-1],"loss_changes":[5.998784E2,0E0,0E0],"parents":[2147483647,0,0],"right_children":[2,-1,-1],"split_conditions":[5.6E1,-2.0383477E-2,1.3501063E-2],"split_indices":[5,0,0],"split_type":[0,0,0],"sum_hessian":[4.74E2,2.63E2,2.11E2],"tree_param":{"num_deleted":"0","num_feature":"6","num_nodes":"3","size_leaf_vector":"1"}},{"base_weights":[-1.2738119E-1,-2.1167831E-2,1.2915057E-2],"categories":[],"categories_nodes":[],"categories_segments":[],"categories_sizes":[],"default_left":[0,0,0],"id":30,"left_children":[1,-1,-1],"loss_changes":[6.0394073E2,0E0,0E0],"parents":[2147483647,0,0],"right_children":[2,-1,-1],"split_conditions":[5E1,-2.1167831E-2,1.2915057E-2],"split_indices":[0,0,0],"split_type":[0,0,0],"sum_hessian":[4.74E2,2.06E2,2.68E2],"tree_param":{"num_deleted":"0","num_feature":"6","num_nodes":"3","size_leaf_vector":"1"}},{"base_weights":[7.390604E-1,-7.4055204E-3,2.3012588E-2],"categories":[],"categories_nodes":[],"categories_segments":[],"categories_sizes":[],"default_left":[0,0,0],"id":31,"left_children":[1,-1,-1],"loss_changes":[4.6634473E2,0E0,0E0],"parents":[2147483647,0,0],"right_children":[2,-1,-1],"split_conditions":[6.1E1,-7.4055204E-3,2.3012588E-2],"split_indices":[1,0,0],"split_type":[0,0,0],"sum_hessian":[4.74E2,1.86E2,2.88E2],"tree_param":{"num_deleted":"0","num_feature":"6","num_nodes":"3","size_leaf_vector":"1"}},{"base_weights":[-3.743607E-1,-2.142056E-2,1.00809755E-2],"categories":[],"categories_nodes":[],"categories_segments":[],"categories_sizes":[],"default_left":[0,0,0],"id":32,"left_children":[1,-1,-1],"loss_changes":[5.2469214E2,0E0,0E0],"parents":[2147483647,0,0],"right_children":[2,-1,-1],"split_conditions":[4.6E1,-2.142056E-2,1.00809755E-2],"split_indices":[2,0,0],"split_type":[0,0,0],"sum_hessian":[4.74E2,2.36E2,2.38E2],"tree_param":{"num_deleted":"0","num_feature":"6","num_nodes":"3","size_leaf_vector":"1"}},{"base_weights":[-4.4084927E-1,-2.402165E-2,6.3565723E-3],"categories":[],"categories_nodes":[],"categories_segments":[],"categories_sizes":[],"default_left":[0,0,0],"id":33,"left_children":[1,-1,-1],"loss_changes":[4.773287E2,0E0,0E0],"parents":[2147483647,0,0],"right_children":[2,-1,-1],"split_conditions":[3.9E1,-2.402165E-2,6.3565723E-3],"split_indices":[3,0,0],"split_type":[0,0,0],"sum_hessian":[4.74E2,2.02E2,2.72E2],"tree_param":{"num_deleted":"0","num_feature":"6","num_nodes":"3","size_leaf_vector":"1"}},{"base_weights":[5.518565E-1,-1.617908E-3,3.015305E-2],"categories":[],"categories_nodes":[],"categories_segments":[],"categories_sizes":[],"default_left":[0,0,0],"id":34,"left_children":[1,-1,-1],"loss_changes":[4.5721252E2,0E0,0E0],"parents":[2147483647,0,0],"right_children":[2,-1,-1],"split_conditions":[8.3E1,-1.617908E-3,3.015305E-2],"split_indices":[4,0,0],"split_type":[0,0,0],"sum_hessian":[4.74E2,3.27E2,1.47E2],"tree_param":{"num_deleted":"0","num_feature":"6","num_nodes":"3","size_leaf_vector":"1"}},{"base_weights":[-3.4825695E-1,-2.2894265E-2,1.0371898E-2],"categories":[],"categories_nodes":[],"categories_segments":[],"categories_sizes":[],"default_left":[0,0,0],"id":35,"left_children":[1,-1,-1],"loss_changes":[5.8284247E2,0E0,0E0],"parents":[2147483647,0,0],"right_children":[2,-1,-1],"split_conditions":[4.8E1,-2.2894265E-2,1.0371898E-2],"split_indices":[5,0,0],"split_type":[0,0,0],"sum_hessian":[4.74E2,2.22E2,2.52E2],"tree_param":{"num_deleted":"0","num_feature":"6","num_nodes":"3","size_leaf_vector":"1"}},{"base_weights":[-1.2548792E-1,-1.636322E-2,1.7269908E-2],"categories":[],"categories_nodes":[],"categories_segments":[],"categories_sizes":[],"default_left":[0,0,0],"id":36,"left_children":[1,-1,-1],"loss_changes":[5.867547E2,0E0,0E0],"parents":[2147483647,0,0],"right_children":[2,-1,-1],"split_conditions":[6.1E1,-1.636322E-2,1.7269908E-2],"split_indices":[0,0,0],"split_type":[0,0,0],"sum_hessian":[4.74E2,2.7E2,2.04E2],"tree_param":{"num_deleted":"0","num_feature":"6","num_nodes":"3","size_leaf_vector":"1"}},{"base_weights":[7.280073E-1,-2.2137656E-3,2.7363507E-2],"categories":[],"categories_nodes":[],"categories_segments":[],"categories_sizes":[],"default_left":[0,0,0],"id":37,"left_children":[1,-1,-1],"loss_changes":[4.561965E2,0E0,0E0],"parents":[2147483647,0,0],"right_children":[2,-1,-1],"split_conditions":[7.5E1,-2.2137656E-3,2.7363507E-2],"split_indices":[1,0,0],"split_type":[0,0,0],"sum_hessian":[4.74E2,2.64E2,2.1E2],"tree_param":{"num_deleted":"0","num_feature":"6","num_nodes":"3","size_leaf_vector":"1"}},{"base_weights":[-3.6876926E-1,-1.8845372E-2,1.2555203E-2],"categories":[],"categories_nodes":[],"categories_segments":[],"categories_sizes":[],"default_left":[0,0,0],"id":38,"left_children":[1,-1,-1],"loss_changes":[5.0941537E2,0E0,0E0],"parents":[2147483647,0,0],"right_children":[2,-1,-1],"split_conditions":[5.2E1,-1.8845372E-2,1.2555203E-2],"split_indices":[2,0,0],"split_type":[0,0,0],"sum_hessian":[4.74E2,2.73E2,2.01E2],"tree_param":{"num_deleted":"0","num_feature":"6","num_nodes":"3","size_leaf_vector":"1"}},{"base_weights":[-4.342737E-1,-1.8193888E-2,1.23890275E-2],"categories":[],"categories_nodes":[],"categories_segments":[],"categories_sizes":[],"default_left":[0,0,0],"id":39,"left_children":[1,-1,-1],"loss_changes":[4.6710236E2,0E0,0E0],"parents":[2147483647,0,0],"right_children":[2,-1,-1],"split_conditions":[5.2E1,-1.8193888E-2,1.23890275E-2],"split_indices":[3,0,0],"split_type":[0,0,0],"sum_hessian":[4.74E2,2.93E2,1.81E2],"tree_param":{"num_deleted":"0","num_feature":"6","num_nodes":"3","size_leaf_vector":"1"}},{"base_weights":[5.4363877E-1,-1.5287035E-2,1.7125916E-2],"categories":[],"categories_nodes":[],"categories_segments":[],"categories_sizes":[],"default_left":[0,0,0],"id":40,"left_children":[1,-1,-1],"loss_changes":[4.4513565E2,0E0,0E0],"parents":[2147483647,0,0],"right_children":[2,-1,-1],"split_conditions":[5E1,-1.5287035E-2,1.7125916E-2],"split_indices":[4,0,0],"split_type":[0,0,0],"sum_hessian":[4.74E2,1.31E2,3.43E2],"tree_param":{"num_deleted":"0","num_feature":"6","num_nodes":"3","size_leaf_vector":"1"}},{"base_weights":[-3.430594E-1,-1.9814262E-2,1.3144656E-2],"categories":[],"categories_nodes":[],"categories_segments":[],"categories_sizes":[],"default_left":[0,0,0],"id":41,"left_children":[1,-1,-1],"loss_changes":[5.675529E2,0E0,0E0],"parents":[2147483647,0,0],"right_children":[2,-1,-1],"split_conditions":[5.6E1,-1.9814262E-2,1.3144656E-2],"split_indices":[5,0,0],"split_type":[0,0,0],"sum_hessian":[4.74E2,2.63E2,2.11E2],"tree_param":{"num_deleted":"0","num_feature":"6","num_nodes":"3","size_leaf_vector":"1"}},{"base_weights":[-1.2360371E-1,-2.0607589E-2,1.2583993E-2],"categories":[],"categories_nodes":[],"categories_segments":[],"categories_sizes":[],"default_left":[0,0,0],"id":42,"left_children":[1,-1,-1],"loss_changes":[5.7276636E2,0E0,0E0],"parents":[2147483647,0,0],"right_children":[2,-1,-1],"split_conditions":[5E1,-2.0607589E-2,1.2583993E-2],"split_indices":[0,0,0],"split_type":[0,0,0],"sum_hessian":[4.74E2,2.06E2,2.68E2],"tree_param":{"num_deleted":"0","num_feature":"6","num_nodes":"3","size_leaf_vector":"1"}},{"base_weights":[7.1714014E-1,-7.2620036E-3,2.23793E-2],"categories":[],"categories_nodes":[],"categories_segments":[],"categories_sizes":[],"default_left":[0,0,0],"id":43,"left_children":[1,-1,-1],"loss_changes":[4.4283472E2,0E0,0E0],"parents":[2147483647,0,0],"right_children":[2,-1,-1],"split_conditions":[6.1E1,-7.2620036E-3,2.23793E-2],"split_indices":[1,0,0],"split_type":[0,0,0],"sum_hessian":[4.74E2,1.86E2,2.88E2],"tree_param":{"num_deleted":"0","num_feature":"6","num_nodes":"3","size_leaf_vector":"1"}},{"base_weights":[-3.6325094E-1,-2.0819124E-2,9.815771E-3],"categories":[],"categories_nodes":[],"categories_segments":[],"categories_sizes":[],"default_left":[0,0,0],"id":44,"left_children":[1,-1,-1],"loss_changes":[4.9622006E2,0E0,0E0],"parents":[2147483647,0,0],"right_children":[2,-1,-1],"split_conditions":[4.6E1,-2.0819124E-2,9.815771E-3],"split_indices":[2,0,0],"split_type":[0,0,0],"sum_hessian":[4.74E2,2.36E2,2.38E2],"tree_param":{"num_deleted":"0","num_feature":"6","num_nodes":"3","size_leaf_vector":"1"}},{"base_weights":[-4.2777172E-1,-2.3391537E-2,6.2293354E-3],"categories":[],"categories_nodes":[],"categories_segments":[],"categories_sizes":[],"default_left":[0,0,0],"id":45,"left_children":[1,-1,-1],"loss_changes":[4.5382684E2,0E0,0E0],"parents":[2147483647,0,0],"right_children":[2,-1,-1],"split_conditions":[3.9E1,-2.3391537E-2,6.2293354E-3],"split_indices":[3,0,0],"split_type":[0,0,0],"sum_hessian":[4.74E2,2.02E2,2.72E2],"tree_param":{"num_deleted":"0","num_feature":"6","num_nodes":"3","size_leaf_vector":"1"}},{"base_weights":[5.3548807E-1,-1.6556378E-3,2.9448658E-2],"categories":[],"categories_nodes":[],"categories_segments":[],"categories_sizes":[],"default_left":[0,0,0],"id":46,"left_children":[1,-1,-1],"loss_changes":[4.382313E2,0E0,0E0],"parents":[2147483647,0,0],"right_children":[2,-1,-1],"split_conditions":[8.3E1,-1.6556378E-3,2.9448658E-2],"split_indices":[4,0,0],"split_type":[0,0,0],"sum_hessian":[4.74E2,3.27E2,1.47E2],"tree_param":{"num_deleted":"0","num_feature":"6","num_nodes":"3","size_leaf_vector":"1"}},{"base_weights":[-3.3792758E-1,-2.2256507E-2,1.0100661E-2],"categories":[],"categories_nodes":[],"categories_segments":[],"categories_sizes":[],"default_left":[0,0,0],"id":47,"left_children":[1,-1,-1],"loss_changes":[5.514259E2,0E0,0E0],"parents":[2147483647,0,0],"right_children":[2,-1,-1],"split_conditions":[4.8E1,-2.2256507E-2,1.0100661E-2],"split_indices":[5,0,0],"split_type":[0,0,0],"sum_hessian":[4.74E2,2.22E2,2.52E2],"tree_param":{"num_deleted":"0","num_feature":"6","num_nodes":"3","size_leaf_vector":"1"}},{"base_weights":[-1.2176658E-1,-1.5928285E-2,1.6824285E-2],"categories":[],"categories_nodes":[],"categories_segments":[],"categories_sizes":[],"default_left":[0,0,0],"id":48,"left_children":[1,-1,-1],"loss_changes":[5.5643304E2,0E0,0E0],"parents":[2147483647,0,0],"right_children":[2,-1,-1],"split_conditions":[6.1E1,-1.5928285E-2,1.6824285E-2],"split_indices":[0,0,0],"split_type":[0,0,0],"sum_hessian":[4.74E2,2.7E2,2.04E2],"tree_param":{"num_deleted":"0","num_feature":"6","num_nodes":"3","size_leaf_vector":"1"}},{"base_weights":[7.0641476E-1,-2.2030359E-3,2.6620898E-2],"categories":[],"categories_nodes":[],"categories_segments":[],"categories_sizes":[],"default_left":[0,0,0],"id":49,"left_children":[1,-1,-1],"loss_changes":[4.3325793E2,0E0,0E0],"parents":[2147483647,0,0],"right_children":[2,-1,-1],"split_conditions":[7.5E1,-2.2030359E-3,2.6620898E-2],"split_indices":[1,0,0],"split_type":[0,0,0],"sum_hessian":[4.74E2,2.64E2,2.1E2],"tree_param":{"num_deleted":"0","num_feature":"6","num_nodes":"3","size_leaf_vector":"1"}},{"base_weights":[-3.5782528E-1,-2.1030921E-2,9.176421E-3],"categories":[],"categories_nodes":[],"categories_segments":[],"categories_sizes":[],"default_left":[0,0,0],"id":50,"left_children":[1,-1,-1],"loss_changes":[4.8178455E2,0E0,0E0],"parents":[2147483647,0,0],"right_children":[2,-1,-1],"split_conditions":[4.5E1,-2.1030921E-2,9.176421E-3],"split_indices":[2,0,0],"split_type":[0,0,0],"sum_hessian":[4.74E2,2.28E2,2.46E2],"tree_param":{"num_deleted":"0","num_feature":"6","num_nodes":"3","size_leaf_vector":"1"}},{"base_weights":[-4.2139134E-1,-1.7463714E-2,1.2538064E-2],"categories":[],"categories_nodes":[],"categories_segments":[],"categories_sizes":[],"default_left":[0,0,0],"id":51,"left_children":[1,-1,-1],"loss_changes":[4.4460663E2,0E0,0E0],"parents":[2147483647,0,0],"right_children":[2,-1,-1],"split_conditions":[5.3E1,-1.7463714E-2,1.2538064E-2],"split_indices":[3,0,0],"split_type":[0,0,0],"sum_hessian":[4.74E2,2.98E2,1.76E2],"tree_param":{"num_deleted":"0","num_feature":"6","num_nodes":"3","size_leaf_vector":"1"}},{"base_weights":[5.2751416E-1,-1.5034822E-2,1.6695159E-2],"categories":[],"categories_nodes":[],"categories_segments":[],"categories_sizes":[],"default_left":[0,0,0],"id":52,"left_children":[1,-1,-1],"loss_changes":[4.2657947E2,0E0,0E0],"parents":[2147483647,0,0],"right_children":[2,-1,-1],"split_conditions":[5E1,-1.5034822E-2,1.6695159E-2],"split_indices":[4,0,0],"split_type":[0,0,0],"sum_hessian":[4.74E2,1.31E2,3.43E2],"tree_param":{"num_deleted":"0","num_feature":"6","num_nodes":"3","size_leaf_vector":"1"}},{"base_weights":[-3.328842E-1,-1.9260967E-2,1.279762E-2],"categories":[],"categories_nodes":[],"categories_segments":[],"categories_sizes":[],"default_left":[0,0,0],"id":53,"left_children":[1,-1,-1],"loss_changes":[5.369696E2,0E0,0E0],"parents":[2147483647,0,0],"right_children":[2,-1,-1],"split_conditions":[5.6E1,-1.9260967E-2,1.279762E-2],"split_indices":[5,0,0],"split_type":[0,0,0],"sum_hessian":[4.74E2,2.63E2,2.11E2],"tree_param":{"num_deleted":"0","num_feature":"6","num_nodes":"3","size_leaf_vector":"1"}},{"base_weights":[-1.1993819E-1,-2.0549027E-2,1.1911981E-2],"categories":[],"categories_nodes":[],"categories_segments":[],"categories_sizes":[],"default_left":[0,0,0],"id":54,"left_children":[1,-1,-1],"loss_changes":[5.438158E2,0E0,0E0],"parents":[2147483647,0,0],"right_children":[2,-1,-1],"split_conditions":[4.8E1,-2.0549027E-2,1.1911981E-2],"split_indices":[0,0,0],"split_type":[0,0,0],"sum_hessian":[4.74E2,2E2,2.74E2],"tree_param":{"num_deleted":"0","num_feature":"6","num_nodes":"3","size_leaf_vector":"1"}},{"base_weights":[6.9587E-1,-8.190644E-3,2.1136574E-2],"categories":[],"categories_nodes":[],"categories_segments":[],"categories_sizes":[],"default_left":[0,0,0],"id":55,"left_children":[1,-1,-1],"loss_changes":[4.2151285E2,0E0,0E0],"parents":[2147483647,0,0],"right_children":[2,-1,-1],"split_conditions":[5.8E1,-8.190644E-3,2.1136574E-2],"split_indices":[1,0,0],"split_type":[0,0,0],"sum_hessian":[4.74E2,1.73E2,3.01E2],"tree_param":{"num_deleted":"0","num_feature":"6","num_nodes":"3","size_leaf_vector":"1"}},{"base_weights":[-3.5248291E-1,-1.6596539E-2,1.43719185E-2],"categories":[],"categories_nodes":[],"categories_segments":[],"categories_sizes":[],"default_left":[0,0,0],"id":56,"left_children":[1,-1,-1],"loss_changes":[4.704261E2,0E0,0E0],"parents":[2147483647,0,0],"right_children":[2,-1,-1],"split_conditions":[5.7E1,-1.6596539E-2,1.43719185E-2],"split_indices":[2,0,0],"split_type":[0,0,0],"sum_hessian":[4.74E2,3.01E2,1.73E2],"tree_param":{"num_deleted":"0","num_feature":"6","num_nodes":"3","size_leaf_vector":"1"}},{"base_weights":[-4.1508082E-1,-2.4394523E-2,5.0420156E-3],"categories":[],"categories_nodes":[],"categories_segments":[],"categories_sizes":[],"default_left":[0,0,0],"id":57,"left_children":[1,-1,-1],"loss_changes":[4.3274323E2,0E0,0E0],"parents":[2147483647,0,0],"right_children":[2,-1,-1],"split_conditions":[3.5E1,-2.4394523E-2,5.0420156E-3],"split_indices":[3,0,0],"split_type":[0,0,0],"sum_hessian":[4.74E2,1.81E2,2.93E2],"tree_param":{"num_deleted":"0","num_feature":"6","num_nodes":"3","size_leaf_vector":"1"}},{"base_weights":[5.196049E-1,-1.5538152E-3,2.9079294E-2],"categories":[],"categories_nodes":[],"categories_segments":[],"categories_sizes":[],"default_left":[0,0,0],"id":58,"left_children":[1,-1,-1],"loss_changes":[4.2025253E2,0E0,0E0],"parents":[2147483647,0,0],"right_children":[2,-1,-1],"split_conditions":[8.4E1,-1.5538152E-3,2.9079294E-2],"split_indices":[4,0,0],"split_type":[0,0,0],"sum_hessian":[4.74E2,3.3E2,1.44E2],"tree_param":{"num_deleted":"0","num_feature":"6","num_nodes":"3","size_leaf_vector":"1"}},{"base_weights":[-3.2790455E-1,-2.503542E-2,7.4409866E-3],"categories":[],"categories_nodes":[],"categories_segments":[],"categories_sizes":[],"default_left":[0,0,0],"id":59,"left_children":[1,-1,-1],"loss_changes":[5.257248E2,0E0,0E0],"parents":[2147483647,0,0],"right_children":[2,-1,-1],"split_conditions":[4.1E1,-2.503542E-2,7.4409866E-3],"split_indices":[5,0,0],"split_type":[0,0,0],"sum_hessian":[4.74E2,1.8E2,2.94E2],"tree_param":{"num_deleted":"0","num_feature":"6","num_nodes":"3","size_leaf_vector":"1"}},{"base_weights":[-1.1815722E-1,-1.5508915E-2,1.6395345E-2],"categories":[],"categories_nodes":[],"categories_segments":[],"categories_sizes":[],"default_left":[0,0,0],"id":60,"left_children":[1,-1,-1],"loss_changes":[5.279826E2,0E0,0E0],"parents":[2147483647,0,0],"right_children":[2,-1,-1],"split_conditions":[6.1E1,-1.5508915E-2,1.6395345E-2],"split_indices":[0,0,0],"split_type":[0,0,0],"sum_hessian":[4.74E2,2.7E2,2.04E2],"tree_param":{"num_deleted":"0","num_feature":"6","num_nodes":"3","size_leaf_vector":"1"}},{"base_weights":[6.854592E-1,-2.1987823E-3,2.5907934E-2],"categories":[],"categories_nodes":[],"categories_segments":[],"categories_sizes":[],"default_left":[0,0,0],"id":61,"left_children":[1,-1,-1],"loss_changes":[4.1196954E2,0E0,0E0],"parents":[2147483647,0,0],"right_children":[2,-1,-1],"split_conditions":[7.5E1,-2.1987823E-3,2.5907934E-2],"split_indices":[1,0,0],"split_type":[0,0,0],"sum_hessian":[4.74E2,2.64E2,2.1E2],"tree_param":{"num_deleted":"0","num_feature":"6","num_nodes":"3","size_leaf_vector":"1"}},{"base_weights":[-3.472003E-1,-1.7826691E-2,1.1934216E-2],"categories":[],"categories_nodes":[],"categories_segments":[],"categories_sizes":[],"default_left":[0,0,0],"id":62,"left_children":[1,-1,-1],"loss_changes":[4.5760498E2,0E0,0E0],"parents":[2147483647,0,0],"right_children":[2,-1,-1],"split_conditions":[5.2E1,-1.7826691E-2,1.1934216E-2],"split_indices":[2,0,0],"split_type":[0,0,0],"sum_hessian":[4.74E2,2.73E2,2.01E2],"tree_param":{"num_deleted":"0","num_feature":"6","num_nodes":"3","size_leaf_vector":"1"}},{"base_weights":[-4.0889537E-1,-1.701072E-2,1.2275853E-2],"categories":[],"categories_nodes":[],"categories_segments":[],"categories_sizes":[],"default_left":[0,0,0],"id":63,"left_children":[1,-1,-1],"loss_changes":[4.2366364E2,0E0,0E0],"parents":[2147483647,0,0],"right_children":[2,-1,-1],"split_conditions":[5.3E1,-1.701072E-2,1.2275853E-2],"split_indices":[3,0,0],"split_type":[0,0,0],"sum_hessian":[4.74E2,2.98E2,1.76E2],"tree_param":{"num_deleted":"0","num_feature":"6","num_nodes":"3","size_leaf_vector":"1"}},{"base_weights":[5.118688E-1,-5.8619063E-3,2.2005334E-2],"categories":[],"categories_nodes":[],"categories_segments":[],"categories_sizes":[],"default_left":[0,0,0],"id":64,"left_children":[1,-1,-1],"loss_changes":[4.1010944E2,0E0,0E0],"parents":[2147483647,0,0],"right_children":[2,-1,-1],"split_conditions":[6.7E1,-5.8619063E-3,2.2005334E-2],"split_indices":[4,0,0],"split_type":[0,0,0],"sum_hessian":[4.74E2,2.44E2,2.3E2],"tree_param":{"num_deleted":"0","num_feature":"6","num_nodes":"3","size_leaf_vector":"1"}},{"base_weights":[-3.2302308E-1,-2.4661964E-2,7.3297494E-3],"categories":[],"categories_nodes":[],"categories_segments":[],"categories_sizes":[],"default_left":[0,0,0],"id":65,"left_children":[1,-1,-1],"loss_changes":[5.101496E2,0E0,0E0],"parents":[2147483647,0,0],"right_children":[2,-1,-1],"split_conditions":[4.1E1,-2.4661964E-2,7.3297494E-3],"split_indices":[5,0,0],"split_type":[0,0,0],"sum_hessian":[4.74E2,1.8E2,2.94E2],"tree_param":{"num_deleted":"0","num_feature":"6","num_nodes":"3","size_leaf_vector":"1"}},{"base_weights":[-1.1638301E-1,-2.001085E-2,1.1610732E-2],"categories":[],"categories_nodes":[],"categories_segments":[],"categories_sizes":[],"default_left":[0,0,0],"id":66,"left_children":[1,-1,-1],"loss_changes":[5.160539E2,0E0,0E0],"parents":[2147483647,0,0],"right_children":[2,-1,-1],"split_conditions":[4.8E1,-2.001085E-2,1.1610732E-2],"split_indices":[0,0,0],"split_type":[0,0,0],"sum_hessian":[4.74E2,2E2,2.74E2],"tree_param":{"num_deleted":"0","num_feature":"6","num_nodes":"3","size_leaf_vector":"1"}},{"base_weights":[6.7522717E-1,-8.035699E-3,2.0560281E-2],"categories":[],"categories_nodes":[],"categories_segments":[],"categories_sizes":[],"default_left":[0,0,0],"id":67,"left_children":[1,-1,-1],"loss_changes":[4.0075958E2,0E0,0E0],"parents":[2147483647,0,0],"right_children":[2,-1,-1],"split_conditions":[5.8E1,-8.035699E-3,2.0560281E-2],"split_indices":[1,0,0],"split_type":[0,0,0],"sum_hessian":[4.74E2,1.73E2,3.01E2],"tree_param":{"num_deleted":"0","num_feature":"6","num_nodes":"3","size_leaf_vector":"1"}},{"base_weights":[-3.420047E-1,-2.020274E-2,8.864955E-3],"categories":[],"categories_nodes":[],"categories_segments":[],"categories_sizes":[],"default_left":[0,0,0],"id":68,"left_children":[1,-1,-1],"loss_changes":[4.4611884E2,0E0,0E0],"parents":[2147483647,0,0],"right_children":[2,-1,-1],"split_conditions":[4.5E1,-2.020274E-2,8.864955E-3],"split_indices":[2,0,0],"split_type":[0,0,0],"sum_hessian":[4.74E2,2.28E2,2.46E2],"tree_param":{"num_deleted":"0","num_feature":"6","num_nodes":"3","size_leaf_vector":"1"}},{"base_weights":[-4.0277198E-1,-2.5982868E-2,3.7917239E-3],"categories":[],"categories_nodes":[],"categories_segments":[],"categories_sizes":[],"default_left":[0,0,0],"id":69,"left_children":[1,-1,-1],"loss_changes":[4.1440295E2,0E0,0E0],"parents":[2147483647,0,0],"right_children":[2,-1,-1],"split_conditions":[3.1E1,-2.5982868E-2,3.7917239E-3],"split_indices":[3,0,0],"split_type":[0,0,0],"sum_hessian":[4.74E2,1.56E2,3.18E2],"tree_param":{"num_deleted":"0","num_feature":"6","num_nodes":"3","size_leaf_vector":"1"}},{"base_weights":[5.042248E-1,-1.4700613E-2,1.6084542E-2],"categories":[],"categories_nodes":[],"categories_segments":[],"categories_sizes":[],"default_left":[0,0,0],"id":70,"left_children":[1,-1,-1],"loss_changes":[4.015608E2,0E0,0E0],"parents":[2147483647,0,0],"right_children":[2,-1,-1],"split_conditions":[5E1,-1.4700613E-2,1.6084542E-2],"split_indices":[4,0,0],"split_type":[0,0,0],"sum_hessian":[4.74E2,1.31E2,3.43E2],"tree_param":{"num_deleted":"0","num_feature":"6","num_nodes":"3","size_leaf_vector":"1"}},{"base_weights":[-3.1821418E-1,-1.8534536E-2,1.2386045E-2],"categories":[],"categories_nodes":[],"categories_segments":[],"categories_sizes":[],"default_left":[0,0,0],"id":71,"left_children":[1,-1,-1],"loss_changes":[4.995257E2,0E0,0E0],"parents":[2147483647,0,0],"right_children":[2,-1,-1],"split_conditions":[5.6E1,-1.8534536E-2,1.2386045E-2],"split_indices":[5,0,0],"split_type":[0,0,0],"sum_hessian":[4.74E2,2.63E2,2.11E2],"tree_param":{"num_deleted":"0","num_feature":"6","num_nodes":"3","size_leaf_vector":"1"}},{"base_weights":[-1.14654906E-1,-1.5100602E-2,1.5977304E-2],"categories":[],"categories_nodes":[],"categories_segments":[],"categories_sizes":[],"default_left":[0,0,0],"id":72,"left_children":[1,-1,-1],"loss_changes":[5.0098627E2,0E0,0E0],"parents":[2147483647,0,0],"right_children":[2,-1,-1],"split_conditions":[6.1E1,-1.5100602E-2,1.5977304E-2],"split_indices":[0,0,0],"split_type":[0,0,0],"sum_hessian":[4.74E2,2.7E2,2.04E2],"tree_param":{"num_deleted":"0","num_feature":"6","num_nodes":"3","size_leaf_vector":"1"}},{"base_weights":[6.651251E-1,-2.1931424E-3,2.5214212E-2],"categories":[],"categories_nodes":[],"categories_segments":[],"categories_sizes":[],"default_left":[0,0,0],"id":73,"left_children":[1,-1,-1],"loss_changes":[3.9172742E2,0E0,0E0],"parents":[2147483647,0,0],"right_children":[2,-1,-1],"split_conditions":[7.5E1,-2.1931424E-3,2.5214212E-2],"split_indices":[1,0,0],"split_type":[0,0,0],"sum_hessian":[4.74E2,2.64E2,2.1E2],"tree_param":{"num_deleted":"0","num_feature":"6","num_nodes":"3","size_leaf_vector":"1"}},{"base_weights":[-3.3689848E-1,-1.5926644E-2,1.38473855E-2],"categories":[],"categories_nodes":[],"categories_segments":[],"categories_sizes":[],"default_left":[0,0,0],"id":74,"left_children":[1,-1,-1],"loss_changes":[4.3483936E2,0E0,0E0],"parents":[2147483647,0,0],"right_children":[2,-1,-1],"split_conditions":[5.7E1,-1.5926644E-2,1.38473855E-2],"split_indices":[2,0,0],"split_type":[0,0,0],"sum_hessian":[4.74E2,3.01E2,1.73E2],"tree_param":{"num_deleted":"0","num_feature":"6","num_nodes":"3","size_leaf_vector":"1"}},{"base_weights":[-3.9677718E-1,-1.6580082E-2,1.2036199E-2],"categories":[],"categories_nodes":[],"categories_segments":[],"categories_sizes":[],"default_left":[0,0,0],"id":75,"left_children":[1,-1,-1],"loss_changes":[4.0449463E2,0E0,0E0],"parents":[2147483647,0,0],"right_children":[2,-1,-1],"split_conditions":[5.3E1,-1.6580082E-2,1.2036199E-2],"split_indices":[3,0,0],"split_type":[0,0,0],"sum_hessian":[4.74E2,2.98E2,1.76E2],"tree_param":{"num_deleted":"0","num_feature":"6","num_nodes":"3","size_leaf_vector":"1"}},{"base_weights":[4.966644E-1,-1.6093015E-3,2.8078709E-2],"categories":[],"categories_nodes":[],"categories_segments":[],"categories_sizes":[],"default_left":[0,0,0],"id":76,"left_children":[1,-1,-1],"loss_changes":[3.9472803E2,0E0,0E0],"parents":[2147483647,0,0],"right_children":[2,-1,-1],"split_conditions":[8.4E1,-1.6093015E-3,2.8078709E-2],"split_indices":[4,0,0],"split_type":[0,0,0],"sum_hessian":[4.74E2,3.3E2,1.44E2],"tree_param":{"num_deleted":"0","num_feature":"6","num_nodes":"3","size_leaf_vector":"1"}},{"base_weights":[-3.13454E-1,-1.8257573E-2,1.220113E-2],"categories":[],"categories_nodes":[],"categories_segments":[],"categories_sizes":[],"default_left":[0,0,0],"id":77,"left_children":[1,-1,-1],"loss_changes":[4.8471378E2,0E0,0E0],"parents":[2147483647,0,0],"right_children":[2,-1,-1],"split_conditions":[5.6E1,-1.8257573E-2,1.220113E-2],"split_indices":[5,0,0],"split_type":[0,0,0],"sum_hessian":[4.74E2,2.63E2,2.11E2],"tree_param":{"num_deleted":"0","num_feature":"6","num_nodes":"3","size_leaf_vector":"1"}},{"base_weights":[-1.1293321E-1,-1.9486794E-2,1.1317077E-2],"categories":[],"categories_nodes":[],"categories_segments":[],"categories_sizes":[],"default_left":[0,0,0],"id":78,"left_children":[1,-1,-1],"loss_changes":[4.897096E2,0E0,0E0],"parents":[2147483647,0,0],"right_children":[2,-1,-1],"split_conditions":[4.8E1,-1.9486794E-2,1.1317077E-2],"split_indices":[0,0,0],"split_type":[0,0,0],"sum_hessian":[4.74E2,2E2,2.74E2],"tree_param":{"num_deleted":"0","num_feature":"6","num_nodes":"3","size_leaf_vector":"1"}},{"base_weights":[6.551967E-1,-7.883148E-3,1.9999815E-2],"categories":[],"categories_nodes":[],"categories_segments":[],"categories_sizes":[],"default_left":[0,0,0],"id":79,"left_children":[1,-1,-1],"loss_changes":[3.8102777E2,0E0,0E0],"parents":[2147483647,0,0],"right_children":[2,-1,-1],"split_conditions":[5.8E1,-7.883148E-3,1.9999815E-2],"split_indices":[1,0,0],"split_type":[0,0,0],"sum_hessian":[4.74E2,1.73E2,3.01E2],"tree_param":{"num_deleted":"0","num_feature":"6","num_nodes":"3","size_leaf_vector":"1"}},{"base_weights":[-3.318494E-1,-2.2121357E-2,6.7314305E-3],"categories":[],"categories_nodes":[],"categories_segments":[],"categories_sizes":[],"default_left":[0,0,0],"id":80,"left_children":[1,-1,-1],"loss_changes":[4.244411E2,0E0,0E0],"parents":[2147483647,0,0],"right_children":[2,-1,-1],"split_conditions":[4E1,-2.2121357E-2,6.7314305E-3],"split_indices":[2,0,0],"split_type":[0,0,0],"sum_hessian":[4.74E2,1.92E2,2.82E2],"tree_param":{"num_deleted":"0","num_feature":"6","num_nodes":"3","size_leaf_vector":"1"}},{"base_weights":[-3.9083502E-1,-2.534849E-2,3.7461233E-3],"categories":[],"categories_nodes":[],"categories_segments":[],"categories_sizes":[],"default_left":[0,0,0],"id":81,"left_children":[1,-1,-1],"loss_changes":[3.9569336E2,0E0,0E0],"parents":[2147483647,0,0],"right_children":[2,-1,-1],"split_conditions":[3.1E1,-2.534849E-2,3.7461233E-3],"split_indices":[3,0,0],"split_type":[0,0,0],"sum_hessian":[4.74E2,1.56E2,3.18E2],"tree_param":{"num_deleted":"0","num_feature":"6","num_nodes":"3","size_leaf_vector":"1"}},{"base_weights":[4.8927018E-1,-1.4457817E-2,1.5681634E-2],"categories":[],"categories_nodes":[],"categories_segments":[],"categories_sizes":[],"default_left":[0,0,0],"id":82,"left_children":[1,-1,-1],"loss_changes":[3.8489664E2,0E0,0E0],"parents":[2147483647,0,0],"right_children":[2,-1,-1],"split_conditions":[5E1,-1.4457817E-2,1.5681634E-2],"split_indices":[4,0,0],"split_type":[0,0,0],"sum_hessian":[4.74E2,1.31E2,3.43E2],"tree_param":{"num_deleted":"0","num_feature":"6","num_nodes":"3","size_leaf_vector":"1"}},{"base_weights":[-3.0876487E-1,-2.3745248E-2,7.1116607E-3],"categories":[],"categories_nodes":[],"categories_segments":[],"categories_sizes":[],"default_left":[0,0,0],"id":83,"left_children":[1,-1,-1],"loss_changes":[4.7460126E2,0E0,0E0],"parents":[2147483647,0,0],"right_children":[2,-1,-1],"split_conditions":[4.1E1,-2.3745248E-2,7.1116607E-3],"split_indices":[5,0,0],"split_type":[0,0,0],"sum_hessian":[4.74E2,1.8E2,2.94E2],"tree_param":{"num_deleted":"0","num_feature":"6","num_nodes":"3","size_leaf_vector":"1"}},{"base_weights":[-1.1125633E-1,-1.4703054E-2,1.5569885E-2],"categories":[],"categories_nodes":[],"categories_segments":[],"categories_sizes":[],"default_left":[0,0,0],"id":84,"left_children":[1,-1,-1],"loss_changes":[4.7536978E2,0E0,0E0],"parents":[2147483647,0,0],"right_children":[2,-1,-1],"split_conditions":[6.1E1,-1.4703054E-2,1.5569885E-2],"split_indices":[0,0,0],"split_type":[0,0,0],"sum_hessian":[4.74E2,2.7E2,2.04E2],"tree_param":{"num_deleted":"0","num_feature":"6","num_nodes":"3","size_leaf_vector":"1"}},{"base_weights":[6.453943E-1,-2.1861913E-3,2.453922E-2],"categories":[],"categories_nodes":[],"categories_segments":[],"categories_sizes":[],"default_left":[0,0,0],"id":85,"left_children":[1,-1,-1],"loss_changes":[3.7248022E2,0E0,0E0],"parents":[2147483647,0,0],"right_children":[2,-1,-1],"split_conditions":[7.5E1,-2.1861913E-3,2.453922E-2],"split_indices":[1,0,0],"split_type":[0,0,0],"sum_hessian":[4.74E2,2.64E2,2.1E2],"tree_param":{"num_deleted":"0","num_feature":"6","num_nodes":"3","size_leaf_vector":"1"}},{"base_weights":[-3.269041E-1,-1.5514022E-2,1.3540477E-2],"categories":[],"categories_nodes":[],"categories_segments":[],"categories_sizes":[],"default_left":[0,0,0],"id":86,"left_children":[1,-1,-1],"loss_changes":[4.1407748E2,0E0,0E0],"parents":[2147483647,0,0],"right_children":[2,-1,-1],"split_conditions":[5.7E1,-1.5514022E-2,1.3540477E-2],"split_indices":[2,0,0],"split_type":[0,0,0],"sum_hessian":[4.74E2,3.01E2,1.73E2],"tree_param":{"num_deleted":"0","num_feature":"6","num_nodes":"3","size_leaf_vector":"1"}},{"base_weights":[-3.8501793E-1,-1.6160518E-2,1.1800805E-2],"categories":[],"categories_nodes":[],"categories_segments":[],"categories_sizes":[],"default_left":[0,0,0],"id":87,"left_children":[1,-1,-1],"loss_changes":[3.8619275E2,0E0,0E0],"parents":[2147483647,0,0],"right_children":[2,-1,-1],"split_conditions":[5.3E1,-1.6160518E-2,1.1800805E-2],"split_indices":[3,0,0],"split_type":[0,0,0],"sum_hessian":[4.74E2,2.98E2,1.76E2],"tree_param":{"num_deleted":"0","num_feature":"6","num_nodes":"3","size_leaf_vector":"1"}},{"base_weights":[4.819336E-1,-1.6408256E-3,2.7426828E-2],"categories":[],"categories_nodes":[],"categories_segments":[],"categories_sizes":[],"default_left":[0,0,0],"id":88,"left_children":[1,-1,-1],"loss_changes":[3.7840823E2,0E0,0E0],"parents":[2147483647,0,0],"right_children":[2,-1,-1],"split_conditions":[8.4E1,-1.6408256E-3,2.7426828E-2],"split_indices":[4,0,0],"split_type":[0,0,0],"sum_hessian":[4.74E2,3.3E2,1.44E2],"tree_param":{"num_deleted":"0","num_feature":"6","num_nodes":"3","size_leaf_vector":"1"}},{"base_weights":[-3.0416834E-1,-2.3391034E-2,7.005349E-3],"categories":[],"categories_nodes":[],"categories_segments":[],"categories_sizes":[],"default_left":[0,0,0],"id":89,"left_children":[1,-1,-1],"loss_changes":[4.605406E2,0E0,0E0],"parents":[2147483647,0,0],"right_children":[2,-1,-1],"split_conditions":[4.1E1,-2.3391034E-2,7.005349E-3],"split_indices":[5,0,0],"split_type":[0,0,0],"sum_hessian":[4.74E2,1.8E2,2.94E2],"tree_param":{"num_deleted":"0","num_feature":"6","num_nodes":"3","size_leaf_vector":"1"}},{"base_weights":[-1.0958569E-1,-1.8976497E-2,1.1030828E-2],"categories":[],"categories_nodes":[],"categories_segments":[],"categories_sizes":[],"default_left":[0,0,0],"id":90,"left_children":[1,-1,-1],"loss_changes":[4.6471063E2,0E0,0E0],"parents":[2147483647,0,0],"right_children":[2,-1,-1],"split_conditions":[4.8E1,-1.8976497E-2,1.1030828E-2],"split_indices":[0,0,0],"split_type":[0,0,0],"sum_hessian":[4.74E2,2E2,2.74E2],"tree_param":{"num_deleted":"0","num_feature":"6","num_nodes":"3","size_leaf_vector":"1"}},{"base_weights":[6.357605E-1,-7.7329758E-3,1.945474E-2],"categories":[],"categories_nodes":[],"categories_segments":[],"categories_sizes":[],"default_left":[0,0,0],"id":91,"left_children":[1,-1,-1],"loss_changes":[3.622671E2,0E0,0E0],"parents":[2147483647,0,0],"right_children":[2,-1,-1],"split_conditions":[5.8E1,-7.7329758E-3,1.945474E-2],"split_indices":[1,0,0],"split_type":[0,0,0],"sum_hessian":[4.74E2,1.73E2,3.01E2],"tree_param":{"num_deleted":"0","num_feature":"6","num_nodes":"3","size_leaf_vector":"1"}},{"base_weights":[-3.2200462E-1,-2.1559747E-2,6.596285E-3],"categories":[],"categories_nodes":[],"categories_segments":[],"categories_sizes":[],"default_left":[0,0,0],"id":92,"left_children":[1,-1,-1],"loss_changes":[4.041905E2,0E0,0E0],"parents":[2147483647,0,0],"right_children":[2,-1,-1],"split_conditions":[4E1,-2.1559747E-2,6.596285E-3],"split_indices":[2,0,0],"split_type":[0,0,0],"sum_hessian":[4.74E2,1.92E2,2.82E2],"tree_param":{"num_deleted":"0","num_feature":"6","num_nodes":"3","size_leaf_vector":"1"}},{"base_weights":[-3.7925184E-1,-2.5386319E-2,3.3919585E-3],"categories":[],"categories_nodes":[],"categories_segments":[],"categories_sizes":[],"default_left":[0,0,0],"id":93,"left_children":[1,-1,-1],"loss_changes":[3.7799332E2,0E0,0E0],"parents":[2147483647,0,0],"right_children":[2,-1,-1],"split_conditions":[3E1,-2.5386319E-2,3.3919585E-3],"split_indices":[3,0,0],"split_type":[0,0,0],"sum_hessian":[4.74E2,1.49E2,3.25E2],"tree_param":{"num_deleted":"0","num_feature":"6","num_nodes":"3","size_leaf_vector":"1"}},{"base_weights":[4.7475886E-1,-1.4218169E-2,1.5289113E-2],"categories":[],"categories_nodes":[],"categories_segments":[],"categories_sizes":[],"default_left":[0,0,0],"id":94,"left_children":[1,-1,-1],"loss_changes":[3.6892383E2,0E0,0E0],"parents":[2147483647,0,0],"right_children":[2,-1,-1],"split_conditions":[5E1,-1.4218169E-2,1.5289113E-2],"split_indices":[4,0,0],"split_type":[0,0,0],"sum_hessian":[4.74E2,1.31E2,3.43E2],"tree_param":{"num_deleted":"0","num_feature":"6","num_nodes":"3","size_leaf_vector":"1"}},{"base_weights":[-2.996404E-1,-1.7569244E-2,1.1808222E-2],"categories":[],"categories_nodes":[],"categories_segments":[],"categories_sizes":[],"default_left":[0,0,0],"id":95,"left_children":[1,-1,-1],"loss_changes":[4.5091296E2,0E0,0E0],"parents":[2147483647,0,0],"right_children":[2,-1,-1],"split_conditions":[5.6E1,-1.7569244E-2,1.1808222E-2],"split_indices":[5,0,0],"split_type":[0,0,0],"sum_hessian":[4.74E2,2.63E2,2.11E2],"tree_param":{"num_deleted":"0","num_feature":"6","num_nodes":"3","size_leaf_vector":"1"}},{"base_weights":[-1.079587E-1,-1.4315991E-2,1.5172818E-2],"categories":[],"categories_nodes":[],"categories_segments":[],"categories_sizes":[],"default_left":[0,0,0],"id":96,"left_children":[1,-1,-1],"loss_changes":[4.5106274E2,0E0,0E0],"parents":[2147483647,0,0],"right_children":[2,-1,-1],"split_conditions":[6.1E1,-1.4315991E-2,1.5172818E-2],"split_indices":[0,0,0],"split_type":[0,0,0],"sum_hessian":[4.74E2,2.7E2,2.04E2],"tree_param":{"num_deleted":"0","num_feature":"6","num_nodes":"3","size_leaf_vector":"1"}},{"base_weights":[6.262488E-1,-2.1780068E-3,2.3882437E-2],"categories":[],"categories_nodes":[],"categories_segments":[],"categories_sizes":[],"default_left":[0,0,0],"id":97,"left_children":[1,-1,-1],"loss_changes":[3.5417902E2,0E0,0E0],"parents":[2147483647,0,0],"right_children":[2,-1,-1],"split_conditions":[7.5E1,-2.1780068E-3,2.3882437E-2],"split_indices":[1,0,0],"split_type":[0,0,0],"sum_hessian":[4.74E2,2.64E2,2.1E2],"tree_param":{"num_deleted":"0","num_feature":"6","num_nodes":"3","size_leaf_vector":"1"}},{"base_weights":[-3.1720608E-1,-1.511219E-2,1.32401595E-2],"categories":[],"categories_nodes":[],"categories_segments":[],"categories_sizes":[],"default_left":[0,0,0],"id":98,"left_children":[1,-1,-1],"loss_changes":[3.9430676E2,0E0,0E0],"parents":[2147483647,0,0],"right_children":[2,-1,-1],"split_conditions":[5.7E1,-1.511219E-2,1.32401595E-2],"split_indices":[2,0,0],"split_type":[0,0,0],"sum_hessian":[4.74E2,3.01E2,1.73E2],"tree_param":{"num_deleted":"0","num_feature":"6","num_nodes":"3","size_leaf_vector":"1"}},{"base_weights":[-3.736094E-1,-1.7531553E-2,9.024766E-3],"categories":[],"categories_nodes":[],"categories_segments":[],"categories_sizes":[],"default_left":[0,0,0],"id":99,"left_children":[1,-1,-1],"loss_changes":[3.690604E2,0E0,0E0],"parents":[2147483647,0,0],"right_children":[2,-1,-1],"split_conditions":[4.7E1,-1.7531553E-2,9.024766E-3],"split_indices":[3,0,0],"split_type":[0,0,0],"sum_hessian":[4.74E2,2.61E2,2.13E2],"tree_param":{"num_deleted":"0","num_feature":"6","num_nodes":"3","size_leaf_vector":"1"}},{"base_weights":[4.6763977E-1,-1.6697603E-3,2.6790509E-2],"categories":[],"categories_nodes":[],"categories_segments":[],"categories_sizes":[],"default_left":[0,0,0],"id":100,"left_children":[1,-1,-1],"loss_changes":[3.627633E2,0E0,0E0],"parents":[2147483647,0,0],"right_children":[2,-1,-1],"split_conditions":[8.4E1,-1.6697603E-3,2.6790509E-2],"split_indices":[4,0,0],"split_type":[0,0,0],"sum_hessian":[4.74E2,3.3E2,1.44E2],"tree_param":{"num_deleted":"0","num_feature":"6","num_nodes":"3","size_leaf_vector":"1"}},{"base_weights":[-2.9515785E-1,-1.6931105E-2,1.2123562E-2],"categories":[],"categories_nodes":[],"categories_segments":[],"categories_sizes":[],"default_left":[0,0,0],"id":101,"left_children":[1,-1,-1],"loss_changes":[4.378036E2,0E0,0E0],"parents":[2147483647,0,0],"right_children":[2,-1,-1],"split_conditions":[5.7E1,-1.6931105E-2,1.2123562E-2],"split_indices":[5,0,0],"split_type":[0,0,0],"sum_hessian":[4.74E2,2.7E2,2.04E2],"tree_param":{"num_deleted":"0","num_feature":"6","num_nodes":"3","size_leaf_vector":"1"}},{"base_weights":[-1.0633742E-1,-1.8479591E-2,1.0751797E-2],"categories":[],"categories_nodes":[],"categories_segments":[],"categories_sizes":[],"default_left":[0,0,0],"id":102,"left_children":[1,-1,-1],"loss_changes":[4.409883E2,0E0,0E0],"parents":[2147483647,0,0],"right_children":[2,-1,-1],"split_conditions":[4.8E1,-1.8479591E-2,1.0751797E-2],"split_indices":[0,0,0],"split_type":[0,0,0],"sum_hessian":[4.74E2,2E2,2.74E2],"tree_param":{"num_deleted":"0","num_feature":"6","num_nodes":"3","size_leaf_vector":"1"}},{"base_weights":[6.169007E-1,-7.585167E-3,1.8924624E-2],"categories":[],"categories_nodes":[],"categories_segments":[],"categories_sizes":[],"default_left":[0,0,0],"id":103,"left_children":[1,-1,-1],"loss_changes":[3.444299E2,0E0,0E0],"parents":[2147483647,0,0],"right_children":[2,-1,-1],"split_conditions":[5.8E1,-7.585167E-3,1.8924624E-2],"split_indices":[1,0,0],"split_type":[0,0,0],"sum_hessian":[4.74E2,1.73E2,3.01E2],"tree_param":{"num_deleted":"0","num_feature":"6","num_nodes":"3","size_leaf_vector":"1"}},{"base_weights":[-3.1245193E-1,-1.8687855E-2,8.312951E-3],"categories":[],"categories_nodes":[],"categories_segments":[],"categories_sizes":[],"default_left":[0,0,0],"id":104,"left_children":[1,-1,-1],"loss_changes":[3.849342E2,0E0,0E0],"parents":[2147483647,0,0],"right_children":[2,-1,-1],"split_conditions":[4.5E1,-1.8687855E-2,8.312951E-3],"split_indices":[2,0,0],"split_type":[0,0,0],"sum_hessian":[4.74E2,2.28E2,2.46E2],"tree_param":{"num_deleted":"0","num_feature":"6","num_nodes":"3","size_leaf_vector":"1"}},{"base_weights":[-3.6802316E-1,-2.474684E-2,3.3431328E-3],"categories":[],"categories_nodes":[],"categories_segments":[],"categories_sizes":[],"default_left":[0,0,0],"id":105,"left_children":[1,-1,-1],"loss_changes":[3.6012985E2,0E0,0E0],"parents":[2147483647,0,0],"right_children":[2,-1,-1],"split_conditions":[3E1,-2.474684E-2,3.3431328E-3],"split_indices":[3,0,0],"split_type":[0,0,0],"sum_hessian":[4.74E2,1.49E2,3.25E2],"tree_param":{"num_deleted":"0","num_feature":"6","num_nodes":"3","size_leaf_vector":"1"}},{"base_weights":[4.6067795E-1,-5.678489E-3,2.0231862E-2],"categories":[],"categories_nodes":[],"categories_segments":[],"categories_sizes":[],"default_left":[0,0,0],"id":106,"left_children":[1,-1,-1],"loss_changes":[3.5454865E2,0E0,0E0],"parents":[2147483647,0,0],"right_children":[2,-1,-1],"split_conditions":[6.7E1,-5.678489E-3,2.0231862E-2],"split_indices":[4,0,0],"split_type":[0,0,0],"sum_hessian":[4.74E2,2.44E2,2.3E2],"tree_param":{"num_deleted":"0","num_feature":"6","num_nodes":"3","size_leaf_vector":"1"}},{"base_weights":[-2.9074064E-1,-2.2527462E-2,6.7998087E-3],"categories":[],"categories_nodes":[],"categories_segments":[],"categories_sizes":[],"default_left":[0,0,0],"id":107,"left_children":[1,-1,-1],"loss_changes":[4.287153E2,0E0,0E0],"parents":[2147483647,0,0],"right_children":[2,-1,-1],"split_conditions":[4.1E1,-2.2527462E-2,6.7998087E-3],"split_indices":[5,0,0],"split_type":[0,0,0],"sum_hessian":[4.74E2,1.8E2,2.94E2],"tree_param":{"num_deleted":"0","num_feature":"6","num_nodes":"3","size_leaf_vector":"1"}},{"base_weights":[-1.0475859E-1,-1.7783621E-2,1.0910055E-2],"categories":[],"categories_nodes":[],"categories_segments":[],"categories_sizes":[],"default_left":[0,0,0],"id":108,"left_children":[1,-1,-1],"loss_changes":[4.2804993E2,0E0,0E0],"parents":[2147483647,0,0],"right_children":[2,-1,-1],"split_conditions":[5E1,-1.7783621E-2,1.0910055E-2],"split_indices":[0,0,0],"split_type":[0,0,0],"sum_hessian":[4.74E2,2.06E2,2.68E2],"tree_param":{"num_deleted":"0","num_feature":"6","num_nodes":"3","size_leaf_vector":"1"}},{"base_weights":[6.0767096E-1,-2.4108447E-3,2.2946645E-2],"categories":[],"categories_nodes":[],"categories_segments":[],"categories_sizes":[],"default_left":[0,0,0],"id":109,"left_children":[1,-1,-1],"loss_changes":[3.368025E2,0E0,0E0],"parents":[2147483647,0,0],"right_children":[2,-1,-1],"split_conditions":[7.4E1,-2.4108447E-3,2.2946645E-2],"split_indices":[1,0,0],"split_type":[0,0,0],"sum_hessian":[4.74E2,2.59E2,2.15E2],"tree_param":{"num_deleted":"0","num_feature":"6","num_nodes":"3","size_leaf_vector":"1"}},{"base_weights":[-3.0778694E-1,-2.0733654E-2,6.3908594E-3],"categories":[],"categories_nodes":[],"categories_segments":[],"categories_sizes":[],"default_left":[0,0,0],"id":110,"left_children":[1,-1,-1],"loss_changes":[3.7511874E2,0E0,0E0],"parents":[2147483647,0,0],"right_children":[2,-1,-1],"split_conditions":[4E1,-2.0733654E-2,6.3908594E-3],"split_indices":[2,0,0],"split_type":[0,0,0],"sum_hessian":[4.74E2,1.92E2,2.82E2],"tree_param":{"num_deleted":"0","num_feature":"6","num_nodes":"3","size_leaf_vector":"1"}},{"base_weights":[-3.6254784E-1,-1.4939465E-2,1.21745E-2],"categories":[],"categories_nodes":[],"categories_segments":[],"categories_sizes":[],"default_left":[0,0,0],"id":111,"left_children":[1,-1,-1],"loss_changes":[3.540876E2,0E0,0E0],"parents":[2147483647,0,0],"right_children":[2,-1,-1],"split_conditions":[5.6E1,-1.4939465E-2,1.21745E-2],"split_indices":[3,0,0],"split_type":[0,0,0],"sum_hessian":[4.74E2,3.08E2,1.66E2],"tree_param":{"num_deleted":"0","num_feature":"6","num_nodes":"3","size_leaf_vector":"1"}},{"base_weights":[4.5379832E-1,-1.38971275E-2,1.4731784E-2],"categories":[],"categories_nodes":[],"categories_segments":[],"categories_sizes":[],"default_left":[0,0,0],"id":112,"left_children":[1,-1,-1],"loss_changes":[3.4729272E2,0E0,0E0],"parents":[2147483647,0,0],"right_children":[2,-1,-1],"split_conditions":[5E1,-1.38971275E-2,1.4731784E-2],"split_indices":[4,0,0],"split_type":[0,0,0],"sum_hessian":[4.74E2,1.31E2,3.43E2],"tree_param":{"num_deleted":"0","num_feature":"6","num_nodes":"3","size_leaf_vector":"1"}},{"base_weights":[-2.8641257E-1,-1.5783608E-2,1.2867218E-2],"categories":[],"categories_nodes":[],"categories_segments":[],"categories_sizes":[],"default_left":[0,0,0],"id":113,"left_children":[1,-1,-1],"loss_changes":[4.1713617E2,0E0,0E0],"parents":[2147483647,0,0],"right_children":[2,-1,-1],"split_conditions":[5.9E1,-1.5783608E-2,1.2867218E-2],"split_indices":[5,0,0],"split_type":[0,0,0],"sum_hessian":[4.74E2,2.84E2,1.9E2],"tree_param":{"num_deleted":"0","num_feature":"6","num_nodes":"3","size_leaf_vector":"1"}},{"base_weights":[-1.0320166E-1,-1.3775003E-2,1.4622997E-2],"categories":[],"categories_nodes":[],"categories_segments":[],"categories_sizes":[],"default_left":[0,0,0],"id":114,"left_children":[1,-1,-1],"loss_changes":[4.1830994E2,0E0,0E0],"parents":[2147483647,0,0],"right_children":[2,-1,-1],"split_conditions":[6.1E1,-1.3775003E-2,1.4622997E-2],"split_indices":[0,0,0],"split_type":[0,0,0],"sum_hessian":[4.74E2,2.7E2,2.04E2],"tree_param":{"num_deleted":"0","num_feature":"6","num_nodes":"3","size_leaf_vector":"1"}},{"base_weights":[5.985992E-1,-6.3104127E-3,1.9104887E-2],"categories":[],"categories_nodes":[],"categories_segments":[],"categories_sizes":[],"default_left":[0,0,0],"id":115,"left_children":[1,-1,-1],"loss_changes":[3.273758E2,0E0,0E0],"parents":[2147483647,0,0],"right_children":[2,-1,-1],"split_conditions":[6.2E1,-6.3104127E-3,1.9104887E-2],"split_indices":[1,0,0],"split_type":[0,0,0],"sum_hessian":[4.74E2,1.89E2,2.85E2],"tree_param":{"num_deleted":"0","num_feature":"6","num_nodes":"3","size_leaf_vector":"1"}},{"base_weights":[-3.0320033E-1,-1.4541642E-2,1.2823411E-2],"categories":[],"categories_nodes":[],"categories_segments":[],"categories_sizes":[],"default_left":[0,0,0],"id":116,"left_children":[1,-1,-1],"loss_changes":[3.6732532E2,0E0,0E0],"parents":[2147483647,0,0],"right_children":[2,-1,-1],"split_conditions":[5.7E1,-1.4541642E-2,1.2823411E-2],"split_indices":[2,0,0],"split_type":[0,0,0],"sum_hessian":[4.74E2,3.01E2,1.73E2],"tree_param":{"num_deleted":"0","num_feature":"6","num_nodes":"3","size_leaf_vector":"1"}},{"base_weights":[-3.5711542E-1,-2.353668E-2,3.6075597E-3],"categories":[],"categories_nodes":[],"categories_segments":[],"categories_sizes":[],"default_left":[0,0,0],"id":117,"left_children":[1,-1,-1],"loss_changes":[3.444259E2,0E0,0E0],"parents":[2147483647,0,0],"right_children":[2,-1,-1],"split_conditions":[3.1E1,-2.353668E-2,3.6075597E-3],"split_indices":[3,0,0],"split_type":[0,0,0],"sum_hessian":[4.74E2,1.56E2,3.18E2],"tree_param":{"num_deleted":"0","num_feature":"6","num_nodes":"3","size_leaf_vector":"1"}},{"base_weights":[4.4699305E-1,-1.7112051E-3,2.5870582E-2],"categories":[],"categories_nodes":[],"categories_segments":[],"categories_sizes":[],"default_left":[0,0,0],"id":118,"left_children":[1,-1,-1],"loss_changes":[3.4071973E2,0E0,0E0],"parents":[2147483647,0,0],"right_children":[2,-1,-1],"split_conditions":[8.4E1,-1.7112051E-3,2.5870582E-2],"split_indices":[4,0,0],"split_type":[0,0,0],"sum_hessian":[4.74E2,3.3E2,1.44E2],"tree_param":{"num_deleted":"0","num_feature":"6","num_nodes":"3","size_leaf_vector":"1"}},{"base_weights":[-2.8212255E-1,-2.4245882E-2,5.445447E-3],"categories":[],"categories_nodes":[],"categories_segments":[],"categories_sizes":[],"default_left":[0,0,0],"id":119,"left_children":[1,-1,-1],"loss_changes":[4.094702E2,0E0,0E0],"parents":[2147483647,0,0],"right_children":[2,-1,-1],"split_conditions":[3.6E1,-2.4245882E-2,5.445447E-3],"split_indices":[5,0,0],"split_type":[0,0,0],"sum_hessian":[4.74E2,1.54E2,3.2E2],"tree_param":{"num_deleted":"0","num_feature":"6","num_nodes":"3","size_leaf_vector":"1"}},{"base_weights":[-1.0165176E-1,-1.7732752E-2,1.0327324E-2],"categories":[],"categories_nodes":[],"categories_segments":[],"categories_sizes":[],"default_left":[0,0,0],"id":120,"left_children":[1,-1,-1],"loss_changes":[4.0635535E2,0E0,0E0],"parents":[2147483647,0,0],"right_children":[2,-1,-1],"split_conditions":[4.8E1,-1.7732752E-2,1.0327324E-2],"split_indices":[0,0,0],"split_type":[0,0,0],"sum_hessian":[4.74E2,2E2,2.74E2],"tree_param":{"num_deleted":"0","num_feature":"6","num_nodes":"3","size_leaf_vector":"1"}},{"base_weights":[5.896471E-1,-2.1534106E-3,2.2615591E-2],"categories":[],"categories_nodes":[],"categories_segments":[],"categories_sizes":[],"default_left":[0,0,0],"id":121,"left_children":[1,-1,-1],"loss_changes":[3.1995227E2,0E0,0E0],"parents":[2147483647,0,0],"right_children":[2,-1,-1],"split_conditions":[7.5E1,-2.1534106E-3,2.2615591E-2],"split_indices":[1,0,0],"split_type":[0,0,0],"sum_hessian":[4.74E2,2.64E2,2.1E2],"tree_param":{"num_deleted":"0","num_feature":"6","num_nodes":"3","size_leaf_vector":"1"}},{"base_weights":[-2.9865593E-1,-2.0207267E-2,6.2617636E-3],"categories":[],"categories_nodes":[],"categories_segments":[],"categories_sizes":[],"default_left":[0,0,0],"id":122,"left_children":[1,-1,-1],"loss_changes":[3.572088E2,0E0,0E0],"parents":[2147483647,0,0],"right_children":[2,-1,-1],"split_conditions":[4E1,-2.0207267E-2,6.2617636E-3],"split_indices":[2,0,0],"split_type":[0,0,0],"sum_hessian":[4.74E2,1.92E2,2.82E2],"tree_param":{"num_deleted":"0","num_feature":"6","num_nodes":"3","size_leaf_vector":"1"}},{"base_weights":[-3.5180062E-1,-1.4999879E-2,1.11773135E-2],"categories":[],"categories_nodes":[],"categories_segments":[],"categories_sizes":[],"default_left":[0,0,0],"id":123,"left_children":[1,-1,-1],"loss_changes":[3.3848755E2,0E0,0E0],"parents":[2147483647,0,0],"right_children":[2,-1,-1],"split_conditions":[5.3E1,-1.4999879E-2,1.11773135E-2],"split_indices":[3,0,0],"split_type":[0,0,0],"sum_hessian":[4.74E2,2.98E2,1.76E2],"tree_param":{"num_deleted":"0","num_feature":"6","num_nodes":"3","size_leaf_vector":"1"}},{"base_weights":[4.4033897E-1,-1.3664776E-2,1.4363853E-2],"categories":[],"categories_nodes":[],"categories_segments":[],"categories_sizes":[],"default_left":[0,0,0],"id":124,"left_children":[1,-1,-1],"loss_changes":[3.3288504E2,0E0,0E0],"parents":[2147483647,0,0],"right_children":[2,-1,-1],"split_conditions":[5E1,-1.3664776E-2,1.4363853E-2],"split_indices":[4,0,0],"split_type":[0,0,0],"sum_hessian":[4.74E2,1.31E2,3.43E2],"tree_param":{"num_deleted":"0","num_feature":"6","num_nodes":"3","size_leaf_vector":"1"}},{"base_weights":[-2.779303E-1,-1.5243596E-2,1.281863E-2],"categories":[],"categories_nodes":[],"categories_segments":[],"categories_sizes":[],"default_left":[0,0,0],"id":125,"left_children":[1,-1,-1],"loss_changes":[3.9803476E2,0E0,0E0],"parents":[2147483647,0,0],"right_children":[2,-1,-1],"split_conditions":[6E1,-1.5243596E-2,1.281863E-2],"split_indices":[5,0,0],"split_type":[0,0,0],"sum_hessian":[4.74E2,2.87E2,1.87E2],"tree_param":{"num_deleted":"0","num_feature":"6","num_nodes":"3","size_leaf_vector":"1"}},{"base_weights":[-1.0014254E-1,-1.1390097E-2,1.7494386E-2],"categories":[],"categories_nodes":[],"categories_segments":[],"categories_sizes":[],"default_left":[0,0,0],"id":126,"left_children":[1,-1,-1],"loss_changes":[3.974301E2,0E0,0E0],"parents":[2147483647,0,0],"right_children":[2,-1,-1],"split_conditions":[6.9E1,-1.1390097E-2,1.7494386E-2],"split_indices":[0,0,0],"split_type":[0,0,0],"sum_hessian":[4.74E2,3.12E2,1.62E2],"tree_param":{"num_deleted":"0","num_feature":"6","num_nodes":"3","size_leaf_vector":"1"}},{"base_weights":[5.808454E-1,-7.3098615E-3,1.7915362E-2],"categories":[],"categories_nodes":[],"categories_segments":[],"categories_sizes":[],"default_left":[0,0,0],"id":127,"left_children":[1,-1,-1],"loss_changes":[3.1186615E2,0E0,0E0],"parents":[2147483647,0,0],"right_children":[2,-1,-1],"split_conditions":[5.8E1,-7.3098615E-3,1.7915362E-2],"split_indices":[1,0,0],"split_type":[0,0,0],"sum_hessian":[4.74E2,1.73E2,3.01E2],"tree_param":{"num_deleted":"0","num_feature":"6","num_nodes":"3","size_leaf_vector":"1"}},{"base_weights":[-2.9420552E-1,-1.4165437E-2,1.2538779E-2],"categories":[],"categories_nodes":[],"categories_segments":[],"categories_sizes":[],"default_left":[0,0,0],"id":128,"left_children":[1,-1,-1],"loss_changes":[3.4979947E2,0E0,0E0],"parents":[2147483647,0,0],"right_children":[2,-1,-1],"split_conditions":[5.7E1,-1.4165437E-2,1.2538779E-2],"split_indices":[2,0,0],"split_type":[0,0,0],"sum_hessian":[4.74E2,3.01E2,1.73E2],"tree_param":{"num_deleted":"0","num_feature":"6","num_nodes":"3","size_leaf_vector":"1"}},{"base_weights":[-3.4653166E-1,-1.1746493E-2,1.856703E-2],"categories":[],"categories_nodes":[],"categories_segments":[],"categories_sizes":[],"default_left":[0,0,0],"id":129,"left_children":[1,-1,-1],"loss_changes":[3.2951224E2,0E0,0E0],"parents":[2147483647,0,0],"right_children":[2,-1,-1],"split_conditions":[7.1E1,-1.1746493E-2,1.856703E-2],"split_indices":[3,0,0],"split_type":[0,0,0],"sum_hessian":[4.74E2,3.72E2,1.02E2],"tree_param":{"num_deleted":"0","num_feature":"6","num_nodes":"3","size_leaf_vector":"1"}},{"base_weights":[4.337354E-1,-1.8571966E-3,2.4996791E-2],"categories":[],"categories_nodes":[],"categories_segments":[],"categories_sizes":[],"default_left":[0,0,0],"id":130,"left_children":[1,-1,-1],"loss_changes":[3.266737E2,0E0,0E0],"parents":[2147483647,0,0],"right_children":[2,-1,-1],"split_conditions":[8.3E1,-1.8571966E-3,2.4996791E-2],"split_indices":[4,0,0],"split_type":[0,0,0],"sum_hessian":[4.74E2,3.27E2,1.47E2],"tree_param":{"num_deleted":"0","num_feature":"6","num_nodes":"3","size_leaf_vector":"1"}},{"base_weights":[-2.7376646E-1,-2.3657361E-2,5.3467443E-3],"categories":[],"categories_nodes":[],"categories_segments":[],"categories_sizes":[],"default_left":[0,0,0],"id":131,"left_children":[1,-1,-1],"loss_changes":[3.9073572E2,0E0,0E0],"parents":[2147483647,0,0],"right_children":[2,-1,-1],"split_conditions":[3.6E1,-2.3657361E-2,5.3467443E-3],"split_indices":[5,0,0],"split_type":[0,0,0],"sum_hessian":[4.74E2,1.54E2,3.2E2],"tree_param":{"num_deleted":"0","num_feature":"6","num_nodes":"3","size_leaf_vector":"1"}},{"base_weights":[-9.862749E-2,-1.3242627E-2,1.4078199E-2],"categories":[],"categories_nodes":[],"categories_segments":[],"categories_sizes":[],"default_left":[0,0,0],"id":132,"left_children":[1,-1,-1],"loss_changes":[3.8717776E2,0E0,0E0],"parents":[2147483647,0,0],"right_children":[2,-1,-1],"split_conditions":[6.1E1,-1.3242627E-2,1.4078199E-2],"split_indices":[0,0,0],"split_type":[0,0,0],"sum_hessian":[4.74E2,2.7E2,2.04E2],"tree_param":{"num_deleted":"0","num_feature":"6","num_nodes":"3","size_leaf_vector":"1"}},{"base_weights":[5.721552E-1,-2.14193E-3,2.2010507E-2],"categories":[],"categories_nodes":[],"categories_segments":[],"categories_sizes":[],"default_left":[0,0,0],"id":133,"left_children":[1,-1,-1],"loss_changes":[3.0422485E2,0E0,0E0],"parents":[2147483647,0,0],"right_children":[2,-1,-1],"split_conditions":[7.5E1,-2.14193E-3,2.2010507E-2],"split_indices":[1,0,0],"split_type":[0,0,0],"sum_hessian":[4.74E2,2.64E2,2.1E2],"tree_param":{"num_deleted":"0","num_feature":"6","num_nodes":"3","size_leaf_vector":"1"}},{"base_weights":[-2.8979585E-1,-1.969435E-2,6.135032E-3],"categories":[],"categories_nodes":[],"categories_segments":[],"categories_sizes":[],"default_left":[0,0,0],"id":134,"left_children":[1,-1,-1],"loss_changes":[3.4015384E2,0E0,0E0],"parents":[2147483647,0,0],"right_children":[2,-1,-1],"split_conditions":[4E1,-1.969435E-2,6.135032E-3],"split_indices":[2,0,0],"split_type":[0,0,0],"sum_hessian":[4.74E2,1.92E2,2.82E2],"tree_param":{"num_deleted":"0","num_feature":"6","num_nodes":"3","size_leaf_vector":"1"}},{"base_weights":[-3.413194E-1,-2.3406297E-2,3.3099507E-3],"categories":[],"categories_nodes":[],"categories_segments":[],"categories_sizes":[],"default_left":[0,0,0],"id":135,"left_children":[1,-1,-1],"loss_changes":[3.257732E2,0E0,0E0],"parents":[2147483647,0,0],"right_children":[2,-1,-1],"split_conditions":[3E1,-2.3406297E-2,3.3099507E-3],"split_indices":[3,0,0],"split_type":[0,0,0],"sum_hessian":[4.74E2,1.49E2,3.25E2],"tree_param":{"num_deleted":"0","num_feature":"6","num_nodes":"3","size_leaf_vector":"1"}},{"base_weights":[4.2727816E-1,-8.818094E-3,1.6326938E-2],"categories":[],"categories_nodes":[],"categories_segments":[],"categories_sizes":[],"default_left":[0,0,0],"id":136,"left_children":[1,-1,-1],"loss_changes":[3.1946085E2,0E0,0E0],"parents":[2147483647,0,0],"right_children":[2,-1,-1],"split_conditions":[5.9E1,-8.818094E-3,1.6326938E-2],"split_indices":[4,0,0],"split_type":[0,0,0],"sum_hessian":[4.74E2,1.87E2,2.87E2],"tree_param":{"num_deleted":"0","num_feature":"6","num_nodes":"3","size_leaf_vector":"1"}},{"base_weights":[-2.6969856E-1,-1.323481E-2,1.5568925E-2],"categories":[],"categories_nodes":[],"categories_segments":[],"categories_sizes":[],"default_left":[0,0,0],"id":137,"left_children":[1,-1,-1],"loss_changes":[3.8142932E2,0E0,0E0],"parents":[2147483647,0,0],"right_children":[2,-1,-1],"split_conditions":[6.7E1,-1.323481E-2,1.5568925E-2],"split_indices":[5,0,0],"split_type":[0,0,0],"sum_hessian":[4.74E2,3.23E2,1.51E2],"tree_param":{"num_deleted":"0","num_feature":"6","num_nodes":"3","size_leaf_vector":"1"}},{"base_weights":[-9.714624E-2,-1.7100427E-2,9.9818865E-3],"categories":[],"categories_nodes":[],"categories_segments":[],"categories_sizes":[],"default_left":[0,0,0],"id":138,"left_children":[1,-1,-1],"loss_changes":[3.7852972E2,0E0,0E0],"parents":[2147483647,0,0],"right_children":[2,-1,-1],"split_conditions":[4.8E1,-1.7100427E-2,9.9818865E-3],"split_indices":[0,0,0],"split_type":[0,0,0],"sum_hessian":[4.74E2,2E2,2.74E2],"tree_param":{"num_deleted":"0","num_feature":"6","num_nodes":"3","size_leaf_vector":"1"}},{"base_weights":[5.6361467E-1,-7.1688984E-3,1.7427625E-2],"categories":[],"categories_nodes":[],"categories_segments":[],"categories_sizes":[],"default_left":[0,0,0],"id":139,"left_children":[1,-1,-1],"loss_changes":[2.965174E2,0E0,0E0],"parents":[2147483647,0,0],"right_children":[2,-1,-1],"split_conditions":[5.8E1,-7.1688984E-3,1.7427625E-2],"split_indices":[1,0,0],"split_type":[0,0,0],"sum_hessian":[4.74E2,1.73E2,3.01E2],"tree_param":{"num_deleted":"0","num_feature":"6","num_nodes":"3","size_leaf_vector":"1"}},{"base_weights":[-2.8547743E-1,-1.4413339E-2,1.1260718E-2],"categories":[],"categories_nodes":[],"categories_segments":[],"categories_sizes":[],"default_left":[0,0,0],"id":140,"left_children":[1,-1,-1],"loss_changes":[3.3315314E2,0E0,0E0],"parents":[2147483647,0,0],"right_children":[2,-1,-1],"split_conditions":[5.4E1,-1.4413339E-2,1.1260718E-2],"split_indices":[2,0,0],"split_type":[0,0,0],"sum_hessian":[4.74E2,2.87E2,1.87E2],"tree_param":{"num_deleted":"0","num_feature":"6","num_nodes":"3","size_leaf_vector":"1"}},{"base_weights":[-3.3624193E-1,-1.9241365E-2,5.5321367E-3],"categories":[],"categories_nodes":[],"categories_segments":[],"categories_sizes":[],"default_left":[0,0,0],"id":141,"left_children":[1,-1,-1],"loss_changes":[3.1746054E2,0E0,0E0],"parents":[2147483647,0,0],"right_children":[2,-1,-1],"split_conditions":[3.9E1,-1.9241365E-2,5.5321367E-3],"split_indices":[3,0,0],"split_type":[0,0,0],"sum_hessian":[4.74E2,2.02E2,2.72E2],"tree_param":{"num_deleted":"0","num_feature":"6","num_nodes":"3","size_leaf_vector":"1"}},{"base_weights":[4.2088482E-1,-1.7409807E-3,2.4655648E-2],"categories":[],"categories_nodes":[],"categories_segments":[],"categories_sizes":[],"default_left":[0,0,0],"id":142,"left_children":[1,-1,-1],"loss_changes":[3.1207397E2,0E0,0E0],"parents":[2147483647,0,0],"right_children":[2,-1,-1],"split_conditions":[8.4E1,-1.7409807E-3,2.4655648E-2],"split_indices":[4,0,0],"split_type":[0,0,0],"sum_hessian":[4.74E2,3.3E2,1.44E2],"tree_param":{"num_deleted":"0","num_feature":"6","num_nodes":"3","size_leaf_vector":"1"}},{"base_weights":[-2.6564813E-1,-2.3486696E-2,5.0884555E-3],"categories":[],"categories_nodes":[],"categories_segments":[],"categories_sizes":[],"default_left":[0,0,0],"id":143,"left_children":[1,-1,-1],"loss_changes":[3.740815E2,0E0,0E0],"parents":[2147483647,0,0],"right_children":[2,-1,-1],"split_conditions":[3.5E1,-2.3486696E-2,5.0884555E-3],"split_indices":[5,0,0],"split_type":[0,0,0],"sum_hessian":[4.74E2,1.5E2,3.24E2],"tree_param":{"num_deleted":"0","num_feature":"6","num_nodes":"3","size_leaf_vector":"1"}},{"base_weights":[-9.5704064E-2,-1.0966451E-2,1.6874894E-2],"categories":[],"categories_nodes":[],"categories_segments":[],"categories_sizes":[],"default_left":[0,0,0],"id":144,"left_children":[1,-1,-1],"loss_changes":[3.692429E2,0E0,0E0],"parents":[2147483647,0,0],"right_children":[2,-1,-1],"split_conditions":[6.9E1,-1.0966451E-2,1.6874894E-2],"split_indices":[0,0,0],"split_type":[0,0,0],"sum_hessian":[4.74E2,3.12E2,1.62E2],"tree_param":{"num_deleted":"0","num_feature":"6","num_nodes":"3","size_leaf_vector":"1"}},{"base_weights":[5.5518204E-1,-1.3274816E-3,2.2566024E-2],"categories":[],"categories_nodes":[],"categories_segments":[],"categories_sizes":[],"default_left":[0,0,0],"id":145,"left_children":[1,-1,-1],"loss_changes":[2.9035553E2,0E0,0E0],"parents":[2147483647,0,0],"right_children":[2,-1,-1],"split_conditions":[7.9E1,-1.3274816E-3,2.2566024E-2],"split_indices":[1,0,0],"split_type":[0,0,0],"sum_hessian":[4.74E2,2.83E2,1.91E2],"tree_param":{"num_deleted":"0","num_feature":"6","num_nodes":"3","size_leaf_vector":"1"}},{"base_weights":[-2.812019E-1,-1.3601428E-2,1.2092343E-2],"categories":[],"categories_nodes":[],"categories_segments":[],"categories_sizes":[],"default_left":[0,0,0],"id":146,"left_children":[1,-1,-1],"loss_changes":[3.2382968E2,0E0,0E0],"parents":[2147483647,0,0],"right_children":[2,-1,-1],"split_conditions":[5.7E1,-1.3601428E-2,1.2092343E-2],"split_indices":[2,0,0],"split_type":[0,0,0],"sum_hessian":[4.74E2,3.01E2,1.73E2],"tree_param":{"num_deleted":"0","num_feature":"6","num_nodes":"3","size_leaf_vector":"1"}},{"base_weights":[-3.3122712E-1,-1.134172E-2,1.8159885E-2],"categories":[],"categories_nodes":[],"categories_segments":[],"categories_sizes":[],"default_left":[0,0,0],"id":147,"left_children":[1,-1,-1],"loss_changes":[3.1210132E2,0E0,0E0],"parents":[2147483647,0,0],"right_children":[2,-1,-1],"split_conditions":[7.1E1,-1.134172E-2,1.8159885E-2],"split_indices":[3,0,0],"split_type":[0,0,0],"sum_hessian":[4.74E2,3.72E2,1.02E2],"tree_param":{"num_deleted":"0","num_feature":"6","num_nodes":"3","size_leaf_vector":"1"}},{"base_weights":[4.146198E-1,-1.3276524E-2,1.3682172E-2],"categories":[],"categories_nodes":[],"categories_segments":[],"categories_sizes":[],"default_left":[0,0,0],"id":148,"left_children":[1,-1,-1],"loss_changes":[3.0796323E2,0E0,0E0],"parents":[2147483647,0,0],"right_children":[2,-1,-1],"split_conditions":[5E1,-1.3276524E-2,1.3682172E-2],"split_indices":[4,0,0],"split_type":[0,0,0],"sum_hessian":[4.74E2,1.31E2,3.43E2],"tree_param":{"num_deleted":"0","num_feature":"6","num_nodes":"3","size_leaf_vector":"1"}},{"base_weights":[-2.6170224E-1,-1.2914554E-2,1.5261101E-2],"categories":[],"categories_nodes":[],"categories_segments":[],"categories_sizes":[],"default_left":[0,0,0],"id":149,"left_children":[1,-1,-1],"loss_changes":[3.6497733E2,0E0,0E0],"parents":[2147483647,0,0],"right_children":[2,-1,-1],"split_conditions":[6.7E1,-1.2914554E-2,1.5261101E-2],"split_indices":[5,0,0],"split_type":[0,0,0],"sum_hessian":[4.74E2,3.23E2,1.51E2],"tree_param":{"num_deleted":"0","num_feature":"6","num_nodes":"3","size_leaf_vector":"1"}},{"base_weights":[-9.425597E-2,-1.6681518E-2,9.750587E-3],"categories":[],"categories_nodes":[],"categories_segments":[],"categories_sizes":[],"default_left":[0,0,0],"id":150,"left_children":[1,-1,-1],"loss_changes":[3.6057205E2,0E0,0E0],"parents":[2147483647,0,0],"right_children":[2,-1,-1],"split_conditions":[4.8E1,-1.6681518E-2,9.750587E-3],"split_indices":[0,0,0],"split_type":[0,0,0],"sum_hessian":[4.74E2,2E2,2.74E2],"tree_param":{"num_deleted":"0","num_feature":"6","num_nodes":"3","size_leaf_vector":"1"}},{"base_weights":[5.46899E-1,-7.042183E-3,1.6960248E-2],"categories":[],"categories_nodes":[],"categories_segments":[],"categories_sizes":[],"default_left":[0,0,0],"id":151,"left_children":[1,-1,-1],"loss_changes":[2.8236993E2,0E0,0E0],"parents":[2147483647,0,0],"right_children":[2,-1,-1],"split_conditions":[5.8E1,-7.042183E-3,1.6960248E-2],"split_indices":[1,0,0],"split_type":[0,0,0],"sum_hessian":[4.74E2,1.73E2,3.01E2],"tree_param":{"num_deleted":"0","num_feature":"6","num_nodes":"3","size_leaf_vector":"1"}},{"base_weights":[-2.76987E-1,-1.8982418E-2,5.971995E-3],"categories":[],"categories_nodes":[],"categories_segments":[],"categories_sizes":[],"default_left":[0,0,0],"id":152,"left_children":[1,-1,-1],"loss_changes":[3.1750046E2,0E0,0E0],"parents":[2147483647,0,0],"right_children":[2,-1,-1],"split_conditions":[4E1,-1.8982418E-2,5.971995E-3],"split_indices":[2,0,0],"split_type":[0,0,0],"sum_hessian":[4.74E2,1.92E2,2.82E2],"tree_param":{"num_deleted":"0","num_feature":"6","num_nodes":"3","size_leaf_vector":"1"}},{"base_weights":[-3.262443E-1,-2.2601856E-2,3.2692878E-3],"categories":[],"categories_nodes":[],"categories_segments":[],"categories_sizes":[],"default_left":[0,0,0],"id":153,"left_children":[1,-1,-1],"loss_changes":[3.0549188E2,0E0,0E0],"parents":[2147483647,0,0],"right_children":[2,-1,-1],"split_conditions":[3E1,-2.2601856E-2,3.2692878E-3],"split_indices":[3,0,0],"split_type":[0,0,0],"sum_hessian":[4.74E2,1.49E2,3.25E2],"tree_param":{"num_deleted":"0","num_feature":"6","num_nodes":"3","size_leaf_vector":"1"}},{"base_weights":[4.084014E-1,-5.586074E-3,1.8212348E-2],"categories":[],"categories_nodes":[],"categories_segments":[],"categories_sizes":[],"default_left":[0,0,0],"id":154,"left_children":[1,-1,-1],"loss_changes":[2.9929312E2,0E0,0E0],"parents":[2147483647,0,0],"right_children":[2,-1,-1],"split_conditions":[6.6E1,-5.586074E-3,1.8212348E-2],"split_indices":[4,0,0],"split_type":[0,0,0],"sum_hessian":[4.74E2,2.41E2,2.33E2],"tree_param":{"num_deleted":"0","num_feature":"6","num_nodes":"3","size_leaf_vector":"1"}},{"base_weights":[-2.5777173E-1,-2.0471089E-2,6.334385E-3],"categories":[],"categories_nodes":[],"categories_segments":[],"categories_sizes":[],"default_left":[0,0,0],"id":155,"left_children":[1,-1,-1],"loss_changes":[3.581605E2,0E0,0E0],"parents":[2147483647,0,0],"right_children":[2,-1,-1],"split_conditions":[4.1E1,-2.0471089E-2,6.334385E-3],"split_indices":[5,0,0],"split_type":[0,0,0],"sum_hessian":[4.74E2,1.8E2,2.94E2],"tree_param":{"num_deleted":"0","num_feature":"6","num_nodes":"3","size_leaf_vector":"1"}},{"base_weights":[-9.2856765E-2,-1.0230662E-2,1.7454803E-2],"categories":[],"categories_nodes":[],"categories_segments":[],"categories_sizes":[],"default_left":[0,0,0],"id":156,"left_children":[1,-1,-1],"loss_changes":[3.5244568E2,0E0,0E0],"parents":[2147483647,0,0],"right_children":[2,-1,-1],"split_conditions":[7.1E1,-1.0230662E-2,1.7454803E-2],"split_indices":[0,0,0],"split_type":[0,0,0],"sum_hessian":[4.74E2,3.23E2,1.51E2],"tree_param":{"num_deleted":"0","num_feature":"6","num_nodes":"3","size_leaf_vector":"1"}},{"base_weights":[5.387165E-1,-9.4382185E-4,2.2614498E-2],"categories":[],"categories_nodes":[],"categories_segments":[],"categories_sizes":[],"default_left":[0,0,0],"id":157,"left_children":[1,-1,-1],"loss_changes":[2.7698993E2,0E0,0E0],"parents":[2147483647,0,0],"right_children":[2,-1,-1],"split_conditions":[8.1E1,-9.4382185E-4,2.2614498E-2],"split_indices":[1,0,0],"split_type":[0,0,0],"sum_hessian":[4.74E2,2.93E2,1.81E2],"tree_param":{"num_deleted":"0","num_feature":"6","num_nodes":"3","size_leaf_vector":"1"}},{"base_weights":[-2.728595E-1,-1.5665634E-2,8.512951E-3],"categories":[],"categories_nodes":[],"categories_segments":[],"categories_sizes":[],"default_left":[0,0,0],"id":158,"left_children":[1,-1,-1],"loss_changes":[3.0857037E2,0E0,0E0],"parents":[2147483647,0,0],"right_children":[2,-1,-1],"split_conditions":[4.7E1,-1.5665634E-2,8.512951E-3],"split_indices":[2,0,0],"split_type":[0,0,0],"sum_hessian":[4.74E2,2.47E2,2.27E2],"tree_param":{"num_deleted":"0","num_feature":"6","num_nodes":"3","size_leaf_vector":"1"}},{"base_weights":[-3.2139125E-1,-1.25803E-2,1.3464135E-2],"categories":[],"categories_nodes":[],"categories_segments":[],"categories_sizes":[],"default_left":[0,0,0],"id":159,"left_children":[1,-1,-1],"loss_changes":[3.0027985E2,0E0,0E0],"parents":[2147483647,0,0],"right_children":[2,-1,-1],"split_conditions":[6.1E1,-1.25803E-2,1.3464135E-2],"split_indices":[3,0,0],"split_type":[0,0,0],"sum_hessian":[4.74E2,3.33E2,1.41E2],"tree_param":{"num_deleted":"0","num_feature":"6","num_nodes":"3","size_leaf_vector":"1"}},{"base_weights":[4.02302E-1,-1.2995726E-2,1.3319295E-2],"categories":[],"categories_nodes":[],"categories_segments":[],"categories_sizes":[],"default_left":[0,0,0],"id":160,"left_children":[1,-1,-1],"loss_changes":[2.9343466E2,0E0,0E0],"parents":[2147483647,0,0],"right_children":[2,-1,-1],"split_conditions":[5E1,-1.2995726E-2,1.3319295E-2],"split_indices":[4,0,0],"split_type":[0,0,0],"sum_hessian":[4.74E2,1.31E2,3.43E2],"tree_param":{"num_deleted":"0","num_feature":"6","num_nodes":"3","size_leaf_vector":"1"}},{"base_weights":[-2.5393486E-1,-1.7314333E-2,8.415014E-3],"categories":[],"categories_nodes":[],"categories_segments":[],"categories_sizes":[],"default_left":[0,0,0],"id":161,"left_children":[1,-1,-1],"loss_changes":[3.4916965E2,0E0,0E0],"parents":[2147483647,0,0],"right_children":[2,-1,-1],"split_conditions":[4.9E1,-1.7314333E-2,8.415014E-3],"split_indices":[5,0,0],"split_type":[0,0,0],"sum_hessian":[4.74E2,2.25E2,2.49E2],"tree_param":{"num_deleted":"0","num_feature":"6","num_nodes":"3","size_leaf_vector":"1"}},{"base_weights":[-9.144865E-2,-1.7451864E-2,8.765656E-3],"categories":[],"categories_nodes":[],"categories_segments":[],"categories_sizes":[],"default_left":[0,0,0],"id":162,"left_children":[1,-1,-1],"loss_changes":[3.4481323E2,0E0,0E0],"parents":[2147483647,0,0],"right_children":[2,-1,-1],"split_conditions":[4.4E1,-1.7451864E-2,8.765656E-3],"split_indices":[0,0,0],"split_type":[0,0,0],"sum_hessian":[4.74E2,1.83E2,2.91E2],"tree_param":{"num_deleted":"0","num_feature":"6","num_nodes":"3","size_leaf_vector":"1"}},{"base_weights":[5.3068143E-1,-6.923081E-3,1.650901E-2],"categories":[],"categories_nodes":[],"categories_segments":[],"categories_sizes":[],"default_left":[0,0,0],"id":163,"left_children":[1,-1,-1],"loss_changes":[2.6911353E2,0E0,0E0],"parents":[2147483647,0,0],"right_children":[2,-1,-1],"split_conditions":[5.8E1,