{"learner":{"attributes":{"scikit_learn":"{\"_estimator_type\": \"regressor\"}"},"feature_names":["1p","2p","3p","4p","5p","6p"],"feature_types":["int","int","int","int","int","int"],"gradient_booster":{"model":{"gbtree_model_param":{"num_parallel_tree":"1","num_trees":"3000"},"iteration_indptr":[0,6,12,18,24,30,36,42,48,54,60,66,72,78,84,90,96,102,108,114,120,126,132,138,144,150,156,162,168,174,180,186,192,198,204,210,216,222,228,234,240,246,252,258,264,270,276,282,288,294,300,306,312,318,324,330,336,342,348,354,360,366,372,378,384,390,396,402,408,414,420,426,432,438,444,450,456,462,468,474,480,486,492,498,504,510,516,522,528,534,540,546,552,558,564,570,576,582,588,594,600,606,612,618,624,630,636,642,648,654,660,666,672,678,684,690,696,702,708,714,720,726,732,738,744,750,756,762,768,774,780,786,792,798,804,810,816,822,828,834,840,846,852,858,864,870,876,882,888,894,900,906,912,918,924,930,936,942,948,954,960,966,972,978,984,990,996,1002,1008,1014,1020,1026,1032,1038,1044,1050,1056,1062,1068,1074,1080,1086,1092,1098,1104,1110,1116,1122,1128,1134,1140,1146,1152,1158,1164,1170,1176,1182,1188,1194,1200,1206,1212,1218,1224,1230,1236,1242,1248,1254,1260,1266,1272,1278,1284,1290,1296,1302,1308,1314,1320,1326,1332,1338,1344,1350,1356,1362,1368,1374,1380,1386,1392,1398,1404,1410,1416,1422,1428,1434,1440,1446,1452,1458,1464,1470,1476,1482,1488,1494,1500,1506,1512,1518,1524,1530,1536,1542,1548,1554,1560,1566,1572,1578,1584,1590,1596,1602,1608,1614,1620,1626,1632,1638,1644,1650,1656,1662,1668,1674,1680,1686,1692,1698,1704,1710,1716,1722,1728,1734,1740,1746,1752,1758,1764,1770,1776,1782,1788,1794,1800,1806,1812,1818,1824,1830,1836,1842,1848,1854,1860,1866,1872,1878,1884,1890,1896,1902,1908,1914,1920,1926,1932,1938,1944,1950,1956,1962,1968,1974,1980,1986,1992,1998,2004,2010,2016,2022,2028,2034,2040,2046,2052,2058,2064,2070,2076,2082,2088,2094,2100,2106,2112,2118,2124,2130,2136,2142,2148,2154,2160,2166,2172,2178,2184,2190,2196,2202,2208,2214,2220,2226,2232,2238,2244,2250,2256,2262,2268,2274,2280,2286,2292,2298,2304,2310,2316,2322,2328,2334,2340,2346,2352,2358,2364,2370,2376,2382,2388,2394,2400,2406,2412,2418,2424,2430,2436,2442,2448,2454,2460,2466,2472,2478,2484,2490,2496,2502,2508,2514,2520,2526,2532,2538,2544,2550,2556,2562,2568,2574,2580,2586,2592,2598,2604,2610,2616,2622,2628,2634,2640,2646,2652,2658,2664,2670,2676,2682,2688,2694,2700,2706,2712,2718,2724,2730,2736,2742,2748,2754,2760,2766,2772,2778,2784,2790,2796,2802,2808,2814,2820,2826,2832,2838,2844,2850,2856,2862,2868,2874,2880,2886,2892,2898,2904,2910,2916,2922,2928,2934,2940,2946,2952,2958,2964,2970,2976,2982,2988,2994,3000],"tree_info":[0,1,2,3,4,5,0,1,2,3,4,5,0,1,2,3,4,5,0,1,2,3,4,5,0,1,2,3,4,5,0,1,2,3,4,5,0,1,2,3,4,5,0,1,2,3,4,5,0,1,2,3,4,5,0,1,2,3,4,5,0,1,2,3,4,5,0,1,2,3,4,5,0,1,2,3,4,5,0,1,2,3,4,5,0,1,2,3,4,5,0,1,2,3,4,5,0,1,2,3,4,5,0,1,2,3,4,5,0,1,2,3,4,5,0,1,2,3,4,5,0,1,2,3,4,5,0,1,2,3,4,5,0,1,2,3,4,5,0,1,2,3,4,5,0,1,2,3,4,5,0,1,2,3,4,5,0,1,2,3,4,5,0,1,2,3,4,5,0,1,2,3,4,5,0,1,2,3,4,5,0,1,2,3,4,5,0,1,2,3,4,5,0,1,2,3,4,5,0,1,2,3,4,5,0,1,2,3,4,5,0,1,2,3,4,5,0,1,2,3,4,5,0,1,2,3,4,5,0,1,2,3,4,5,0,1,2,3,4,5,0,1,2,3,4,5,0,1,2,3,4,5,0,1,2,3,4,5,0,1,2,3,4,5,0,1,2,3,4,5,0,1,2,3,4,5,0,1,2,3,4,5,0,1,2,3,4,5,0,1,2,3,4,5,0,1,2,3,4,5,0,1,2,3,4,5,0,1,2,3,4,5,0,1,2,3,4,5,0,1,2,3,4,5,0,1,2,3,4,5,0,1,2,3,4,5,0,1,2,3,4,5,0,1,2,3,4,5,0,1,2,3,4,5,0,1,2,3,4,5,0,1,2,3,4,5,0,1,2,3,4,5,0,1,2,3,4,5,0,1,2,3,4,5,0,1,2,3,4,5,0,1,2,3,4,5,0,1,2,3,4,5,0,1,2,3,4,5,0,1,2,3,4,5,0,1,2,3,4,5,0,1,2,3,4,5,0,1,2,3,4,5,0,1,2,3,4,5,0,1,2,3,4,5,0,1,2,3,4,5,0,1,2,3,4,5,0,1,2,3,4,5,0,1,2,3,4,5,0,1,2,3,4,5,0,1,2,3,4,5,0,1,2,3,4,5,0,1,2,3,4,5,0,1,2,3,4,5,0,1,2,3,4,5,0,1,2,3,4,5,0,1,2,3,4,5,0,1,2,3,4,5,0,1,2,3,4,5,0,1,2,3,4,5,0,1,2,3,4,5,0,1,2,3,4,5,0,1,2,3,4,5,0,1,2,3,4,5,0,1,2,3,4,5,0,1,2,3,4,5,0,1,2,3,4,5,0,1,2,3,4,5,0,1,2,3,4,5,0,1,2,3,4,5,0,1,2,3,4,5,0,1,2,3,4,5,0,1,2,3,4,5,0,1,2,3,4,5,0,1,2,3,4,5,0,1,2,3,4,5,0,1,2,3,4,5,0,1,2,3,4,5,0,1,2,3,4,5,0,1,2,3,4,5,0,1,2,3,4,5,0,1,2,3,4,5,0,1,2,3,4,5,0,1,2,3,4,5,0,1,2,3,4,5,0,1,2,3,4,5,0,1,2,3,4,5,0,1,2,3,4,5,0,1,2,3,4,5,0,1,2,3,4,5,0,1,2,3,4,5,0,1,2,3,4,5,0,1,2,3,4,5,0,1,2,3,4,5,0,1,2,3,4,5,0,1,2,3,4,5,0,1,2,3,4,5,0,1,2,3,4,5,0,1,2,3,4,5,0,1,2,3,4,5,0,1,2,3,4,5,0,1,2,3,4,5,0,1,2,3,4,5,0,1,2,3,4,5,0,1,2,3,4,5,0,1,2,3,4,5,0,1,2,3,4,5,0,1,2,3,4,5,0,1,2,3,4,5,0,1,2,3,4,5,0,1,2,3,4,5,0,1,2,3,4,5,0,1,2,3,4,5,0,1,2,3,4,5,0,1,2,3,4,5,0,1,2,3,4,5,0,1,2,3,4,5,0,1,2,3,4,5,0,1,2,3,4,5,0,1,2,3,4,5,0,1,2,3,4,5,0,1,2,3,4,5,0,1,2,3,4,5,0,1,2,3,4,5,0,1,2,3,4,5,0,1,2,3,4,5,0,1,2,3,4,5,0,1,2,3,4,5,0,1,2,3,4,5,0,1,2,3,4,5,0,1,2,3,4,5,0,1,2,3,4,5,0,1,2,3,4,5,0,1,2,3,4,5,0,1,2,3,4,5,0,1,2,3,4,5,0,1,2,3,4,5,0,1,2,3,4,5,0,1,2,3,4,5,0,1,2,3,4,5,0,1,2,3,4,5,0,1,2,3,4,5,0,1,2,3,4,5,0,1,2,3,4,5,0,1,2,3,4,5,0,1,2,3,4,5,0,1,2,3,4,5,0,1,2,3,4,5,0,1,2,3,4,5,0,1,2,3,4,5,0,1,2,3,4,5,0,1,2,3,4,5,0,1,2,3,4,5,0,1,2,3,4,5,0,1,2,3,4,5,0,1,2,3,4,5,0,1,2,3,4,5,0,1,2,3,4,5,0,1,2,3,4,5,0,1,2,3,4,5,0,1,2,3,4,5,0,1,2,3,4,5,0,1,2,3,4,5,0,1,2,3,4,5,0,1,2,3,4,5,0,1,2,3,4,5,0,1,2,3,4,5,0,1,2,3,4,5,0,1,2,3,4,5,0,1,2,3,4,5,0,1,2,3,4,5,0,1,2,3,4,5,0,1,2,3,4,5,0,1,2,3,4,5,0,1,2,3,4,5,0,1,2,3,4,5,0,1,2,3,4,5,0,1,2,3,4,5,0,1,2,3,4,5,0,1,2,3,4,5,0,1,2,3,4,5,0,1,2,3,4,5,0,1,2,3,4,5,0,1,2,3,4,5,0,1,2,3,4,5,0,1,2,3,4,5,0,1,2,3,4,5,0,1,2,3,4,5,0,1,2,3,4,5,0,1,2,3,4,5,0,1,2,3,4,5,0,1,2,3,4,5,0,1,2,3,4,5,0,1,2,3,4,5,0,1,2,3,4,5,0,1,2,3,4,5,0,1,2,3,4,5,0,1,2,3,4,5,0,1,2,3,4,5,0,1,2,3,4,5,0,1,2,3,4,5,0,1,2,3,4,5,0,1,2,3,4,5,0,1,2,3,4,5,0,1,2,3,4,5,0,1,2,3,4,5,0,1,2,3,4,5,0,1,2,3,4,5,0,1,2,3,4,5,0,1,2,3,4,5,0,1,2,3,4,5,0,1,2,3,4,5,0,1,2,3,4,5,0,1,2,3,4,5,0,1,2,3,4,5,0,1,2,3,4,5,0,1,2,3,4,5,0,1,2,3,4,5,0,1,2,3,4,5,0,1,2,3,4,5,0,1,2,3,4,5,0,1,2,3,4,5,0,1,2,3,4,5,0,1,2,3,4,5,0,1,2,3,4,5,0,1,2,3,4,5,0,1,2,3,4,5,0,1,2,3,4,5,0,1,2,3,4,5,0,1,2,3,4,5,0,1,2,3,4,5,0,1,2,3,4,5,0,1,2,3,4,5,0,1,2,3,4,5,0,1,2,3,4,5,0,1,2,3,4,5,0,1,2,3,4,5,0,1,2,3,4,5,0,1,2,3,4,5,0,1,2,3,4,5,0,1,2,3,4,5,0,1,2,3,4,5,0,1,2,3,4,5,0,1,2,3,4,5,0,1,2,3,4,5,0,1,2,3,4,5,0,1,2,3,4,5,0,1,2,3,4,5,0,1,2,3,4,5,0,1,2,3,4,5,0,1,2,3,4,5,0,1,2,3,4,5,0,1,2,3,4,5,0,1,2,3,4,5,0,1,2,3,4,5,0,1,2,3,4,5,0,1,2,3,4,5,0,1,2,3,4,5,0,1,2,3,4,5,0,1,2,3,4,5,0,1,2,3,4,5,0,1,2,3,4,5,0,1,2,3,4,5,0,1,2,3,4,5,0,1,2,3,4,5,0,1,2,3,4,5,0,1,2,3,4,5,0,1,2,3,4,5,0,1,2,3,4,5,0,1,2,3,4,5,0,1,2,3,4,5,0,1,2,3,4,5,0,1,2,3,4,5,0,1,2,3,4,5,0,1,2,3,4,5,0,1,2,3,4,5,0,1,2,3,4,5,0,1,2,3,4,5,0,1,2,3,4,5,0,1,2,3,4,5,0,1,2,3,4,5,0,1,2,3,4,5,0,1,2,3,4,5,0,1,2,3,4,5,0,1,2,3,4,5,0,1,2,3,4,5,0,1,2,3,4,5,0,1,2,3,4,5,0,1,2,3,4,5,0,1,2,3,4,5,0,1,2,3,4,5,0,1,2,3,4,5,0,1,2,3,4,5,0,1,2,3,4,5,0,1,2,3,4,5,0,1,2,3,4,5,0,1,2,3,4,5,0,1,2,3,4,5,0,1,2,3,4,5,0,1,2,3,4,5,0,1,2,3,4,5,0,1,2,3,4,5,0,1,2,3,4,5,0,1,2,3,4,5,0,1,2,3,4,5,0,1,2,3,4,5,0,1,2,3,4,5,0,1,2,3,4,5,0,1,2,3,4,5,0,1,2,3,4,5,0,1,2,3,4,5,0,1,2,3,4,5,0,1,2,3,4,5,0,1,2,3,4,5,0,1,2,3,4,5,0,1,2,3,4,5,0,1,2,3,4,5,0,1,2,3,4,5,0,1,2,3,4,5,0,1,2,3,4,5,0,1,2,3,4,5,0,1,2,3,4,5,0,1,2,3,4,5,0,1,2,3,4,5,0,1,2,3,4,5,0,1,2,3,4,5,0,1,2,3,4,5,0,1,2,3,4,5,0,1,2,3,4,5,0,1,2,3,4,5,0,1,2,3,4,5,0,1,2,3,4,5,0,1,2,3,4,5,0,1,2,3,4,5,0,1,2,3,4,5,0,1,2,3,4,5,0,1,2,3,4,5,0,1,2,3,4,5,0,1,2,3,4,5,0,1,2,3,4,5,0,1,2,3,4,5,0,1,2,3,4,5,0,1,2,3,4,5,0,1,2,3,4,5,0,1,2,3,4,5,0,1,2,3,4,5,0,1,2,3,4,5,0,1,2,3,4,5,0,1,2,3,4,5,0,1,2,3,4,5,0,1,2,3,4,5,0,1,2,3,4,5,0,1,2,3,4,5,0,1,2,3,4,5,0,1,2,3,4,5,0,1,2,3,4,5,0,1,2,3,4,5,0,1,2,3,4,5,0,1,2,3,4,5,0,1,2,3,4,5,0,1,2,3,4,5,0,1,2,3,4,5,0,1,2,3,4,5,0,1,2,3,4,5,0,1,2,3,4,5,0,1,2,3,4,5,0,1,2,3,4,5,0,1,2,3,4,5,0,1,2,3,4,5,0,1,2,3,4,5,0,1,2,3,4,5,0,1,2,3,4,5,0,1,2,3,4,5,0,1,2,3,4,5,0,1,2,3,4,5,0,1,2,3,4,5,0,1,2,3,4,5,0,1,2,3,4,5,0,1,2,3,4,5,0,1,2,3,4,5,0,1,2,3,4,5,0,1,2,3,4,5,0,1,2,3,4,5,0,1,2,3,4,5,0,1,2,3,4,5,0,1,2,3,4,5,0,1,2,3,4,5,0,1,2,3,4,5,0,1,2,3,4,5,0,1,2,3,4,5,0,1,2,3,4,5,0,1,2,3,4,5,0,1,2,3,4,5,0,1,2,3,4,5,0,1,2,3,4,5,0,1,2,3,4,5,0,1,2,3,4,5,0,1,2,3,4,5,0,1,2,3,4,5,0,1,2,3,4,5,0,1,2,3,4,5,0,1,2,3,4,5,0,1,2,3,4,5,0,1,2,3,4,5,0,1,2,3,4,5,0,1,2,3,4,5,0,1,2,3,4,5,0,1,2,3,4,5,0,1,2,3,4,5,0,1,2,3,4,5,0,1,2,3,4,5,0,1,2,3,4,5,0,1,2,3,4,5,0,1,2,3,4,5,0,1,2,3,4,5,0,1,2,3,4,5,0,1,2,3,4,5,0,1,2,3,4,5,0,1,2,3,4,5,0,1,2,3,4,5,0,1,2,3,4,5,0,1,2,3,4,5,0,1,2,3,4,5,0,1,2,3,4,5,0,1,2,3,4,5,0,1,2,3,4,5,0,1,2,3,4,5,0,1,2,3,4,5,0,1,2,3,4,5,0,1,2,3,4,5,0,1,2,3,4,5,0,1,2,3,4,5,0,1,2,3,4,5,0,1,2,3,4,5,0,1,2,3,4,5,0,1,2,3,4,5,0,1,2,3,4,5,0,1,2,3,4,5,0,1,2,3,4,5,0,1,2,3,4,5,0,1,2,3,4,5,0,1,2,3,4,5,0,1,2,3,4,5,0,1,2,3,4,5,0,1,2,3,4,5,0,1,2,3,4,5,0,1,2,3,4,5,0,1,2,3,4,5,0,1,2,3,4,5,0,1,2,3,4,5,0,1,2,3,4,5,0,1,2,3,4,5,0,1,2,3,4,5,0,1,2,3,4,5,0,1,2,3,4,5,0,1,2,3,4,5,0,1,2,3,4,5,0,1,2,3,4,5,0,1,2,3,4,5,0,1,2,3,4,5,0,1,2,3,4,5,0,1,2,3,4,5,0,1,2,3,4,5,0,1,2,3,4,5,0,1,2,3,4,5,0,1,2,3,4,5,0,1,2,3,4,5,0,1,2,3,4,5,0,1,2,3,4,5,0,1,2,3,4,5,0,1,2,3,4,5],"trees":[{"base_weights":[-1.9030938E-1,-1.5139173E0,9.0074813E-1,-2.0985313E-2,-9.873092E-3,3.0578822E-3,1.7541878E-2],"categories":[],"categories_nodes":[],"categories_segments":[],"categories_sizes":[],"default_left":[0,0,0,0,0,0,0],"id":0,"left_children":[1,3,5,-1,-1,-1,-1],"loss_changes":[6.8732654E2,6.411853E1,1.3198956E2,0E0,0E0,0E0,0E0],"parents":[2147483647,0,0,1,1,2,2],"right_children":[2,4,6,-1,-1,-1,-1],"split_conditions":[5E1,2.8E1,8.3E1,-2.0985313E-2,-9.873092E-3,3.0578822E-3,1.7541878E-2],"split_indices":[0,0,0,0,0,0,0],"split_type":[0,0,0,0,0,0,0],"sum_hessian":[4.74E2,2.14E2,2.6E2,1E2,1.14E2,1.54E2,1.06E2],"tree_param":{"num_deleted":"0","num_feature":"6","num_nodes":"7","size_leaf_vector":"1"}},{"base_weights":[8.205054E-1,-4.6557522E-1,1.6571813E0,-1.0475237E-2,-1.6389298E-3,9.71317E-3,2.0945031E-2],"categories":[],"categories_nodes":[],"categories_segments":[],"categories_sizes":[],"default_left":[0,0,0,0,0,0,0],"id":1,"left_children":[1,3,5,-1,-1,-1,-1],"loss_changes":[5.1188696E2,3.2834263E1,8.4349304E1,0E0,0E0,0E0,0E0],"parents":[2147483647,0,0,1,1,2,2],"right_children":[2,4,6,-1,-1,-1,-1],"split_conditions":[6.2E1,3.9E1,8.3E1,-1.0475237E-2,-1.6389298E-3,9.71317E-3,2.0945031E-2],"split_indices":[1,1,1,0,0,0,0],"split_type":[0,0,0,0,0,0,0],"sum_hessian":[4.74E2,1.87E2,2.87E2,6.3E1,1.24E2,1.13E2,1.74E2],"tree_param":{"num_deleted":"0","num_feature":"6","num_nodes":"7","size_leaf_vector":"1"}},{"base_weights":[-3.764357E-1,-1.4758251E0,7.3381954E-1,-2.2184918E-2,-9.25572E-3,1.97335E-3,1.4542607E-2],"categories":[],"categories_nodes":[],"categories_segments":[],"categories_sizes":[],"default_left":[0,0,0,0,0,0,0],"id":2,"left_children":[1,3,5,-1,-1,-1,-1],"loss_changes":[5.8086926E2,9.561511E1,9.131484E1,0E0,0E0,0E0,0E0],"parents":[2147483647,0,0,1,1,2,2],"right_children":[2,4,6,-1,-1,-1,-1],"split_conditions":[4.7E1,2.5E1,7.3E1,-2.2184918E-2,-9.25572E-3,1.97335E-3,1.4542607E-2],"split_indices":[2,2,2,0,0,0,0],"split_type":[0,0,0,0,0,0,0],"sum_hessian":[4.74E2,2.38E2,2.36E2,1E2,1.38E2,1.36E2,1E2],"tree_param":{"num_deleted":"0","num_feature":"6","num_nodes":"7","size_leaf_vector":"1"}},{"base_weights":[-4.6522307E-1,-1.4740062E0,6.340903E-1,-2.3732798E-2,-9.904998E-3,6.058966E-4,1.4363534E-2],"categories":[],"categories_nodes":[],"categories_segments":[],"categories_sizes":[],"default_left":[0,0,0,0,0,0,0],"id":3,"left_children":[1,3,5,-1,-1,-1,-1],"loss_changes":[5.276948E2,1.05480774E2,1.04815414E2,0E0,0E0,0E0,0E0],"parents":[2147483647,0,0,1,1,2,2],"right_children":[2,4,6,-1,-1,-1,-1],"split_conditions":[4.6E1,2E1,7.2E1,-2.3732798E-2,-9.904998E-3,6.058966E-4,1.4363534E-2],"split_indices":[3,3,3,0,0,0,0],"split_type":[0,0,0,0,0,0,0],"sum_hessian":[4.74E2,2.47E2,2.27E2,8.5E1,1.62E2,1.33E2,9.4E1],"tree_param":{"num_deleted":"0","num_feature":"6","num_nodes":"7","size_leaf_vector":"1"}},{"base_weights":[6.003842E-1,-4.1961062E-1,1.6438665E0,-1.6242342E-2,2.5135977E-4,1.0040796E-2,2.0632701E-2],"categories":[],"categories_nodes":[],"categories_segments":[],"categories_sizes":[],"default_left":[0,0,0,0,0,0,0],"id":4,"left_children":[1,3,5,-1,-1,-1,-1],"loss_changes":[5.062544E2,1.2915712E2,6.0985596E1,0E0,0E0,0E0,0E0],"parents":[2147483647,0,0,1,1,2,2],"right_children":[2,4,6,-1,-1,-1,-1],"split_conditions":[6.7E1,3.5E1,8.5E1,-1.6242342E-2,2.5135977E-4,1.0040796E-2,2.0632701E-2],"split_indices":[4,4,4,0,0,0,0],"split_type":[0,0,0,0,0,0,0],"sum_hessian":[4.74E2,2.4E2,2.34E2,6.4E1,1.76E2,9.4E1,1.4E2],"tree_param":{"num_deleted":"0","num_feature":"6","num_nodes":"7","size_leaf_vector":"1"}},{"base_weights":[-3.889199E-1,-1.5535735E0,7.773678E-1,-2.0510938E-2,-7.2734724E-3,1.1995744E-3,1.370707E-2],"categories":[],"categories_nodes":[],"categories_segments":[],"categories_sizes":[],"default_left":[0,0,0,0,0,0,0],"id":5,"left_children":[1,3,5,-1,-1,-1,-1],"loss_changes":[6.464102E2,9.634137E1,9.26716E1,0E0,0E0,0E0,0E0],"parents":[2147483647,0,0,1,1,2,2],"right_children":[2,4,6,-1,-1,-1,-1],"split_conditions":[5.1E1,3.5E1,7.2E1,-2.0510938E-2,-7.2734724E-3,1.1995744E-3,1.370707E-2],"split_indices":[5,5,5,0,0,0,0],"split_type":[0,0,0,0,0,0,0],"sum_hessian":[4.74E2,2.37E2,2.37E2,1.47E2,9E1,1.13E2,1.24E2],"tree_param":{"num_deleted":"0","num_feature":"6","num_nodes":"7","size_leaf_vector":"1"}},{"base_weights":[-1.8842788E-1,-1.4989216E0,8.9181954E-1,-2.0777537E-2,-9.775219E-3,3.0275E-3,1.7368099E-2],"categories":[],"categories_nodes":[],"categories_segments":[],"categories_sizes":[],"default_left":[0,0,0,0,0,0,0],"id":6,"left_children":[1,3,5,-1,-1,-1,-1],"loss_changes":[6.7377405E2,6.2856567E1,1.29389E2,0E0,0E0,0E0,0E0],"parents":[2147483647,0,0,1,1,2,2],"right_children":[2,4,6,-1,-1,-1,-1],"split_conditions":[5E1,2.8E1,8.3E1,-2.0777537E-2,-9.775219E-3,3.0275E-3,1.7368099E-2],"split_indices":[0,0,0,0,0,0,0],"split_type":[0,0,0,0,0,0,0],"sum_hessian":[4.74E2,2.14E2,2.6E2,1E2,1.14E2,1.54E2,1.06E2],"tree_param":{"num_deleted":"0","num_feature":"6","num_nodes":"7","size_leaf_vector":"1"}},{"base_weights":[8.123393E-1,-4.6098396E-1,1.6407158E0,-1.0372123E-2,-1.6226721E-3,8.934457E-3,2.0334475E-2],"categories":[],"categories_nodes":[],"categories_segments":[],"categories_sizes":[],"default_left":[0,0,0,0,0,0,0],"id":7,"left_children":[1,3,5,-1,-1,-1,-1],"loss_changes":[5.017821E2,3.219195E1,8.270447E1,0E0,0E0,0E0,0E0],"parents":[2147483647,0,0,1,1,2,2],"right_children":[2,4,6,-1,-1,-1,-1],"split_conditions":[6.2E1,3.9E1,8.1E1,-1.0372123E-2,-1.6226721E-3,8.934457E-3,2.0334475E-2],"split_indices":[1,1,1,0,0,0,0],"split_type":[0,0,0,0,0,0,0],"sum_hessian":[4.74E2,1.87E2,2.87E2,6.3E1,1.24E2,1E2,1.87E2],"tree_param":{"num_deleted":"0","num_feature":"6","num_nodes":"7","size_leaf_vector":"1"}},{"base_weights":[-3.7270278E-1,-1.4611984E0,7.26551E-1,-2.1965265E-2,-9.16383E-3,1.9537602E-3,1.4398621E-2],"categories":[],"categories_nodes":[],"categories_segments":[],"categories_sizes":[],"default_left":[0,0,0,0,0,0,0],"id":8,"left_children":[1,3,5,-1,-1,-1,-1],"loss_changes":[5.694148E2,9.373483E1,8.951634E1,0E0,0E0,0E0,0E0],"parents":[2147483647,0,0,1,1,2,2],"right_children":[2,4,6,-1,-1,-1,-1],"split_conditions":[4.7E1,2.5E1,7.3E1,-2.1965265E-2,-9.16383E-3,1.9537602E-3,1.4398621E-2],"split_indices":[2,2,2,0,0,0,0],"split_type":[0,0,0,0,0,0,0],"sum_hessian":[4.74E2,2.38E2,2.36E2,1E2,1.38E2,1.36E2,1E2],"tree_param":{"num_deleted":"0","num_feature":"6","num_nodes":"7","size_leaf_vector":"1"}},{"base_weights":[-4.6061006E-1,-1.4594017E0,6.2781507E-1,-2.349823E-2,-9.806556E-3,5.998836E-4,1.422141E-2],"categories":[],"categories_nodes":[],"categories_segments":[],"categories_sizes":[],"default_left":[0,0,0,0,0,0,0],"id":9,"left_children":[1,3,5,-1,-1,-1,-1],"loss_changes":[5.172934E2,1.0341449E2,1.0275171E2,0E0,0E0,0E0,0E0],"parents":[2147483647,0,0,1,1,2,2],"right_children":[2,4,6,-1,-1,-1,-1],"split_conditions":[4.6E1,2E1,7.2E1,-2.349823E-2,-9.806556E-3,5.998836E-4,1.422141E-2],"split_indices":[3,3,3,0,0,0,0],"split_type":[0,0,0,0,0,0,0],"sum_hessian":[4.74E2,2.47E2,2.27E2,8.5E1,1.62E2,1.33E2,9.4E1],"tree_param":{"num_deleted":"0","num_feature":"6","num_nodes":"7","size_leaf_vector":"1"}},{"base_weights":[5.9441125E-1,-4.1548082E-1,1.6275584E0,-1.608242E-2,2.4886106E-4,9.941447E-3,2.0427834E-2],"categories":[],"categories_nodes":[],"categories_segments":[],"categories_sizes":[],"default_left":[0,0,0,0,0,0,0],"id":10,"left_children":[1,3,5,-1,-1,-1,-1],"loss_changes":[4.9627563E2,1.2662587E2,5.9776367E1,0E0,0E0,0E0,0E0],"parents":[2147483647,0,0,1,1,2,2],"right_children":[2,4,6,-1,-1,-1,-1],"split_conditions":[6.7E1,3.5E1,8.5E1,-1.608242E-2,2.4886106E-4,9.941447E-3,2.0427834E-2],"split_indices":[4,4,4,0,0,0,0],"split_type":[0,0,0,0,0,0,0],"sum_hessian":[4.74E2,2.4E2,2.34E2,6.4E1,1.76E2,9.4E1,1.4E2],"tree_param":{"num_deleted":"0","num_feature":"6","num_nodes":"7","size_leaf_vector":"1"}},{"base_weights":[-3.8505784E-1,-1.5381545E0,7.696567E-1,-2.0307213E-2,-7.2015375E-3,1.1876848E-3,1.3571095E-2],"categories":[],"categories_nodes":[],"categories_segments":[],"categories_sizes":[],"default_left":[0,0,0,0,0,0,0],"id":11,"left_children":[1,3,5,-1,-1,-1,-1],"loss_changes":[6.336451E2,9.4432556E1,9.0841934E1,0E0,0E0,0E0,0E0],"parents":[2147483647,0,0,1,1,2,2],"right_children":[2,4,6,-1,-1,-1,-1],"split_conditions":[5.1E1,3.5E1,7.2E1,-2.0307213E-2,-7.2015375E-3,1.1876848E-3,1.3571095E-2],"split_indices":[5,5,5,0,0,0,0],"split_type":[0,0,0,0,0,0,0],"sum_hessian":[4.74E2,2.37E2,2.37E2,1.47E2,9E1,1.13E2,1.24E2],"tree_param":{"num_deleted":"0","num_feature":"6","num_nodes":"7","size_leaf_vector":"1"}},{"base_weights":[-1.86565E-1,-1.4840746E0,8.829796E-1,-2.057182E-2,-9.678317E-3,3.4010655E-3,1.7824508E-2],"categories":[],"categories_nodes":[],"categories_segments":[],"categories_sizes":[],"default_left":[0,0,0,0,0,0,0],"id":12,"left_children":[1,3,5,-1,-1,-1,-1],"loss_changes":[6.6048895E2,6.1619476E1,1.2683972E2,0E0,0E0,0E0,0E0],"parents":[2147483647,0,0,1,1,2,2],"right_children":[2,4,6,-1,-1,-1,-1],"split_conditions":[5E1,2.8E1,8.6E1,-2.057182E-2,-9.678317E-3,3.4010655E-3,1.7824508E-2],"split_indices":[0,0,0,0,0,0,0],"split_type":[0,0,0,0,0,0,0],"sum_hessian":[4.74E2,2.14E2,2.6E2,1E2,1.14E2,1.63E2,9.7E1],"tree_param":{"num_deleted":"0","num_feature":"6","num_nodes":"7","size_leaf_vector":"1"}},{"base_weights":[8.0425227E-1,-4.5643792E-1,1.6244103E0,-1.0270021E-2,-1.6065751E-3,9.515329E-3,2.0534594E-2],"categories":[],"categories_nodes":[],"categories_segments":[],"categories_sizes":[],"default_left":[0,0,0,0,0,0,0],"id":13,"left_children":[1,3,5,-1,-1,-1,-1],"loss_changes":[4.918749E2,3.1562206E1,8.119092E1,0E0,0E0,0E0,0E0],"parents":[2147483647,0,0,1,1,2,2],"right_children":[2,4,6,-1,-1,-1,-1],"split_conditions":[6.2E1,3.9E1,8.3E1,-1.0270021E-2,-1.6065751E-3,9.515329E-3,2.0534594E-2],"split_indices":[1,1,1,0,0,0,0],"split_type":[0,0,0,0,0,0,0],"sum_hessian":[4.74E2,1.87E2,2.87E2,6.3E1,1.24E2,1.13E2,1.74E2],"tree_param":{"num_deleted":"0","num_feature":"6","num_nodes":"7","size_leaf_vector":"1"}},{"base_weights":[-3.6900687E-1,-1.4467167E0,7.193545E-1,-2.1747787E-2,-9.07285E-3,1.9343644E-3,1.4256061E-2],"categories":[],"categories_nodes":[],"categories_segments":[],"categories_sizes":[],"default_left":[0,0,0,0,0,0,0],"id":14,"left_children":[1,3,5,-1,-1,-1,-1],"loss_changes":[5.581861E2,9.189163E1,8.775326E1,0E0,0E0,0E0,0E0],"parents":[2147483647,0,0,1,1,2,2],"right_children":[2,4,6,-1,-1,-1,-1],"split_conditions":[4.7E1,2.5E1,7.3E1,-2.1747787E-2,-9.07285E-3,1.9343644E-3,1.4256061E-2],"split_indices":[2,2,2,0,0,0,0],"split_type":[0,0,0,0,0,0,0],"sum_hessian":[4.74E2,2.38E2,2.36E2,1E2,1.38E2,1.36E2,1E2],"tree_param":{"num_deleted":"0","num_feature":"6","num_nodes":"7","size_leaf_vector":"1"}},{"base_weights":[-4.5604283E-1,-1.4449419E0,6.2160194E-1,-2.3265978E-2,-9.70909E-3,5.939297E-4,1.4080693E-2],"categories":[],"categories_nodes":[],"categories_segments":[],"categories_sizes":[],"default_left":[0,0,0,0,0,0,0],"id":15,"left_children":[1,3,5,-1,-1,-1,-1],"loss_changes":[5.070971E2,1.0138867E2,1.0072863E2,0E0,0E0,0E0,0E0],"parents":[2147483647,0,0,1,1,2,2],"right_children":[2,4,6,-1,-1,-1,-1],"split_conditions":[4.6E1,2E1,7.2E1,-2.3265978E-2,-9.70909E-3,5.939297E-4,1.4080693E-2],"split_indices":[3,3,3,0,0,0,0],"split_type":[0,0,0,0,0,0,0],"sum_hessian":[4.74E2,2.47E2,2.27E2,8.5E1,1.62E2,1.33E2,9.4E1],"tree_param":{"num_deleted":"0","num_feature":"6","num_nodes":"7","size_leaf_vector":"1"}},{"base_weights":[5.8849776E-1,-4.1139174E-1,1.611412E0,-1.5924066E-2,2.4638604E-4,9.001099E-3,1.9727286E-2],"categories":[],"categories_nodes":[],"categories_segments":[],"categories_sizes":[],"default_left":[0,0,0,0,0,0,0],"id":16,"left_children":[1,3,5,-1,-1,-1,-1],"loss_changes":[4.8649353E2,1.2414421E2,5.8620605E1,0E0,0E0,0E0,0E0],"parents":[2147483647,0,0,1,1,2,2],"right_children":[2,4,6,-1,-1,-1,-1],"split_conditions":[6.7E1,3.5E1,8.3E1,-1.5924066E-2,2.4638604E-4,9.001099E-3,1.9727286E-2],"split_indices":[4,4,4,0,0,0,0],"split_type":[0,0,0,0,0,0,0],"sum_hessian":[4.74E2,2.4E2,2.34E2,6.4E1,1.76E2,8E1,1.54E2],"tree_param":{"num_deleted":"0","num_feature":"6","num_nodes":"7","size_leaf_vector":"1"}},{"base_weights":[-3.812341E-1,-1.5228885E0,7.6202214E-1,-2.0105515E-2,-7.130314E-3,1.1759109E-3,1.343647E-2],"categories":[],"categories_nodes":[],"categories_segments":[],"categories_sizes":[],"default_left":[0,0,0,0,0,0,0],"id":17,"left_children":[1,3,5,-1,-1,-1,-1],"loss_changes":[6.211321E2,9.256152E1,8.904846E1,0E0,0E0,0E0,0E0],"parents":[2147483647,0,0,1,1,2,2],"right_children":[2,4,6,-1,-1,-1,-1],"split_conditions":[5.1E1,3.5E1,7.2E1,-2.0105515E-2,-7.130314E-3,1.1759109E-3,1.343647E-2],"split_indices":[5,5,5,0,0,0,0],"split_type":[0,0,0,0,0,0,0],"sum_hessian":[4.74E2,2.37E2,2.37E2,1.47E2,9E1,1.13E2,1.24E2],"tree_param":{"num_deleted":"0","num_feature":"6","num_nodes":"7","size_leaf_vector":"1"}},{"base_weights":[-1.8471833E-1,-1.4693745E0,8.742311E-1,-2.036814E-2,-9.582375E-3,2.9636298E-3,1.7031593E-2],"categories":[],"categories_nodes":[],"categories_segments":[],"categories_sizes":[],"default_left":[0,0,0,0,0,0,0],"id":18,"left_children":[1,3,5,-1,-1,-1,-1],"loss_changes":[6.4746796E2,6.0406677E1,1.24517166E2,0E0,0E0,0E0,0E0],"parents":[2147483647,0,0,1,1,2,2],"right_children":[2,4,6,-1,-1,-1,-1],"split_conditions":[5E1,2.8E1,8.3E1,-2.036814E-2,-9.582375E-3,2.9636298E-3,1.7031593E-2],"split_indices":[0,0,0,0,0,0,0],"split_type":[0,0,0,0,0,0,0],"sum_hessian":[4.74E2,2.14E2,2.6E2,1E2,1.14E2,1.54E2,1.06E2],"tree_param":{"num_deleted":"0","num_feature":"6","num_nodes":"7","size_leaf_vector":"1"}},{"base_weights":[7.96248E-1,-4.5193675E-1,1.6082706E0,-1.0168925E-2,-1.590639E-3,8.751785E-3,1.9935578E-2],"categories":[],"categories_nodes":[],"categories_segments":[],"categories_sizes":[],"default_left":[0,0,0,0,0,0,0],"id":19,"left_children":[1,3,5,-1,-1,-1,-1],"loss_changes":[4.8216504E2,3.0944767E1,7.96012E1,0E0,0E0,0E0,0E0],"parents":[2147483647,0,0,1,1,2,2],"right_children":[2,4,6,-1,-1,-1,-1],"split_conditions":[6.2E1,3.9E1,8.1E1,-1.0168925E-2,-1.590639E-3,8.751785E-3,1.9935578E-2],"split_indices":[1,1,1,0,0,0,0],"split_type":[0,0,0,0,0,0,0],"sum_hessian":[4.74E2,1.87E2,2.87E2,6.3E1,1.24E2,1E2,1.87E2],"tree_param":{"num_deleted":"0","num_feature":"6","num_nodes":"7","size_leaf_vector":"1"}},{"base_weights":[-3.653476E-1,-1.4323784E0,7.122293E-1,-2.1532461E-2,-8.982776E-3,1.9151627E-3,1.4114913E-2],"categories":[],"categories_nodes":[],"categories_segments":[],"categories_sizes":[],"default_left":[0,0,0,0,0,0,0],"id":20,"left_children":[1,3,5,-1,-1,-1,-1],"loss_changes":[5.471789E2,9.0084625E1,8.6024895E1,0E0,0E0,0E0,0E0],"parents":[2147483647,0,0,1,1,2,2],"right_children":[2,4,6,-1,-1,-1,-1],"split_conditions":[4.7E1,2.5E1,7.3E1,-2.1532461E-2,-8.982776E-3,1.9151627E-3,1.4114913E-2],"split_indices":[2,2,2,0,0,0,0],"split_type":[0,0,0,0,0,0,0],"sum_hessian":[4.74E2,2.38E2,2.36E2,1E2,1.38E2,1.36E2,1E2],"tree_param":{"num_deleted":"0","num_feature":"6","num_nodes":"7","size_leaf_vector":"1"}},{"base_weights":[-4.5152092E-1,-1.4306254E0,6.1545026E-1,-2.3036022E-2,-9.612596E-3,5.8803504E-4,1.3941367E-2],"categories":[],"categories_nodes":[],"categories_segments":[],"categories_sizes":[],"default_left":[0,0,0,0,0,0,0],"id":21,"left_children":[1,3,5,-1,-1,-1,-1],"loss_changes":[4.9710168E2,9.940256E1,9.874538E1,0E0,0E0,0E0,0E0],"parents":[2147483647,0,0,1,1,2,2],"right_children":[2,4,6,-1,-1,-1,-1],"split_conditions":[4.6E1,2E1,7.2E1,-2.3036022E-2,-9.612596E-3,5.8803504E-4,1.3941367E-2],"split_indices":[3,3,3,0,0,0,0],"split_type":[0,0,0,0,0,0,0],"sum_hessian":[4.74E2,2.47E2,2.27E2,8.5E1,1.62E2,1.33E2,9.4E1],"tree_param":{"num_deleted":"0","num_feature":"6","num_nodes":"7","size_leaf_vector":"1"}},{"base_weights":[5.826403E-1,-4.0734282E-1,1.5954202E0,-1.5767276E-2,2.4393709E-4,9.73821E-3,2.0029131E-2],"categories":[],"categories_nodes":[],"categories_segments":[],"categories_sizes":[],"default_left":[0,0,0,0,0,0,0],"id":22,"left_children":[1,3,5,-1,-1,-1,-1],"loss_changes":[4.7690155E2,1.2171121E2,5.75744E1,0E0,0E0,0E0,0E0],"parents":[2147483647,0,0,1,1,2,2],"right_children":[2,4,6,-1,-1,-1,-1],"split_conditions":[6.7E1,3.5E1,8.5E1,-1.5767276E-2,2.4393709E-4,9.73821E-3,2.0029131E-2],"split_indices":[4,4,4,0,0,0,0],"split_type":[0,0,0,0,0,0,0],"sum_hessian":[4.74E2,2.4E2,2.34E2,6.4E1,1.76E2,9.4E1,1.4E2],"tree_param":{"num_deleted":"0","num_feature":"6","num_nodes":"7","size_leaf_vector":"1"}},{"base_weights":[-3.7744832E-1,-1.507774E0,7.5446326E-1,-1.9905817E-2,-7.059794E-3,1.1642553E-3,1.3303179E-2],"categories":[],"categories_nodes":[],"categories_segments":[],"categories_sizes":[],"default_left":[0,0,0,0,0,0,0],"id":23,"left_children":[1,3,5,-1,-1,-1,-1],"loss_changes":[6.088662E2,9.072748E1,8.729036E1,0E0,0E0,0E0,0E0],"parents":[2147483647,0,0,1,1,2,2],"right_children":[2,4,6,-1,-1,-1,-1],"split_conditions":[5.1E1,3.5E1,7.2E1,-1.9905817E-2,-7.059794E-3,1.1642553E-3,1.3303179E-2],"split_indices":[5,5,5,0,0,0,0],"split_type":[0,0,0,0,0,0,0],"sum_hessian":[4.74E2,2.37E2,2.37E2,1.47E2,9E1,1.13E2,1.24E2],"tree_param":{"num_deleted":"0","num_feature":"6","num_nodes":"7","size_leaf_vector":"1"}},{"base_weights":[-1.8289211E-1,-1.4548202E0,8.655654E-1,-2.0166475E-2,-9.487386E-3,3.3300873E-3,1.7479504E-2],"categories":[],"categories_nodes":[],"categories_segments":[],"categories_sizes":[],"default_left":[0,0,0,0,0,0,0],"id":24,"left_children":[1,3,5,-1,-1,-1,-1],"loss_changes":[6.347015E2,5.9217804E1,1.2206703E2,0E0,0E0,0E0,0E0],"parents":[2147483647,0,0,1,1,2,2],"right_children":[2,4,6,-1,-1,-1,-1],"split_conditions":[5E1,2.8E1,8.6E1,-2.0166475E-2,-9.487386E-3,3.3300873E-3,1.7479504E-2],"split_indices":[0,0,0,0,0,0,0],"split_type":[0,0,0,0,0,0,0],"sum_hessian":[4.74E2,2.14E2,2.6E2,1E2,1.14E2,1.63E2,9.7E1],"tree_param":{"num_deleted":"0","num_feature":"6","num_nodes":"7","size_leaf_vector":"1"}},{"base_weights":[7.883212E-1,-4.4747984E-1,1.5922874E0,-1.00688245E-2,-1.574859E-3,9.321507E-3,2.0132205E-2],"categories":[],"categories_nodes":[],"categories_segments":[],"categories_sizes":[],"default_left":[0,0,0,0,0,0,0],"id":25,"left_children":[1,3,5,-1,-1,-1,-1],"loss_changes":[4.7264508E2,3.0339417E1,7.815094E1,0E0,0E0,0E0,0E0],"parents":[2147483647,0,0,1,1,2,2],"right_children":[2,4,6,-1,-1,-1,-1],"split_conditions":[6.2E1,3.9E1,8.3E1,-1.00688245E-2,-1.574859E-3,9.321507E-3,2.0132205E-2],"split_indices":[1,1,1,0,0,0,0],"split_type":[0,0,0,0,0,0,0],"sum_hessian":[4.74E2,1.87E2,2.87E2,6.3E1,1.24E2,1.13E2,1.74E2],"tree_param":{"num_deleted":"0","num_feature":"6","num_nodes":"7","size_leaf_vector":"1"}},{"base_weights":[-3.6172462E-1,-1.511155E0,6.191586E-1,-2.1760179E-2,-1.003153E-2,1.1448805E-3,1.3975161E-2],"categories":[],"categories_nodes":[],"categories_segments":[],"categories_sizes":[],"default_left":[0,0,0,0,0,0,0],"id":26,"left_children":[1,3,5,-1,-1,-1,-1],"loss_changes":[5.364777E2,7.178473E1,1.0079323E2,0E0,0E0,0E0,0E0],"parents":[2147483647,0,0,1,1,2,2],"right_children":[2,4,6,-1,-1,-1,-1],"split_conditions":[4.5E1,2.4E1,7.3E1,-2.1760179E-2,-1.003153E-2,1.1448805E-3,1.3975161E-2],"split_indices":[2,2,2,0,0,0,0],"split_type":[0,0,0,0,0,0,0],"sum_hessian":[4.74E2,2.18E2,2.56E2,9.3E1,1.25E2,1.56E2,1E2],"tree_param":{"num_deleted":"0","num_feature":"6","num_nodes":"7","size_leaf_vector":"1"}},{"base_weights":[-4.4704384E-1,-1.4164509E0,6.093596E-1,-2.2808341E-2,-9.517059E-3,5.8219954E-4,1.3803422E-2],"categories":[],"categories_nodes":[],"categories_segments":[],"categories_sizes":[],"default_left":[0,0,0,0,0,0,0],"id":27,"left_children":[1,3,5,-1,-1,-1,-1],"loss_changes":[4.8730344E2,9.745532E1,9.68012E1,0E0,0E0,0E0,0E0],"parents":[2147483647,0,0,1,1,2,2],"right_children":[2,4,6,-1,-1,-1,-1],"split_conditions":[4.6E1,2E1,7.2E1,-2.2808341E-2,-9.517059E-3,5.8219954E-4,1.3803422E-2],"split_indices":[3,3,3,0,0,0,0],"split_type":[0,0,0,0,0,0,0],"sum_hessian":[4.74E2,2.47E2,2.27E2,8.5E1,1.62E2,1.33E2,9.4E1],"tree_param":{"num_deleted":"0","num_feature":"6","num_nodes":"7","size_leaf_vector":"1"}},{"base_weights":[5.768439E-1,-4.0333375E-1,1.5795927E0,-1.56120295E-2,2.4151184E-4,8.81602E-3,1.9341582E-2],"categories":[],"categories_nodes":[],"categories_segments":[],"categories_sizes":[],"default_left":[0,0,0,0,0,0,0],"id":28,"left_children":[1,3,5,-1,-1,-1,-1],"loss_changes":[4.6750134E2,1.1932588E2,5.645343E1,0E0,0E0,0E0,0E0],"parents":[2147483647,0,0,1,1,2,2],"right_children":[2,4,6,-1,-1,-1,-1],"split_conditions":[6.7E1,3.5E1,8.3E1,-1.56120295E-2,2.4151184E-4,8.81602E-3,1.9341582E-2],"split_indices":[4,4,4,0,0,0,0],"split_type":[0,0,0,0,0,0,0],"sum_hessian":[4.74E2,2.4E2,2.34E2,6.4E1,1.76E2,8E1,1.54E2],"tree_param":{"num_deleted":"0","num_feature":"6","num_nodes":"7","size_leaf_vector":"1"}},{"base_weights":[-3.7370014E-1,-1.4928095E0,7.469794E-1,-1.9708103E-2,-6.9899717E-3,1.1527154E-3,1.3171211E-2],"categories":[],"categories_nodes":[],"categories_segments":[],"categories_sizes":[],"default_left":[0,0,0,0,0,0,0],"id":29,"left_children":[1,3,5,-1,-1,-1,-1],"loss_changes":[5.968425E2,8.892987E1,8.556697E1,0E0,0E0,0E0,0E0],"parents":[2147483647,0,0,1,1,2,2],"right_children":[2,4,6,-1,-1,-1,-1],"split_conditions":[5.1E1,3.5E1,7.2E1,-1.9708103E-2,-6.9899717E-3,1.1527154E-3,1.3171211E-2],"split_indices":[5,5,5,0,0,0,0],"split_type":[0,0,0,0,0,0,0],"sum_hessian":[4.74E2,2.37E2,2.37E2,1.47E2,9E1,1.13E2,1.24E2],"tree_param":{"num_deleted":"0","num_feature":"6","num_nodes":"7","size_leaf_vector":"1"}},{"base_weights":[-1.8108179E-1,-1.4404099E0,8.569896E-1,-1.9966807E-2,-9.393336E-3,2.9011006E-3,1.6701609E-2],"categories":[],"categories_nodes":[],"categories_segments":[],"categories_sizes":[],"default_left":[0,0,0,0,0,0,0],"id":30,"left_children":[1,3,5,-1,-1,-1,-1],"loss_changes":[6.2218884E2,5.8052277E1,1.1982872E2,0E0,0E0,0E0,0E0],"parents":[2147483647,0,0,1,1,2,2],"right_children":[2,4,6,-1,-1,-1,-1],"split_conditions":[5E1,2.8E1,8.3E1,-1.9966807E-2,-9.393336E-3,2.9011006E-3,1.6701609E-2],"split_indices":[0,0,0,0,0,0,0],"split_type":[0,0,0,0,0,0,0],"sum_hessian":[4.74E2,2.14E2,2.6E2,1E2,1.14E2,1.54E2,1.06E2],"tree_param":{"num_deleted":"0","num_feature":"6","num_nodes":"7","size_leaf_vector":"1"}},{"base_weights":[7.8047544E-1,-4.43067E-1,1.5764668E0,-9.969708E-3,-1.5592374E-3,8.572842E-3,1.9544506E-2],"categories":[],"categories_nodes":[],"categories_segments":[],"categories_sizes":[],"default_left":[0,0,0,0,0,0,0],"id":31,"left_children":[1,3,5,-1,-1,-1,-1],"loss_changes":[4.6331482E2,2.9745903E1,7.661426E1,0E0,0E0,0E0,0E0],"parents":[2147483647,0,0,1,1,2,2],"right_children":[2,4,6,-1,-1,-1,-1],"split_conditions":[6.2E1,3.9E1,8.1E1,-9.969708E-3,-1.5592374E-3,8.572842E-3,1.9544506E-2],"split_indices":[1,1,1,0,0,0,0],"split_type":[0,0,0,0,0,0,0],"sum_hessian":[4.74E2,1.87E2,2.87E2,6.3E1,1.24E2,1E2,1.87E2],"tree_param":{"num_deleted":"0","num_feature":"6","num_nodes":"7","size_leaf_vector":"1"}},{"base_weights":[-3.581425E-1,-1.4045643E0,6.98621E-1,-2.111195E-2,-8.810083E-3,2.6849695E-3,1.5236932E-2],"categories":[],"categories_nodes":[],"categories_segments":[],"categories_sizes":[],"default_left":[0,0,0,0,0,0,0],"id":32,"left_children":[1,3,5,-1,-1,-1,-1],"loss_changes":[5.262459E2,8.656061E1,8.369826E1,0E0,0E0,0E0,0E0],"parents":[2147483647,0,0,1,1,2,2],"right_children":[2,4,6,-1,-1,-1,-1],"split_conditions":[4.7E1,2.5E1,7.5E1,-2.111195E-2,-8.810083E-3,2.6849695E-3,1.5236932E-2],"split_indices":[2,2,3,0,0,0,0],"split_type":[0,0,0,0,0,0,0],"sum_hessian":[4.74E2,2.38E2,2.36E2,1E2,1.38E2,1.56E2,8E1],"tree_param":{"num_deleted":"0","num_feature":"6","num_nodes":"7","size_leaf_vector":"1"}},{"base_weights":[-4.4261122E-1,-1.4024167E0,6.0332906E-1,-1.9401534E-2,-6.7567816E-3,7.6953403E-4,1.39493905E-2],"categories":[],"categories_nodes":[],"categories_segments":[],"categories_sizes":[],"default_left":[0,0,0,0,0,0,0],"id":33,"left_children":[1,3,5,-1,-1,-1,-1],"loss_changes":[4.7769827E2,9.560602E1,9.489665E1,0E0,0E0,0E0,0E0],"parents":[2147483647,0,0,1,1,2,2],"right_children":[2,4,6,-1,-1,-1,-1],"split_conditions":[4.6E1,3E1,7.3E1,-1.9401534E-2,-6.7567816E-3,7.6953403E-4,1.39493905E-2],"split_indices":[3,3,3,0,0,0,0],"split_type":[0,0,0,0,0,0,0],"sum_hessian":[4.74E2,2.47E2,2.27E2,1.41E2,1.06E2,1.37E2,9E1],"tree_param":{"num_deleted":"0","num_feature":"6","num_nodes":"7","size_leaf_vector":"1"}},{"base_weights":[5.7110244E-1,-3.9936417E-1,1.5639167E0,-1.5458311E-2,2.391103E-4,9.53911E-3,1.9638218E-2],"categories":[],"categories_nodes":[],"categories_segments":[],"categories_sizes":[],"default_left":[0,0,0,0,0,0,0],"id":34,"left_children":[1,3,5,-1,-1,-1,-1],"loss_changes":[4.582838E2,1.16987274E2,5.5453613E1,0E0,0E0,0E0,0E0],"parents":[2147483647,0,0,1,1,2,2],"right_children":[2,4,6,-1,-1,-1,-1],"split_conditions":[6.7E1,3.5E1,8.5E1,-1.5458311E-2,2.391103E-4,9.53911E-3,1.9638218E-2],"split_indices":[4,4,4,0,0,0,0],"split_type":[0,0,0,0,0,0,0],"sum_hessian":[4.74E2,2.4E2,2.34E2,6.4E1,1.76E2,9.4E1,1.4E2],"tree_param":{"num_deleted":"0","num_feature":"6","num_nodes":"7","size_leaf_vector":"1"}},{"base_weights":[-3.699892E-1,-1.5454185E0,6.763051E-1,-1.9512352E-2,-7.453366E-3,5.7984155E-4,1.3040553E-2],"categories":[],"categories_nodes":[],"categories_segments":[],"categories_sizes":[],"default_left":[0,0,0,0,0,0,0],"id":35,"left_children":[1,3,5,-1,-1,-1,-1],"loss_changes":[5.8522156E2,7.127551E1,9.773848E1,0E0,0E0,0E0,0E0],"parents":[2147483647,0,0,1,1,2,2],"right_children":[2,4,6,-1,-1,-1,-1],"split_conditions":[4.9E1,3.5E1,7.2E1,-1.9512352E-2,-7.453366E-3,5.7984155E-4,1.3040553E-2],"split_indices":[5,5,5,0,0,0,0],"split_type":[0,0,0,0,0,0,0],"sum_hessian":[4.74E2,2.23E2,2.51E2,1.47E2,7.6E1,1.27E2,1.24E2],"tree_param":{"num_deleted":"0","num_feature":"6","num_nodes":"7","size_leaf_vector":"1"}},{"base_weights":[-1.7929149E-1,-1.4261423E0,8.484948E-1,-1.9769115E-2,-9.300219E-3,3.2605832E-3,1.714118E-2],"categories":[],"categories_nodes":[],"categories_segments":[],"categories_sizes":[],"default_left":[0,0,0,0,0,0,0],"id":36,"left_children":[1,3,5,-1,-1,-1,-1],"loss_changes":[6.099207E2,5.690973E1,1.1747398E2,0E0,0E0,0E0,0E0],"parents":[2147483647,0,0,1,1,2,2],"right_children":[2,4,6,-1,-1,-1,-1],"split_conditions":[5E1,2.8E1,8.6E1,-1.9769115E-2,-9.300219E-3,3.2605832E-3,1.714118E-2],"split_indices":[0,0,0,0,0,0,0],"split_type":[0,0,0,0,0,0,0],"sum_hessian":[4.74E2,2.14E2,2.6E2,1E2,1.14E2,1.63E2,9.7E1],"tree_param":{"num_deleted":"0","num_feature":"6","num_nodes":"7","size_leaf_vector":"1"}},{"base_weights":[7.727056E-1,-4.3869767E-1,1.5607997E0,-9.8715685E-3,-1.5437695E-3,9.1316225E-3,1.9737704E-2],"categories":[],"categories_nodes":[],"categories_segments":[],"categories_sizes":[],"default_left":[0,0,0,0,0,0,0],"id":37,"left_children":[1,3,5,-1,-1,-1,-1],"loss_changes":[4.5416708E2,2.9164005E1,7.522479E1,0E0,0E0,0E0,0E0],"parents":[2147483647,0,0,1,1,2,2],"right_children":[2,4,6,-1,-1,-1,-1],"split_conditions":[6.2E1,3.9E1,8.3E1,-9.8715685E-3,-1.5437695E-3,9.1316225E-3,1.9737704E-2],"split_indices":[1,1,1,0,0,0,0],"split_type":[0,0,0,0,0,0,0],"sum_hessian":[4.74E2,1.87E2,2.87E2,6.3E1,1.24E2,1.13E2,1.74E2],"tree_param":{"num_deleted":"0","num_feature":"6","num_nodes":"7","size_leaf_vector":"1"}},{"base_weights":[-3.5458636E-1,-1.4818016E0,6.073386E-1,-2.1336019E-2,-9.8377755E-3,1.1134736E-3,1.3723217E-2],"categories":[],"categories_nodes":[],"categories_segments":[],"categories_sizes":[],"default_left":[0,0,0,0,0,0,0],"id":38,"left_children":[1,3,5,-1,-1,-1,-1],"loss_changes":[5.1594073E2,6.899109E1,9.735939E1,0E0,0E0,0E0,0E0],"parents":[2147483647,0,0,1,1,2,2],"right_children":[2,4,6,-1,-1,-1,-1],"split_conditions":[4.5E1,2.4E1,7.3E1,-2.1336019E-2,-9.8377755E-3,1.1134736E-3,1.3723217E-2],"split_indices":[2,2,2,0,0,0,0],"split_type":[0,0,0,0,0,0,0],"sum_hessian":[4.74E2,2.18E2,2.56E2,9.3E1,1.25E2,1.56E2,1E2],"tree_param":{"num_deleted":"0","num_feature":"6","num_nodes":"7","size_leaf_vector":"1"}},{"base_weights":[-4.382092E-1,-1.6232691E0,3.9289775E-1,-2.239115E-2,-1.1315031E-2,-9.981233E-4,1.3534364E-2],"categories":[],"categories_nodes":[],"categories_segments":[],"categories_sizes":[],"default_left":[0,0,0,0,0,0,0],"id":39,"left_children":[1,3,5,-1,-1,-1,-1],"loss_changes":[4.6847076E2,5.682544E1,1.3264987E2,0E0,0E0,0E0,0E0],"parents":[2147483647,0,0,1,1,2,2],"right_children":[2,4,6,-1,-1,-1,-1],"split_conditions":[3.9E1,2E1,7.2E1,-2.239115E-2,-1.1315031E-2,-9.981233E-4,1.3534364E-2],"split_indices":[3,3,3,0,0,0,0],"split_type":[0,0,0,0,0,0,0],"sum_hessian":[4.74E2,1.95E2,2.79E2,8.5E1,1.1E2,1.85E2,9.4E1],"tree_param":{"num_deleted":"0","num_feature":"6","num_nodes":"7","size_leaf_vector":"1"}},{"base_weights":[5.6542075E-1,-3.954337E-1,1.5484016E0,-1.5306105E-2,2.3673246E-4,8.634735E-3,1.896342E-2],"categories":[],"categories_nodes":[],"categories_segments":[],"categories_sizes":[],"default_left":[0,0,0,0,0,0,0],"id":40,"left_children":[1,3,5,-1,-1,-1,-1],"loss_changes":[4.4925046E2,1.146945E2,5.4366516E1,0E0,0E0,0E0,0E0],"parents":[2147483647,0,0,1,1,2,2],"right_children":[2,4,6,-1,-1,-1,-1],"split_conditions":[6.7E1,3.5E1,8.3E1,-1.5306105E-2,2.3673246E-4,8.634735E-3,1.896342E-2],"split_indices":[4,4,4,0,0,0,0],"split_type":[0,0,0,0,0,0,0],"sum_hessian":[4.74E2,2.4E2,2.34E2,6.4E1,1.76E2,8E1,1.54E2],"tree_param":{"num_deleted":"0","num_feature":"6","num_nodes":"7","size_leaf_vector":"1"}},{"base_weights":[-3.6631736E-1,-1.4635959E0,7.3250026E-1,-1.9318547E-2,-6.8594837E-3,1.1355416E-3,1.291119E-2],"categories":[],"categories_nodes":[],"categories_segments":[],"categories_sizes":[],"default_left":[0,0,0,0,0,0,0],"id":41,"left_children":[1,3,5,-1,-1,-1,-1],"loss_changes":[5.737838E2,8.534024E1,8.214306E1,0E0,0E0,0E0,0E0],"parents":[2147483647,0,0,1,1,2,2],"right_children":[2,4,6,-1,-1,-1,-1],"split_conditions":[5.1E1,3.5E1,7.2E1,-1.9318547E-2,-6.8594837E-3,1.1355416E-3,1.291119E-2],"split_indices":[5,5,5,0,0,0,0],"split_type":[0,0,0,0,0,0,0],"sum_hessian":[4.74E2,2.37E2,2.37E2,1.47E2,9E1,1.13E2,1.24E2],"tree_param":{"num_deleted":"0","num_feature":"6","num_nodes":"7","size_leaf_vector":"1"}},{"base_weights":[-1.7751679E-1,-1.412016E0,8.40088E-1,-1.9677166E-2,-9.297392E-3,2.3409924E-3,1.5724804E-2],"categories":[],"categories_nodes":[],"categories_segments":[],"categories_sizes":[],"default_left":[0,0,0,0,0,0,0],"id":42,"left_children":[1,3,5,-1,-1,-1,-1],"loss_changes":[5.978966E2,5.5790863E1,1.15469315E2,0E0,0E0,0E0,0E0],"parents":[2147483647,0,0,1,1,2,2],"right_children":[2,4,6,-1,-1,-1,-1],"split_conditions":[5E1,2.7E1,8E1,-1.9677166E-2,-9.297392E-3,2.3409924E-3,1.5724804E-2],"split_indices":[0,0,0,0,0,0,0],"split_type":[0,0,0,0,0,0,0],"sum_hessian":[4.74E2,2.14E2,2.6E2,9.8E1,1.16E2,1.43E2,1.17E2],"tree_param":{"num_deleted":"0","num_feature":"6","num_nodes":"7","size_leaf_vector":"1"}},{"base_weights":[7.6501524E-1,-1.6890295E-1,1.7690012E0,-6.4694267E-3,4.9462225E-3,1.5206968E-2,2.2893216E-2],"categories":[],"categories_nodes":[],"categories_segments":[],"categories_sizes":[],"default_left":[0,0,0,0,0,0,0],"id":43,"left_children":[1,3,5,-1,-1,-1,-1],"loss_changes":[4.4567813E2,7.866627E1,2.610498E1,0E0,0E0,0E0,0E0],"parents":[2147483647,0,0,1,1,2,2],"right_children":[2,4,6,-1,-1,-1,-1],"split_conditions":[7.2E1,5.2E1,1.08E2,-6.4694267E-3,4.9462225E-3,1.5206968E-2,2.2893216E-2],"split_indices":[1,1,1,0,0,0,0],"split_type":[0,0,0,0,0,0,0],"sum_hessian":[4.74E2,2.46E2,2.28E2,1.43E2,1.03E2,1.57E2,7.1E1],"tree_param":{"num_deleted":"0","num_feature":"6","num_nodes":"7","size_leaf_vector":"1"}},{"base_weights":[-3.510748E-1,-1.3772893E0,6.852811E-1,-2.069964E-2,-8.640703E-3,2.6231317E-3,1.4966475E-2],"categories":[],"categories_nodes":[],"categories_segments":[],"categories_sizes":[],"default_left":[0,0,0,0,0,0,0],"id":44,"left_children":[1,3,5,-1,-1,-1,-1],"loss_changes":[5.061175E2,8.317444E1,8.094154E1,0E0,0E0,0E0,0E0],"parents":[2147483647,0,0,1,1,2,2],"right_children":[2,4,6,-1,-1,-1,-1],"split_conditions":[4.7E1,2.5E1,7.5E1,-2.069964E-2,-8.640703E-3,2.6231317E-3,1.4966475E-2],"split_indices":[2,2,3,0,0,0,0],"split_type":[0,0,0,0,0,0,0],"sum_hessian":[4.74E2,2.38E2,2.36E2,1E2,1.38E2,1.56E2,8E1],"tree_param":{"num_deleted":"0","num_feature":"6","num_nodes":"7","size_leaf_vector":"1"}},{"base_weights":[-4.338717E-1,-1.3755956E0,5.923625E-1,-2.2169841E-2,-9.232334E-3,2.1296514E-3,1.6511258E-2],"categories":[],"categories_nodes":[],"categories_segments":[],"categories_sizes":[],"default_left":[0,0,0,0,0,0,0],"id":45,"left_children":[1,3,5,-1,-1,-1,-1],"loss_changes":[4.5986877E2,9.234506E1,9.123415E1,0E0,0E0,0E0,0E0],"parents":[2147483647,0,0,1,1,2,2],"right_children":[2,4,6,-1,-1,-1,-1],"split_conditions":[4.6E1,2E1,8.3E1,-2.2169841E-2,-9.232334E-3,2.1296514E-3,1.6511258E-2],"split_indices":[3,3,3,0,0,0,0],"split_type":[0,0,0,0,0,0,0],"sum_hessian":[4.74E2,2.47E2,2.27E2,8.5E1,1.62E2,1.68E2,5.9E1],"tree_param":{"num_deleted":"0","num_feature":"6","num_nodes":"7","size_leaf_vector":"1"}},{"base_weights":[5.5979294E-1,-3.9154193E-1,1.533035E0,-1.6950388E-2,-3.2734664E-4,9.344062E-3,1.925494E-2],"categories":[],"categories_nodes":[],"categories_segments":[],"categories_sizes":[],"default_left":[0,0,0,0,0,0,0],"id":46,"left_children":[1,3,5,-1,-1,-1,-1],"loss_changes":[4.4039288E2,1.1266122E2,5.341101E1,0E0,0E0,0E0,0E0],"parents":[2147483647,0,0,1,1,2,2],"right_children":[2,4,6,-1,-1,-1,-1],"split_conditions":[6.7E1,3.1E1,8.5E1,-1.6950388E-2,-3.2734664E-4,9.344062E-3,1.925494E-2],"split_indices":[4,4,4,0,0,0,0],"split_type":[0,0,0,0,0,0,0],"sum_hessian":[4.74E2,2.4E2,2.34E2,5.1E1,1.89E2,9.4E1,1.4E2],"tree_param":{"num_deleted":"0","num_feature":"6","num_nodes":"7","size_leaf_vector":"1"}},{"base_weights":[-3.626797E-1,-1.5150795E0,6.631149E-1,-1.9126667E-2,-7.3120957E-3,5.7156605E-4,1.2783112E-2],"categories":[],"categories_nodes":[],"categories_segments":[],"categories_sizes":[],"default_left":[0,0,0,0,0,0,0],"id":47,"left_children":[1,3,5,-1,-1,-1,-1],"loss_changes":[5.625143E2,6.8412476E1,9.386835E1,0E0,0E0,0E0,0E0],"parents":[2147483647,0,0,1,1,2,2],"right_children":[2,4,6,-1,-1,-1,-1],"split_conditions":[4.9E1,3.5E1,7.2E1,-1.9126667E-2,-7.3120957E-3,5.7156605E-4,1.2783112E-2],"split_indices":[5,5,5,0,0,0,0],"split_type":[0,0,0,0,0,0,0],"sum_hessian":[4.74E2,2.23E2,2.51E2,1.47E2,7.6E1,1.27E2,1.24E2],"tree_param":{"num_deleted":"0","num_feature":"6","num_nodes":"7","size_leaf_vector":"1"}},{"base_weights":[-1.7576464E-1,-1.3980306E0,8.317563E-1,-1.9380612E-2,-9.11586E-3,2.8071236E-3,1.622224E-2],"categories":[],"categories_nodes":[],"categories_segments":[],"categories_sizes":[],"default_left":[0,0,0,0,0,0,0],"id":48,"left_children":[1,3,5,-1,-1,-1,-1],"loss_changes":[5.8610565E2,5.4712738E1,1.1323163E2,0E0,0E0,0E0,0E0],"parents":[2147483647,0,0,1,1,2,2],"right_children":[2,4,6,-1,-1,-1,-1],"split_conditions":[5E1,2.8E1,8.3E1,-1.9380612E-2,-9.11586E-3,2.8071236E-3,1.622224E-2],"split_indices":[0,0,0,0,0,0,0],"split_type":[0,0,0,0,0,0,0],"sum_hessian":[4.74E2,2.14E2,2.6E2,1E2,1.14E2,1.54E2,1.06E2],"tree_param":{"num_deleted":"0","num_feature":"6","num_nodes":"7","size_leaf_vector":"1"}},{"base_weights":[7.574421E-1,-1.6722006E-1,1.7514775E0,-6.4051813E-3,4.897236E-3,1.5055861E-2,2.2667464E-2],"categories":[],"categories_nodes":[],"categories_segments":[],"categories_sizes":[],"default_left":[0,0,0,0,0,0,0],"id":49,"left_children":[1,3,5,-1,-1,-1,-1],"loss_changes":[4.3688763E2,7.711343E1,2.5601562E1,0E0,0E0,0E0,0E0],"parents":[2147483647,0,0,1,1,2,2],"right_children":[2,4,6,-1,-1,-1,-1],"split_conditions":[7.2E1,5.2E1,1.08E2,-6.4051813E-3,4.897236E-3,1.5055861E-2,2.2667464E-2],"split_indices":[1,1,1,0,0,0,0],"split_type":[0,0,0,0,0,0,0],"sum_hessian":[4.74E2,2.46E2,2.28E2,1.43E2,1.03E2,1.57E2,7.1E1],"tree_param":{"num_deleted":"0","num_feature":"6","num_nodes":"7","size_leaf_vector":"1"}},{"base_weights":[-3.4758875E-1,-1.4530182E0,5.9574443E-1,-2.0920131E-2,-9.647756E-3,1.0828335E-3,1.3475824E-2],"categories":[],"categories_nodes":[],"categories_segments":[],"categories_sizes":[],"default_left":[0,0,0,0,0,0,0],"id":50,"left_children":[1,3,5,-1,-1,-1,-1],"loss_changes":[4.9619003E2,6.6306305E1,9.404247E1,0E0,0E0,0E0,0E0],"parents":[2147483647,0,0,1,1,2,2],"right_children":[2,4,6,-1,-1,-1,-1],"split_conditions":[4.5E1,2.4E1,7.3E1,-2.0920131E-2,-9.647756E-3,1.0828335E-3,1.3475824E-2],"split_indices":[2,2,2,0,0,0,0],"split_type":[0,0,0,0,0,0,0],"sum_hessian":[4.74E2,2.18E2,2.56E2,9.3E1,1.25E2,1.56E2,1E2],"tree_param":{"num_deleted":"0","num_feature":"6","num_nodes":"7","size_leaf_vector":"1"}},{"base_weights":[-4.2955983E-1,-1.5924125E0,3.859712E-1,-2.1950724E-2,-1.1111407E-2,-9.776136E-4,1.3290057E-2],"categories":[],"categories_nodes":[],"categories_segments":[],"categories_sizes":[],"default_left":[0,0,0,0,0,0,0],"id":51,"left_children":[1,3,5,-1,-1,-1,-1],"loss_changes":[4.5107727E2,5.4409424E1,1.27859344E2,0E0,0E0,0E0,0E0],"parents":[2147483647,0,0,1,1,2,2],"right_children":[2,4,6,-1,-1,-1,-1],"split_conditions":[3.9E1,2E1,7.2E1,-2.1950724E-2,-1.1111407E-2,-9.776136E-4,1.3290057E-2],"split_indices":[3,3,3,0,0,0,0],"split_type":[0,0,0,0,0,0,0],"sum_hessian":[4.74E2,1.95E2,2.79E2,8.5E1,1.1E2,1.85E2,9.4E1],"tree_param":{"num_deleted":"0","num_feature":"6","num_nodes":"7","size_leaf_vector":"1"}},{"base_weights":[5.542188E-1,-3.876982E-1,1.5178264E0,-1.5021751E-2,2.3763336E-4,8.457165E-3,1.8592656E-2],"categories":[],"categories_nodes":[],"categories_segments":[],"categories_sizes":[],"default_left":[0,0,0,0,0,0,0],"id":52,"left_children":[1,3,5,-1,-1,-1,-1],"loss_changes":[4.317167E2,1.105497E2,5.2356506E1,0E0,0E0,0E0,0E0],"parents":[2147483647,0,0,1,1,2,2],"right_children":[2,4,6,-1,-1,-1,-1],"split_conditions":[6.7E1,3.5E1,8.3E1,-1.5021751E-2,2.3763336E-4,8.457165E-3,1.8592656E-2],"split_indices":[4,4,4,0,0,0,0],"split_type":[0,0,0,0,0,0,0],"sum_hessian":[4.74E2,2.4E2,2.34E2,6.4E1,1.76E2,8E1,1.54E2],"tree_param":{"num_deleted":"0","num_feature":"6","num_nodes":"7","size_leaf_vector":"1"}},{"base_weights":[-3.590804E-1,-1.434955E0,7.183029E-1,-1.8936692E-2,-6.7314534E-3,1.1186205E-3,1.2656305E-2],"categories":[],"categories_nodes":[],"categories_segments":[],"categories_sizes":[],"default_left":[0,0,0,0,0,0,0],"id":53,"left_children":[1,3,5,-1,-1,-1,-1],"loss_changes":[5.516171E2,8.189511E1,7.885582E1,0E0,0E0,0E0,0E0],"parents":[2147483647,0,0,1,1,2,2],"right_children":[2,4,6,-1,-1,-1,-1],"split_conditions":[5.1E1,3.5E1,7.2E1,-1.8936692E-2,-6.7314534E-3,1.1186205E-3,1.2656305E-2],"split_indices":[5,5,5,0,0,0,0],"split_type":[0,0,0,0,0,0,0],"sum_hessian":[4.74E2,2.37E2,2.37E2,1.47E2,9E1,1.13E2,1.24E2],"tree_param":{"num_deleted":"0","num_feature":"6","num_nodes":"7","size_leaf_vector":"1"}},{"base_weights":[-1.740269E-1,-1.3841829E0,8.2351166E-1,-1.8444479E-2,-8.262517E-3,3.1533244E-3,1.6655307E-2],"categories":[],"categories_nodes":[],"categories_segments":[],"categories_sizes":[],"default_left":[0,0,0,0,0,0,0],"id":54,"left_children":[1,3,5,-1,-1,-1,-1],"loss_changes":[5.745491E2,5.3687164E1,1.1115584E2,0E0,0E0,0E0,0E0],"parents":[2147483647,0,0,1,1,2,2],"right_children":[2,4,6,-1,-1,-1,-1],"split_conditions":[5E1,3.1E1,8.6E1,-1.8444479E-2,-8.262517E-3,3.1533244E-3,1.6655307E-2],"split_indices":[0,0,0,0,0,0,0],"split_type":[0,0,0,0,0,0,0],"sum_hessian":[4.74E2,2.14E2,2.6E2,1.16E2,9.8E1,1.63E2,9.7E1],"tree_param":{"num_deleted":"0","num_feature":"6","num_nodes":"7","size_leaf_vector":"1"}},{"base_weights":[7.499439E-1,-4.268823E-1,1.515546E0,-9.647662E-3,-1.4807066E-3,8.846812E-3,1.917849E-2],"categories":[],"categories_nodes":[],"categories_segments":[],"categories_sizes":[],"default_left":[0,0,0,0,0,0,0],"id":55,"left_children":[1,3,5,-1,-1,-1,-1],"loss_changes":[4.286127E2,2.8051182E1,7.139734E1,0E0,0E0,0E0,0E0],"parents":[2147483647,0,0,1,1,2,2],"right_children":[2,4,6,-1,-1,-1,-1],"split_conditions":[6.2E1,3.9E1,8.3E1,-9.647662E-3,-1.4807066E-3,8.846812E-3,1.917849E-2],"split_indices":[1,1,1,0,0,0,0],"split_type":[0,0,0,0,0,0,0],"sum_hessian":[4.74E2,1.87E2,2.87E2,6.3E1,1.24E2,1.13E2,1.74E2],"tree_param":{"num_deleted":"0","num_feature":"6","num_nodes":"7","size_leaf_vector":"1"}},{"base_weights":[-3.441466E-1,-1.3505434E0,6.721951E-1,-2.0295376E-2,-8.474573E-3,2.5626272E-3,1.4700863E-2],"categories":[],"categories_nodes":[],"categories_segments":[],"categories_sizes":[],"default_left":[0,0,0,0,0,0,0],"id":56,"left_children":[1,3,5,-1,-1,-1,-1],"loss_changes":[4.867583E2,7.9920715E1,7.827618E1,0E0,0E0,0E0,0E0],"parents":[2147483647,0,0,1,1,2,2],"right_children":[2,4,6,-1,-1,-1,-1],"split_conditions":[4.7E1,2.5E1,7.5E1,-2.0295376E-2,-8.474573E-3,2.5626272E-3,1.4700863E-2],"split_indices":[2,2,3,0,0,0,0],"split_type":[0,0,0,0,0,0,0],"sum_hessian":[4.74E2,2.38E2,2.36E2,1E2,1.38E2,1.56E2,8E1],"tree_param":{"num_deleted":"0","num_feature":"6","num_nodes":"7","size_leaf_vector":"1"}},{"base_weights":[-4.2530796E-1,-1.3493094E0,5.816117E-1,-1.86859E-2,-6.475604E-3,2.0886506E-3,1.6218212E-2],"categories":[],"categories_nodes":[],"categories_segments":[],"categories_sizes":[],"default_left":[0,0,0,0,0,0,0],"id":57,"left_children":[1,3,5,-1,-1,-1,-1],"loss_changes":[4.4272247E2,8.916235E1,8.8064735E1,0E0,0E0,0E0,0E0],"parents":[2147483647,0,0,1,1,2,2],"right_children":[2,4,6,-1,-1,-1,-1],"split_conditions":[4.6E1,3E1,8.3E1,-1.86859E-2,-6.475604E-3,2.0886506E-3,1.6218212E-2],"split_indices":[3,3,3,0,0,0,0],"split_type":[0,0,0,0,0,0,0],"sum_hessian":[4.74E2,2.47E2,2.27E2,1.41E2,1.06E2,1.68E2,5.9E1],"tree_param":{"num_deleted":"0","num_feature":"6","num_nodes":"7","size_leaf_vector":"1"}},{"base_weights":[5.487025E-1,-3.838826E-1,1.5027633E0,-1.6636815E-2,-3.1601422E-4,1.1081381E-2,2.0829124E-2],"categories":[],"categories_nodes":[],"categories_segments":[],"categories_sizes":[],"default_left":[0,0,0,0,0,0,0],"id":58,"left_children":[1,3,5,-1,-1,-1,-1],"loss_changes":[4.232048E2,1.0860205E2,5.1493103E1,0E0,0E0,0E0,0E0],"parents":[2147483647,0,0,1,1,2,2],"right_children":[2,4,6,-1,-1,-1,-1],"split_conditions":[6.7E1,3.1E1,9.9E1,-1.6636815E-2,-3.1601422E-4,1.1081381E-2,2.0829124E-2],"split_indices":[4,4,4,0,0,0,0],"split_type":[0,0,0,0,0,0,0],"sum_hessian":[4.74E2,2.4E2,2.34E2,5.1E1,1.89E2,1.41E2,9.3E1],"tree_param":{"num_deleted":"0","num_feature":"6","num_nodes":"7","size_leaf_vector":"1"}},{"base_weights":[-3.5551465E-1,-1.4207133E0,7.1117777E-1,-1.8748606E-2,-6.6648778E-3,1.1075321E-3,1.2530754E-2],"categories":[],"categories_nodes":[],"categories_segments":[],"categories_sizes":[],"default_left":[0,0,0,0,0,0,0],"id":59,"left_children":[1,3,5,-1,-1,-1,-1],"loss_changes":[5.40724E2,8.02724E1,7.729898E1,0E0,0E0,0E0,0E0],"parents":[2147483647,0,0,1,1,2,2],"right_children":[2,4,6,-1,-1,-1,-1],"split_conditions":[5.1E1,3.5E1,7.2E1,-1.8748606E-2,-6.6648778E-3,1.1075321E-3,1.2530754E-2],"split_indices":[5,5,5,0,0,0,0],"split_type":[0,0,0,0,0,0,0],"sum_hessian":[4.74E2,2.37E2,2.37E2,1.47E2,9E1,1.13E2,1.24E2],"tree_param":{"num_deleted":"0","num_feature":"6","num_nodes":"7","size_leaf_vector":"1"}},{"base_weights":[-1.7230111E-1,-1.3704652E0,8.1535244E-1,-1.9107953E-2,-9.015494E-3,2.2585539E-3,1.5278289E-2],"categories":[],"categories_nodes":[],"categories_segments":[],"categories_sizes":[],"default_left":[0,0,0,0,0,0,0],"id":60,"left_children":[1,3,5,-1,-1,-1,-1],"loss_changes":[5.632187E2,5.275171E1,1.0927568E2,0E0,0E0,0E0,0E0],"parents":[2147483647,0,0,1,1,2,2],"right_children":[2,4,6,-1,-1,-1,-1],"split_conditions":[5E1,2.7E1,8E1,-1.9107953E-2,-9.015494E-3,2.2585539E-3,1.5278289E-2],"split_indices":[0,0,0,0,0,0,0],"split_type":[0,0,0,0,0,0,0],"sum_hessian":[4.74E2,2.14E2,2.6E2,9.8E1,1.16E2,1.43E2,1.17E2],"tree_param":{"num_deleted":"0","num_feature":"6","num_nodes":"7","size_leaf_vector":"1"}},{"base_weights":[7.424801E-1,-1.6446301E-1,1.7174691E0,-6.2911394E-3,4.8048124E-3,1.4750996E-2,2.2254819E-2],"categories":[],"categories_nodes":[],"categories_segments":[],"categories_sizes":[],"default_left":[0,0,0,0,0,0,0],"id":61,"left_children":[1,3,5,-1,-1,-1,-1],"loss_changes":[4.2030573E2,7.432175E1,2.4913208E1,0E0,0E0,0E0,0E0],"parents":[2147483647,0,0,1,1,2,2],"right_children":[2,4,6,-1,-1,-1,-1],"split_conditions":[7.2E1,5.2E1,1.08E2,-6.2911394E-3,4.8048124E-3,1.4750996E-2,2.2254819E-2],"split_indices":[1,1,1,0,0,0,0],"split_type":[0,0,0,0,0,0,0],"sum_hessian":[4.74E2,2.46E2,2.28E2,1.43E2,1.03E2,1.57E2,7.1E1],"tree_param":{"num_deleted":"0","num_feature":"6","num_nodes":"7","size_leaf_vector":"1"}},{"base_weights":[-3.4072933E-1,-1.424794E0,5.8437145E-1,-2.0512361E-2,-9.461403E-3,1.05294E-3,1.3232901E-2],"categories":[],"categories_nodes":[],"categories_segments":[],"categories_sizes":[],"default_left":[0,0,0,0,0,0,0],"id":62,"left_children":[1,3,5,-1,-1,-1,-1],"loss_changes":[4.7719543E2,6.3726166E1,9.083847E1,0E0,0E0,0E0,0E0],"parents":[2147483647,0,0,1,1,2,2],"right_children":[2,4,6,-1,-1,-1,-1],"split_conditions":[4.5E1,2.4E1,7.3E1,-2.0512361E-2,-9.461403E-3,1.05294E-3,1.3232901E-2],"split_indices":[2,2,2,0,0,0,0],"split_type":[0,0,0,0,0,0,0],"sum_hessian":[4.74E2,2.18E2,2.56E2,9.3E1,1.25E2,1.56E2,1E2],"tree_param":{"num_deleted":"0","num_feature":"6","num_nodes":"7","size_leaf_vector":"1"}},{"base_weights":[-4.2106926E-1,-1.3359178E0,5.7587594E-1,-2.1549083E-2,-8.956166E-3,5.465238E-4,1.3050136E-2],"categories":[],"categories_nodes":[],"categories_segments":[],"categories_sizes":[],"default_left":[0,0,0,0,0,0,0],"id":63,"left_children":[1,3,5,-1,-1,-1,-1],"loss_changes":[4.3399493E2,8.749945E1,8.657863E1,0E0,0E0,0E0,0E0],"parents":[2147483647,0,0,1,1,2,2],"right_children":[2,4,6,-1,-1,-1,-1],"split_conditions":[4.6E1,2E1,7.2E1,-2.1549083E-2,-8.956166E-3,5.465238E-4,1.3050136E-2],"split_indices":[3,3,3,0,0,0,0],"split_type":[0,0,0,0,0,0,0],"sum_hessian":[4.74E2,2.47E2,2.27E2,8.5E1,1.62E2,1.33E2,9.4E1],"tree_param":{"num_deleted":"0","num_feature":"6","num_nodes":"7","size_leaf_vector":"1"}},{"base_weights":[5.4324687E-1,-3.801142E-1,1.4878714E0,-1.4742675E-2,2.3841094E-4,9.043339E-3,1.8704826E-2],"categories":[],"categories_nodes":[],"categories_segments":[],"categories_sizes":[],"default_left":[0,0,0,0,0,0,0],"id":64,"left_children":[1,3,5,-1,-1,-1,-1],"loss_changes":[4.148745E2,1.06554504E2,5.077649E1,0E0,0E0,0E0,0E0],"parents":[2147483647,0,0,1,1,2,2],"right_children":[2,4,6,-1,-1,-1,-1],"split_conditions":[6.7E1,3.5E1,8.5E1,-1.4742675E-2,2.3841094E-4,9.043339E-3,1.8704826E-2],"split_indices":[4,4,4,0,0,0,0],"split_type":[0,0,0,0,0,0,0],"sum_hessian":[4.74E2,2.4E2,2.34E2,6.4E1,1.76E2,9.4E1,1.4E2],"tree_param":{"num_deleted":"0","num_feature":"6","num_nodes":"7","size_leaf_vector":"1"}},{"base_weights":[-3.5198426E-1,-1.4707706E0,6.4388925E-1,-1.8562388E-2,-7.1076993E-3,5.608958E-4,1.2406449E-2],"categories":[],"categories_nodes":[],"categories_segments":[],"categories_sizes":[],"default_left":[0,0,0,0,0,0,0],"id":65,"left_children":[1,3,5,-1,-1,-1,-1],"loss_changes":[5.301777E2,6.4302734E1,8.8325165E1,0E0,0E0,0E0,0E0],"parents":[2147483647,0,0,1,1,2,2],"right_children":[2,4,6,-1,-1,-1,-1],"split_conditions":[4.9E1,3.5E1,7.2E1,-1.8562388E-2,-7.1076993E-3,5.608958E-4,1.2406449E-2],"split_indices":[5,5,5,0,0,0,0],"split_type":[0,0,0,0,0,0,0],"sum_hessian":[4.74E2,2.23E2,2.51E2,1.47E2,7.6E1,1.27E2,1.24E2],"tree_param":{"num_deleted":"0","num_feature":"6","num_nodes":"7","size_leaf_vector":"1"}},{"base_weights":[-1.7060035E-1,-1.3568913E0,8.072661E-1,-1.8087689E-2,-8.0914805E-3,3.083658E-3,1.6339231E-2],"categories":[],"categories_nodes":[],"categories_segments":[],"categories_sizes":[],"default_left":[0,0,0,0,0,0,0],"id":66,"left_children":[1,3,5,-1,-1,-1,-1],"loss_changes":[5.521116E2,5.175168E1,1.07137634E2,0E0,0E0,0E0,0E0],"parents":[2147483647,0,0,1,1,2,2],"right_children":[2,4,6,-1,-1,-1,-1],"split_conditions":[5E1,3.1E1,8.6E1,-1.8087689E-2,-8.0914805E-3,3.083658E-3,1.6339231E-2],"split_indices":[0,0,0,0,0,0,0],"split_type":[0,0,0,0,0,0,0],"sum_hessian":[4.74E2,2.14E2,2.6E2,1.16E2,9.8E1,1.63E2,9.7E1],"tree_param":{"num_deleted":"0","num_feature":"6","num_nodes":"7","size_leaf_vector":"1"}},{"base_weights":[7.3513013E-1,-4.1901186E-1,1.4859759E0,-9.490765E-3,-1.4426666E-3,8.04166E-3,1.8443631E-2],"categories":[],"categories_nodes":[],"categories_segments":[],"categories_sizes":[],"default_left":[0,0,0,0,0,0,0],"id":67,"left_children":[1,3,5,-1,-1,-1,-1],"loss_changes":[4.1224933E2,2.7242027E1,6.88902E1,0E0,0E0,0E0,0E0],"parents":[2147483647,0,0,1,1,2,2],"right_children":[2,4,6,-1,-1,-1,-1],"split_conditions":[6.2E1,3.9E1,8.1E1,-9.490765E-3,-1.4426666E-3,8.04166E-3,1.8443631E-2],"split_indices":[1,1,1,0,0,0,0],"split_type":[0,0,0,0,0,0,0],"sum_hessian":[4.74E2,1.87E2,2.87E2,6.3E1,1.24E2,1E2,1.87E2],"tree_param":{"num_deleted":"0","num_feature":"6","num_nodes":"7","size_leaf_vector":"1"}},{"base_weights":[-3.3735505E-1,-1.3243161E0,6.593583E-1,-1.9898998E-2,-8.311631E-3,3.7143626E-3,1.7853133E-2],"categories":[],"categories_nodes":[],"categories_segments":[],"categories_sizes":[],"default_left":[0,0,0,0,0,0,0],"id":68,"left_children":[1,3,5,-1,-1,-1,-1],"loss_changes":[4.68139E2,7.679416E1,7.616926E1,0E0,0E0,0E0,0E0],"parents":[2147483647,0,0,1,1,2,2],"right_children":[2,4,6,-1,-1,-1,-1],"split_conditions":[4.7E1,2.5E1,8.9E1,-1.9898998E-2,-8.311631E-3,3.7143626E-3,1.7853133E-2],"split_indices":[2,2,3,0,0,0,0],"split_type":[0,0,0,0,0,0,0],"sum_hessian":[4.74E2,2.38E2,2.36E2,1E2,1.38E2,1.89E2,4.7E1],"tree_param":{"num_deleted":"0","num_feature":"6","num_nodes":"7","size_leaf_vector":"1"}},{"base_weights":[-4.1689414E-1,-1.5470588E0,3.7571007E-1,-2.13361E-2,-1.0786764E-2,-9.435898E-4,1.2921009E-2],"categories":[],"categories_nodes":[],"categories_segments":[],"categories_sizes":[],"default_left":[0,0,0,0,0,0,0],"id":69,"left_children":[1,3,5,-1,-1,-1,-1],"loss_changes":[4.260736E2,5.1545593E1,1.2073667E2,0E0,0E0,0E0,0E0],"parents":[2147483647,0,0,1,1,2,2],"right_children":[2,4,6,-1,-1,-1,-1],"split_conditions":[3.9E1,2E1,7.2E1,-2.13361E-2,-1.0786764E-2,-9.435898E-4,1.2921009E-2],"split_indices":[3,3,3,0,0,0,0],"split_type":[0,0,0,0,0,0,0],"sum_hessian":[4.74E2,1.95E2,2.79E2,8.5E1,1.1E2,1.85E2,9.4E1],"tree_param":{"num_deleted":"0","num_feature":"6","num_nodes":"7","size_leaf_vector":"1"}},{"base_weights":[5.378422E-1,-3.7637326E-1,1.4731107E0,-1.6329054E-2,-3.0499324E-4,8.174873E-3,1.8062228E-2],"categories":[],"categories_nodes":[],"categories_segments":[],"categories_sizes":[],"default_left":[0,0,0,0,0,0,0],"id":70,"left_children":[1,3,5,-1,-1,-1,-1],"loss_changes":[4.0669696E2,1.04689224E2,4.9846527E1,0E0,0E0,0E0,0E0],"parents":[2147483647,0,0,1,1,2,2],"right_children":[2,4,6,-1,-1,-1,-1],"split_conditions":[6.7E1,3.1E1,8.3E1,-1.6329054E-2,-3.0499324E-4,8.174873E-3,1.8062228E-2],"split_indices":[4,4,4,0,0,0,0],"split_type":[0,0,0,0,0,0,0],"sum_hessian":[4.74E2,2.4E2,2.34E2,5.1E1,1.89E2,8E1,1.54E2],"tree_param":{"num_deleted":"0","num_feature":"6","num_nodes":"7","size_leaf_vector":"1"}},{"base_weights":[-3.484912E-1,-1.3929113E0,6.973931E-1,-1.8378017E-2,-6.5404624E-3,1.0909939E-3,1.2283378E-2],"categories":[],"categories_nodes":[],"categories_segments":[],"categories_sizes":[],"default_left":[0,0,0,0,0,0,0],"id":71,"left_children":[1,3,5,-1,-1,-1,-1],"loss_changes":[5.1983417E2,7.703195E1,7.4205635E1,0E0,0E0,0E0,0E0],"parents":[2147483647,0,0,1,1,2,2],"right_children":[2,4,6,-1,-1,-1,-1],"split_conditions":[5.1E1,3.5E1,7.2E1,-1.8378017E-2,-6.5404624E-3,1.0909939E-3,1.2283378E-2],"split_indices":[5,5,5,0,0,0,0],"split_type":[0,0,0,0,0,0,0],"sum_hessian":[4.74E2,2.37E2,2.37E2,1.47E2,9E1,1.13E2,1.24E2],"tree_param":{"num_deleted":"0","num_feature":"6","num_nodes":"7","size_leaf_vector":"1"}},{"base_weights":[-1.6890863E-1,-1.3434442E0,7.992678E-1,-1.8739752E-2,-8.830508E-3,2.2055025E-3,1.498726E-2],"categories":[],"categories_nodes":[],"categories_segments":[],"categories_sizes":[],"default_left":[0,0,0,0,0,0,0],"id":72,"left_children":[1,3,5,-1,-1,-1,-1],"loss_changes":[5.412237E2,5.0859528E1,1.05319305E2,0E0,0E0,0E0,0E0],"parents":[2147483647,0,0,1,1,2,2],"right_children":[2,4,6,-1,-1,-1,-1],"split_conditions":[5E1,2.7E1,8E1,-1.8739752E-2,-8.830508E-3,2.2055025E-3,1.498726E-2],"split_indices":[0,0,0,0,0,0,0],"split_type":[0,0,0,0,0,0,0],"sum_hessian":[4.74E2,2.14E2,2.6E2,9.8E1,1.16E2,1.43E2,1.17E2],"tree_param":{"num_deleted":"0","num_feature":"6","num_nodes":"7","size_leaf_vector":"1"}},{"base_weights":[7.278116E-1,-1.616003E-1,1.6839554E0,-6.1791283E-3,4.7177086E-3,1.4448143E-2,2.1853486E-2],"categories":[],"categories_nodes":[],"categories_segments":[],"categories_sizes":[],"default_left":[0,0,0,0,0,0,0],"id":73,"left_children":[1,3,5,-1,-1,-1,-1],"loss_changes":[4.0421484E2,7.167827E1,2.4300476E1,0E0,0E0,0E0,0E0],"parents":[2147483647,0,0,1,1,2,2],"right_children":[2,4,6,-1,-1,-1,-1],"split_conditions":[7.2E1,5.2E1,1.08E2,-6.1791283E-3,4.7177086E-3,1.4448143E-2,2.1853486E-2],"split_indices":[1,1,1,0,0,0,0],"split_type":[0,0,0,0,0,0,0],"sum_hessian":[4.74E2,2.46E2,2.28E2,1.43E2,1.03E2,1.57E2,7.1E1],"tree_param":{"num_deleted":"0","num_feature":"6","num_nodes":"7","size_leaf_vector":"1"}},{"base_weights":[-3.3399543E-1,-1.3971182E0,5.7323366E-1,-2.0112548E-2,-9.278645E-3,1.0199911E-3,1.3000712E-2],"categories":[],"categories_nodes":[],"categories_segments":[],"categories_sizes":[],"default_left":[0,0,0,0,0,0,0],"id":74,"left_children":[1,3,5,-1,-1,-1,-1],"loss_changes":[4.5893646E2,6.1246582E1,8.789271E1,0E0,0E0,0E0,0E0],"parents":[2147483647,0,0,1,1,2,2],"right_children":[2,4,6,-1,-1,-1,-1],"split_conditions":[4.5E1,2.4E1,7.3E1,-2.0112548E-2,-9.278645E-3,1.0199911E-3,1.3000712E-2],"split_indices":[2,2,2,0,0,0,0],"split_type":[0,0,0,0,0,0,0],"sum_hessian":[4.74E2,2.18E2,2.56E2,9.3E1,1.25E2,1.56E2,1E2],"tree_param":{"num_deleted":"0","num_feature":"6","num_nodes":"7","size_leaf_vector":"1"}},{"base_weights":[-4.1276762E-1,-1.3103865E0,5.6540024E-1,-1.8165791E-2,-6.263703E-3,2.0172282E-3,1.5803348E-2],"categories":[],"categories_nodes":[],"categories_segments":[],"categories_sizes":[],"default_left":[0,0,0,0,0,0,0],"id":75,"left_children":[1,3,5,-1,-1,-1,-1],"loss_changes":[4.1780133E2,8.473065E1,8.383802E1,0E0,0E0,0E0,0E0],"parents":[2147483647,0,0,1,1,2,2],"right_children":[2,4,6,-1,-1,-1,-1],"split_conditions":[4.6E1,3E1,8.3E1,-1.8165791E-2,-6.263703E-3,2.0172282E-3,1.5803348E-2],"split_indices":[3,3,3,0,0,0,0],"split_type":[0,0,0,0,0,0,0],"sum_hessian":[4.74E2,2.47E2,2.27E2,1.41E2,1.06E2,1.68E2,5.9E1],"tree_param":{"num_deleted":"0","num_feature":"6","num_nodes":"7","size_leaf_vector":"1"}},{"base_weights":[5.32484E-1,-3.726786E-1,1.4584913E0,-1.4468787E-2,2.3907238E-4,1.0725924E-2,2.025929E-2],"categories":[],"categories_nodes":[],"categories_segments":[],"categories_sizes":[],"default_left":[0,0,0,0,0,0,0],"id":76,"left_children":[1,3,5,-1,-1,-1,-1],"loss_changes":[3.9868243E2,1.0270362E2,4.9285797E1,0E0,0E0,0E0,0E0],"parents":[2147483647,0,0,1,1,2,2],"right_children":[2,4,6,-1,-1,-1,-1],"split_conditions":[6.7E1,3.5E1,9.9E1,-1.4468787E-2,2.3907238E-4,1.0725924E-2,2.025929E-2],"split_indices":[4,4,4,0,0,0,0],"split_type":[0,0,0,0,0,0,0],"sum_hessian":[4.74E2,2.4E2,2.34E2,6.4E1,1.76E2,1.41E2,9.3E1],"tree_param":{"num_deleted":"0","num_feature":"6","num_nodes":"7","size_leaf_vector":"1"}},{"base_weights":[-3.4503055E-1,-1.4418979E0,6.3133174E-1,-1.819548E-2,-6.972989E-3,5.528518E-4,1.2161528E-2],"categories":[],"categories_nodes":[],"categories_segments":[],"categories_sizes":[],"default_left":[0,0,0,0,0,0,0],"id":77,"left_children":[1,3,5,-1,-1,-1,-1],"loss_changes":[5.096068E2,6.1719513E1,8.482756E1,0E0,0E0,0E0,0E0],"parents":[2147483647,0,0,1,1,2,2],"right_children":[2,4,6,-1,-1,-1,-1],"split_conditions":[4.9E1,3.5E1,7.2E1,-1.819548E-2,-6.972989E-3,5.528518E-4,1.2161528E-2],"split_indices":[5,5,5,0,0,0,0],"split_type":[0,0,0,0,0,0,0],"sum_hessian":[4.74E2,2.23E2,2.51E2,1.47E2,7.6E1,1.27E2,1.24E2],"tree_param":{"num_deleted":"0","num_feature":"6","num_nodes":"7","size_leaf_vector":"1"}},{"base_weights":[-1.6724141E-1,-1.069791E0,1.0684222E0,-1.7046697E-2,-4.803897E-3,5.5449093E-3,1.6029162E-2],"categories":[],"categories_nodes":[],"categories_segments":[],"categories_sizes":[],"default_left":[0,0,0,0,0,0,0],"id":78,"left_children":[1,3,5,-1,-1,-1,-1],"loss_changes":[5.308856E2,1.0208563E2,5.4324554E1,0E0,0E0,0E0,0E0],"parents":[2147483647,0,0,1,1,2,2],"right_children":[2,4,6,-1,-1,-1,-1],"split_conditions":[6.1E1,3.5E1,8.6E1,-1.7046697E-2,-4.803897E-3,5.5449093E-3,1.6029162E-2],"split_indices":[0,0,0,0,0,0,0],"split_type":[0,0,0,0,0,0,0],"sum_hessian":[4.74E2,2.74E2,2E2,1.31E2,1.43E2,1.03E2,9.7E1],"tree_param":{"num_deleted":"0","num_feature":"6","num_nodes":"7","size_leaf_vector":"1"}},{"base_weights":[7.206068E-1,-4.11284E-1,1.4569778E0,-9.336514E-3,-1.4054158E-3,8.479953E-3,1.845361E-2],"categories":[],"categories_nodes":[],"categories_segments":[],"categories_sizes":[],"default_left":[0,0,0,0,0,0,0],"id":79,"left_children":[1,3,5,-1,-1,-1,-1],"loss_changes":[3.9650775E2,2.6457064E1,6.655243E1,0E0,0E0,0E0,0E0],"parents":[2147483647,0,0,1,1,2,2],"right_children":[2,4,6,-1,-1,-1,-1],"split_conditions":[6.2E1,3.9E1,8.3E1,-9.336514E-3,-1.4054158E-3,8.479953E-3,1.845361E-2],"split_indices":[1,1,1,0,0,0,0],"split_type":[0,0,0,0,0,0,0],"sum_hessian":[4.74E2,1.87E2,2.87E2,6.3E1,1.24E2,1.13E2,1.74E2],"tree_param":{"num_deleted":"0","num_feature":"6","num_nodes":"7","size_leaf_vector":"1"}},{"base_weights":[-3.3068788E-1,-1.2985975E0,6.4678496E-1,-1.9510355E-2,-8.1518125E-3,3.6332184E-3,1.755352E-2],"categories":[],"categories_nodes":[],"categories_segments":[],"categories_sizes":[],"default_left":[0,0,0,0,0,0,0],"id":80,"left_children":[1,3,5,-1,-1,-1,-1],"loss_changes":[4.5023996E2,7.378995E1,7.383661E1,0E0,0E0,0E0,0E0],"parents":[2147483647,0,0,1,1,2,2],"right_children":[2,4,6,-1,-1,-1,-1],"split_conditions":[4.7E1,2.5E1,8.9E1,-1.9510355E-2,-8.1518125E-3,3.6332184E-3,1.755352E-2],"split_indices":[2,2,3,0,0,0,0],"split_type":[0,0,0,0,0,0,0],"sum_hessian":[4.74E2,2.38E2,2.36E2,1E2,1.38E2,1.89E2,4.7E1],"tree_param":{"num_deleted":"0","num_feature":"6","num_nodes":"7","size_leaf_vector":"1"}},{"base_weights":[-4.0865386E-1,-1.5169582E0,3.6861867E-1,-2.0945672E-2,-1.0557749E-2,-9.3111687E-4,1.2687579E-2],"categories":[],"categories_nodes":[],"categories_segments":[],"categories_sizes":[],"default_left":[0,0,0,0,0,0,0],"id":81,"left_children":[1,3,5,-1,-1,-1,-1],"loss_changes":[4.0975006E2,4.9999817E1,1.1649219E2,0E0,0E0,0E0,0E0],"parents":[2147483647,0,0,1,1,2,2],"right_children":[2,4,6,-1,-1,-1,-1],"split_conditions":[3.9E1,2E1,7.2E1,-2.0945672E-2,-1.0557749E-2,-9.3111687E-4,1.2687579E-2],"split_indices":[3,3,3,0,0,0,0],"split_type":[0,0,0,0,0,0,0],"sum_hessian":[4.74E2,1.95E2,2.79E2,8.5E1,1.1E2,1.85E2,9.4E1],"tree_param":{"num_deleted":"0","num_feature":"6","num_nodes":"7","size_leaf_vector":"1"}},{"base_weights":[5.271944E-1,-3.6901093E-1,1.4440382E0,-1.6027E-2,-2.9427544E-4,1.061942E-2,2.0058852E-2],"categories":[],"categories_nodes":[],"categories_segments":[],"categories_sizes":[],"default_left":[0,0,0,0,0,0,0],"id":82,"left_children":[1,3,5,-1,-1,-1,-1],"loss_changes":[3.90831E2,1.00917465E2,4.831958E1,0E0,0E0,0E0,0E0],"parents":[2147483647,0,0,1,1,2,2],"right_children":[2,4,6,-1,-1,-1,-1],"split_conditions":[6.7E1,3.1E1,9.9E1,-1.6027E-2,-2.9427544E-4,1.061942E-2,2.0058852E-2],"split_indices":[4,4,4,0,0,0,0],"split_type":[0,0,0,0,0,0,0],"sum_hessian":[4.74E2,2.4E2,2.34E2,5.1E1,1.89E2,1.41E2,9.3E1],"tree_param":{"num_deleted":"0","num_feature":"6","num_nodes":"7","size_leaf_vector":"1"}},{"base_weights":[-3.416065E-1,-1.3656543E0,6.838767E-1,-1.8014755E-2,-6.41839E-3,1.0746991E-3,1.2040885E-2],"categories":[],"categories_nodes":[],"categories_segments":[],"categories_sizes":[],"default_left":[0,0,0,0,0,0,0],"id":83,"left_children":[1,3,5,-1,-1,-1,-1],"loss_changes":[4.9975226E2,7.3921814E1,7.123577E1,0E0,0E0,0E0,0E0],"parents":[2147483647,0,0,1,1,2,2],"right_children":[2,4,6,-1,-1,-1,-1],"split_conditions":[5.1E1,3.5E1,7.2E1,-1.8014755E-2,-6.41839E-3,1.0746991E-3,1.2040885E-2],"split_indices":[5,5,5,0,0,0,0],"split_type":[0,0,0,0,0,0,0],"sum_hessian":[4.74E2,2.37E2,2.37E2,1.47E2,9E1,1.13E2,1.24E2],"tree_param":{"num_deleted":"0","num_feature":"6","num_nodes":"7","size_leaf_vector":"1"}},{"base_weights":[-1.6556957E-1,-1.3178968E0,7.842999E-1,-1.8385503E-2,-8.660797E-3,2.1716557E-3,1.4697494E-2],"categories":[],"categories_nodes":[],"categories_segments":[],"categories_sizes":[],"default_left":[0,0,0,0,0,0,0],"id":84,"left_children":[1,3,5,-1,-1,-1,-1],"loss_changes":[5.209499E2,4.8984314E1,1.01142456E2,0E0,0E0,0E0,0E0],"parents":[2147483647,0,0,1,1,2,2],"right_children":[2,4,6,-1,-1,-1,-1],"split_conditions":[5E1,2.7E1,8E1,-1.8385503E-2,-8.660797E-3,2.1716557E-3,1.4697494E-2],"split_indices":[0,0,0,0,0,0,0],"split_type":[0,0,0,0,0,0,0],"sum_hessian":[4.74E2,2.14E2,2.6E2,9.8E1,1.16E2,1.43E2,1.17E2],"tree_param":{"num_deleted":"0","num_feature":"6","num_nodes":"7","size_leaf_vector":"1"}},{"base_weights":[7.134348E-1,-8.853934E-2,1.7345529E0,-6.069111E-3,5.141548E-3,1.5075233E-2,2.1456014E-2],"categories":[],"categories_nodes":[],"categories_segments":[],"categories_sizes":[],"default_left":[0,0,0,0,0,0,0],"id":85,"left_children":[1,3,5,-1,-1,-1,-1],"loss_changes":[3.8913593E2,8.3728096E1,1.626941E1,0E0,0E0,0E0,0E0],"parents":[2147483647,0,0,1,1,2,2],"right_children":[2,4,6,-1,-1,-1,-1],"split_conditions":[7.5E1,5.2E1,1.08E2,-6.069111E-3,5.141548E-3,1.5075233E-2,2.1456014E-2],"split_indices":[1,1,1,0,0,0,0],"split_type":[0,0,0,0,0,0,0],"sum_hessian":[4.74E2,2.66E2,2.08E2,1.43E2,1.23E2,1.37E2,7.1E1],"tree_param":{"num_deleted":"0","num_feature":"6","num_nodes":"7","size_leaf_vector":"1"}},{"base_weights":[-3.2739466E-1,-1.438975E0,5.0749415E-1,-2.0662818E-2,-1.0342431E-2,5.2528805E-4,1.277262E-2],"categories":[],"categories_nodes":[],"categories_segments":[],"categories_sizes":[],"default_left":[0,0,0,0,0,0,0],"id":86,"left_children":[1,3,5,-1,-1,-1,-1],"loss_changes":[4.4155212E2,4.965674E1,9.5192116E1,0E0,0E0,0E0,0E0],"parents":[2147483647,0,0,1,1,2,2],"right_children":[2,4,6,-1,-1,-1,-1],"split_conditions":[4.3E1,2.1E1,7.3E1,-2.0662818E-2,-1.0342431E-2,5.2528805E-4,1.277262E-2],"split_indices":[2,2,2,0,0,0,0],"split_type":[0,0,0,0,0,0,0],"sum_hessian":[4.74E2,2.03E2,2.71E2,7.8E1,1.25E2,1.71E2,1E2],"tree_param":{"num_deleted":"0","num_feature":"6","num_nodes":"7","size_leaf_vector":"1"}},{"base_weights":[-4.0460894E-1,-1.2853241E0,5.5513656E-1,-1.7818397E-2,-6.143845E-3,1.9782258E-3,1.5523187E-2],"categories":[],"categories_nodes":[],"categories_segments":[],"categories_sizes":[],"default_left":[0,0,0,0,0,0,0],"id":87,"left_children":[1,3,5,-1,-1,-1,-1],"loss_changes":[4.022132E2,8.152203E1,8.093094E1,0E0,0E0,0E0,0E0],"parents":[2147483647,0,0,1,1,2,2],"right_children":[2,4,6,-1,-1,-1,-1],"split_conditions":[4.6E1,3E1,8.3E1,-1.7818397E-2,-6.143845E-3,1.9782258E-3,1.5523187E-2],"split_indices":[3,3,3,0,0,0,0],"split_type":[0,0,0,0,0,0,0],"sum_hessian":[4.74E2,2.47E2,2.27E2,1.41E2,1.06E2,1.68E2,5.9E1],"tree_param":{"num_deleted":"0","num_feature":"6","num_nodes":"7","size_leaf_vector":"1"}},{"base_weights":[5.219526E-1,-5.4761446E-1,1.2752959E0,-1.5869813E-2,-1.7367826E-3,6.6941E-3,1.7556857E-2],"categories":[],"categories_nodes":[],"categories_segments":[],"categories_sizes":[],"default_left":[0,0,0,0,0,0,0],"id":88,"left_children":[1,3,5,-1,-1,-1,-1],"loss_changes":[3.8343018E2,7.628978E1,8.003085E1,0E0,0E0,0E0,0E0],"parents":[2147483647,0,0,1,1,2,2],"right_children":[2,4,6,-1,-1,-1,-1],"split_conditions":[6.1E1,3.1E1,8.3E1,-1.5869813E-2,-1.7367826E-3,6.6941E-3,1.7556857E-2],"split_indices":[4,4,4,0,0,0,0],"split_type":[0,0,0,0,0,0,0],"sum_hessian":[4.74E2,1.96E2,2.78E2,5.1E1,1.45E2,1.24E2,1.54E2],"tree_param":{"num_deleted":"0","num_feature":"6","num_nodes":"7","size_leaf_vector":"1"}},{"base_weights":[-3.3821428E-1,-1.3521005E0,6.7709297E-1,-1.7835826E-2,-6.354911E-3,3.2124883E-3,1.5095538E-2],"categories":[],"categories_nodes":[],"categories_segments":[],"categories_sizes":[],"default_left":[0,0,0,0,0,0,0],"id":89,"left_children":[1,3,5,-1,-1,-1,-1],"loss_changes":[4.8988342E2,7.245712E1,7.001694E1,0E0,0E0,0E0,0E0],"parents":[2147483647,0,0,1,1,2,2],"right_children":[2,4,6,-1,-1,-1,-1],"split_conditions":[5.1E1,3.5E1,8.8E1,-1.7835826E-2,-6.354911E-3,3.2124883E-3,1.5095538E-2],"split_indices":[5,5,5,0,0,0,0],"split_type":[0,0,0,0,0,0,0],"sum_hessian":[4.74E2,2.37E2,2.37E2,1.47E2,9E1,1.67E2,7E1],"tree_param":{"num_deleted":"0","num_feature":"6","num_nodes":"7","size_leaf_vector":"1"}},{"base_weights":[-1.6393536E-1,-1.0494412E0,1.0483932E0,-1.6719371E-2,-4.7153207E-3,6.477005E-3,1.7129209E-2],"categories":[],"categories_nodes":[],"categories_segments":[],"categories_sizes":[],"default_left":[0,0,0,0,0,0,0],"id":90,"left_children":[1,3,5,-1,-1,-1,-1],"loss_changes":[5.1102414E2,9.8141815E1,5.2411087E1,0E0,0E0,0E0,0E0],"parents":[2147483647,0,0,1,1,2,2],"right_children":[2,4,6,-1,-1,-1,-1],"split_conditions":[6.1E1,3.5E1,9.2E1,-1.6719371E-2,-4.7153207E-3,6.477005E-3,1.7129209E-2],"split_indices":[0,0,0,0,0,0,0],"split_type":[0,0,0,0,0,0,0],"sum_hessian":[4.74E2,2.74E2,2E2,1.31E2,1.43E2,1.26E2,7.4E1],"tree_param":{"num_deleted":"0","num_feature":"6","num_nodes":"7","size_leaf_vector":"1"}},{"base_weights":[7.063755E-1,-8.765736E-2,1.7173821E0,-6.0088406E-3,5.0905477E-3,1.4925574E-2,2.1244435E-2],"categories":[],"categories_nodes":[],"categories_segments":[],"categories_sizes":[],"default_left":[0,0,0,0,0,0,0],"id":91,"left_children":[1,3,5,-1,-1,-1,-1],"loss_changes":[3.8146744E2,8.2074265E1,1.5956299E1,0E0,0E0,0E0,0E0],"parents":[2147483647,0,0,1,1,2,2],"right_children":[2,4,6,-1,-1,-1,-1],"split_conditions":[7.5E1,5.2E1,1.08E2,-6.0088406E-3,5.0905477E-3,1.4925574E-2,2.1244435E-2],"split_indices":[1,1,1,0,0,0,0],"split_type":[0,0,0,0,0,0,0],"sum_hessian":[4.74E2,2.66E2,2.08E2,1.43E2,1.23E2,1.37E2,7.1E1],"tree_param":{"num_deleted":"0","num_feature":"6","num_nodes":"7","size_leaf_vector":"1"}},{"base_weights":[-3.24158E-1,-1.212039E0,7.017869E-1,-1.9135082E-2,-7.47133E-3,4.1523613E-3,1.7259128E-2],"categories":[],"categories_nodes":[],"categories_segments":[],"categories_sizes":[],"default_left":[0,0,0,0,0,0,0],"id":92,"left_children":[1,3,5,-1,-1,-1,-1],"loss_changes":[4.3353613E2,8.1730255E1,6.413888E1,0E0,0E0,0E0,0E0],"parents":[2147483647,0,0,1,1,2,2],"right_children":[2,4,6,-1,-1,-1,-1],"split_conditions":[5E1,2.5E1,8.9E1,-1.9135082E-2,-7.47133E-3,4.1523613E-3,1.7259128E-2],"split_indices":[2,2,3,0,0,0,0],"split_type":[0,0,0,0,0,0,0],"sum_hessian":[4.74E2,2.54E2,2.2E2,1E2,1.54E2,1.73E2,4.7E1],"tree_param":{"num_deleted":"0","num_feature":"6","num_nodes":"7","size_leaf_vector":"1"}},{"base_weights":[-4.005764E-1,-1.2725675E0,5.49662E-1,-2.0562539E-2,-8.512816E-3,1.9585611E-3,1.5370543E-2],"categories":[],"categories_nodes":[],"categories_segments":[],"categories_sizes":[],"default_left":[0,0,0,0,0,0,0],"id":93,"left_children":[1,3,5,-1,-1,-1,-1],"loss_changes":[3.9428424E2,8.0128204E1,7.934966E1,0E0,0E0,0E0,0E0],"parents":[2147483647,0,0,1,1,2,2],"right_children":[2,4,6,-1,-1,-1,-1],"split_conditions":[4.6E1,2E1,8.3E1,-2.0562539E-2,-8.512816E-3,1.9585611E-3,1.5370543E-2],"split_indices":[3,3,3,0,0,0,0],"split_type":[0,0,0,0,0,0,0],"sum_hessian":[4.74E2,2.47E2,2.27E2,8.5E1,1.62E2,1.68E2,5.9E1],"tree_param":{"num_deleted":"0","num_feature":"6","num_nodes":"7","size_leaf_vector":"1"}},{"base_weights":[5.167471E-1,-3.622074E-1,1.4159441E0,-1.4071997E-2,2.3593236E-4,1.040084E-2,1.9686695E-2],"categories":[],"categories_nodes":[],"categories_segments":[],"categories_sizes":[],"default_left":[0,0,0,0,0,0,0],"id":94,"left_children":[1,3,5,-1,-1,-1,-1],"loss_changes":[3.7593066E2,9.719446E1,4.677304E1,0E0,0E0,0E0,0E0],"parents":[2147483647,0,0,1,1,2,2],"right_children":[2,4,6,-1,-1,-1,-1],"split_conditions":[6.7E1,3.5E1,9.9E1,-1.4071997E-2,2.3593236E-4,1.040084E-2,1.9686695E-2],"split_indices":[4,4,4,0,0,0,0],"split_type":[0,0,0,0,0,0,0],"sum_hessian":[4.74E2,2.4E2,2.34E2,6.4E1,1.76E2,1.41E2,9.3E1],"tree_param":{"num_deleted":"0","num_feature":"6","num_nodes":"7","size_leaf_vector":"1"}},{"base_weights":[-3.348445E-1,-1.3997306E0,6.130496E-1,-2.127506E-2,-1.0265114E-2,5.2348856E-4,1.1823028E-2],"categories":[],"categories_nodes":[],"categories_segments":[],"categories_sizes":[],"default_left":[0,0,0,0,0,0,0],"id":95,"left_children":[1,3,5,-1,-1,-1,-1],"loss_changes":[4.803228E2,5.8658905E1,8.037164E1,0E0,0E0,0E0,0E0],"parents":[2147483647,0,0,1,1,2,2],"right_children":[2,4,6,-1,-1,-1,-1],"split_conditions":[4.9E1,1.9E1,7.2E1,-2.127506E-2,-1.0265114E-2,5.2348856E-4,1.1823028E-2],"split_indices":[5,5,5,0,0,0,0],"split_type":[0,0,0,0,0,0,0],"sum_hessian":[4.74E2,2.23E2,2.51E2,7.4E1,1.49E2,1.27E2,1.24E2],"tree_param":{"num_deleted":"0","num_feature":"6","num_nodes":"7","size_leaf_vector":"1"}},{"base_weights":[-1.6229151E-1,-1.2928363E0,7.6962197E-1,-1.9201213E-2,-9.289155E-3,2.9379611E-3,1.55804865E-2],"categories":[],"categories_nodes":[],"categories_segments":[],"categories_sizes":[],"default_left":[0,0,0,0,0,0,0],"id":96,"left_children":[1,3,5,-1,-1,-1,-1],"loss_changes":[5.0144073E2,4.7296997E1,9.745741E1,0E0,0E0,0E0,0E0],"parents":[2147483647,0,0,1,1,2,2],"right_children":[2,4,6,-1,-1,-1,-1],"split_conditions":[5E1,2.3E1,8.6E1,-1.9201213E-2,-9.289155E-3,2.9379611E-3,1.55804865E-2],"split_indices":[0,0,0,0,0,0,0],"split_type":[0,0,0,0,0,0,0],"sum_hessian":[4.74E2,2.14E2,2.6E2,7.7E1,1.37E2,1.63E2,9.7E1],"tree_param":{"num_deleted":"0","num_feature":"6","num_nodes":"7","size_leaf_vector":"1"}},{"base_weights":[6.9938594E-1,-4.0043598E-1,1.4148968E0,-9.125715E-3,-1.3501906E-3,8.235515E-3,1.792031E-2],"categories":[],"categories_nodes":[],"categories_segments":[],"categories_sizes":[],"default_left":[0,0,0,0,0,0,0],"id":97,"left_children":[1,3,5,-1,-1,-1,-1],"loss_changes":[3.7436053E2,2.5431519E1,6.275287E1,0E0,0E0,0E0,0E0],"parents":[2147483647,0,0,1,1,2,2],"right_children":[2,4,6,-1,-1,-1,-1],"split_conditions":[6.2E1,3.9E1,8.3E1,-9.125715E-3,-1.3501906E-3,8.235515E-3,1.792031E-2],"split_indices":[1,1,1,0,0,0,0],"split_type":[0,0,0,0,0,0,0],"sum_hessian":[4.74E2,1.87E2,2.87E2,6.3E1,1.24E2,1.13E2,1.74E2],"tree_param":{"num_deleted":"0","num_feature":"6","num_nodes":"7","size_leaf_vector":"1"}},{"base_weights":[-3.2092735E-1,-1.4115851E0,4.982458E-1,-2.0269878E-2,-1.0145342E-2,5.12488E-4,1.2545353E-2],"categories":[],"categories_nodes":[],"categories_segments":[],"categories_sizes":[],"default_left":[0,0,0,0,0,0,0],"id":98,"left_children":[1,3,5,-1,-1,-1,-1],"loss_changes":[4.2508615E2,4.779013E1,9.188779E1,0E0,0E0,0E0,0E0],"parents":[2147483647,0,0,1,1,2,2],"right_children":[2,4,6,-1,-1,-1,-1],"split_conditions":[4.3E1,2.1E1,7.3E1,-2.0269878E-2,-1.0145342E-2,5.12488E-4,1.2545353E-2],"split_indices":[2,2,2,0,0,0,0],"split_type":[0,0,0,0,0,0,0],"sum_hessian":[4.74E2,2.03E2,2.71E2,7.8E1,1.25E2,1.71E2,1E2],"tree_param":{"num_deleted":"0","num_feature":"6","num_nodes":"7","size_leaf_vector":"1"}},{"base_weights":[-3.9659542E-1,-1.4737432E0,3.588245E-1,-2.0359304E-2,-1.024898E-2,-9.0903137E-4,1.2355668E-2],"categories":[],"categories_nodes":[],"categories_segments":[],"categories_sizes":[],"default_left":[0,0,0,0,0,0,0],"id":99,"left_children":[1,3,5,-1,-1,-1,-1],"loss_changes":[3.8703577E2,4.7371063E1,1.1051497E2,0E0,0E0,0E0,0E0],"parents":[2147483647,0,0,1,1,2,2],"right_children":[2,4,6,-1,-1,-1,-1],"split_conditions":[3.9E1,2E1,7.2E1,-2.0359304E-2,-1.024898E-2,-9.0903137E-4,1.2355668E-2],"split_indices":[3,3,3,0,0,0,0],"split_type":[0,0,0,0,0,0,0],"sum_hessian":[4.74E2,1.95E2,2.79E2,8.5E1,1.1E2,1.85E2,9.4E1],"tree_param":{"num_deleted":"0","num_feature":"6","num_nodes":"7","size_leaf_vector":"1"}},{"base_weights":[5.1161385E-1,-5.378142E-1,1.250774E0,-1.585472E-2,-1.8024184E-3,6.5602986E-3,1.722337E-2],"categories":[],"categories_nodes":[],"categories_segments":[],"categories_sizes":[],"default_left":[0,0,0,0,0,0,0],"id":100,"left_children":[1,3,5,-1,-1,-1,-1],"loss_changes":[3.69128E2,7.3513084E1,7.7118256E1,0E0,0E0,0E0,0E0],"parents":[2147483647,0,0,1,1,2,2],"right_children":[2,4,6,-1,-1,-1,-1],"split_conditions":[6.1E1,3E1,8.3E1,-1.585472E-2,-1.8024184E-3,6.5602986E-3,1.722337E-2],"split_indices":[4,4,4,0,0,0,0],"split_type":[0,0,0,0,0,0,0],"sum_hessian":[4.74E2,1.96E2,2.78E2,4.9E1,1.47E2,1.24E2,1.54E2],"tree_param":{"num_deleted":"0","num_feature":"6","num_nodes":"7","size_leaf_vector":"1"}},{"base_weights":[-3.3153647E-1,-1.3256705E0,6.639906E-1,-1.7501665E-2,-6.207136E-3,3.44571E-3,1.5651723E-2],"categories":[],"categories_nodes":[],"categories_segments":[],"categories_sizes":[],"default_left":[0,0,0,0,0,0,0],"id":101,"left_children":[1,3,5,-1,-1,-1,-1],"loss_changes":[4.7098172E2,7.013547E1,6.79702E1,0E0,0E0,0E0,0E0],"parents":[2147483647,0,0,1,1,2,2],"right_children":[2,4,6,-1,-1,-1,-1],"split_conditions":[5.1E1,3.5E1,9.1E1,-1.7501665E-2,-6.207136E-3,3.44571E-3,1.5651723E-2],"split_indices":[5,5,5,0,0,0,0],"split_type":[0,0,0,0,0,0,0],"sum_hessian":[4.74E2,2.37E2,2.37E2,1.47E2,9E1,1.76E2,6.1E1],"tree_param":{"num_deleted":"0","num_feature":"6","num_nodes":"7","size_leaf_vector":"1"}},{"base_weights":[-1.6068956E-1,-1.0296618E0,1.0290022E0,-1.6403437E-2,-4.6271957E-3,6.3606994E-3,1.6806474E-2],"categories":[],"categories_nodes":[],"categories_segments":[],"categories_sizes":[],"default_left":[0,0,0,0,0,0,0],"id":102,"left_children":[1,3,5,-1,-1,-1,-1],"loss_changes":[4.921188E2,9.445184E1,5.0397507E1,0E0,0E0,0E0,0E0],"parents":[2147483647,0,0,1,1,2,2],"right_children":[2,4,6,-1,-1,-1,-1],"split_conditions":[6.1E1,3.5E1,9.2E1,-1.6403437E-2,-4.6271957E-3,6.3606994E-3,1.6806474E-2],"split_indices":[0,0,0,0,0,0,0],"split_type":[0,0,0,0,0,0,0],"sum_hessian":[4.74E2,2.74E2,2E2,1.31E2,1.43E2,1.26E2,7.4E1],"tree_param":{"num_deleted":"0","num_feature":"6","num_nodes":"7","size_leaf_vector":"1"}},{"base_weights":[6.9242513E-1,-1.5516491E-1,1.6036143E0,-5.9017437E-3,4.4864784E-3,1.3737242E-2,2.0858228E-2],"categories":[],"categories_nodes":[],"categories_segments":[],"categories_sizes":[],"default_left":[0,0,0,0,0,0,0],"id":103,"left_children":[1,3,5,-1,-1,-1,-1],"loss_changes":[3.6709848E2,6.514285E1,2.2520386E1,0E0,0E0,0E0,0E0],"parents":[2147483647,0,0,1,1,2,2],"right_children":[2,4,6,-1,-1,-1,-1],"split_conditions":[7.2E1,5.2E1,1.08E2,-5.9017437E-3,4.4864784E-3,1.3737242E-2,2.0858228E-2],"split_indices":[1,1,1,0,0,0,0],"split_type":[0,0,0,0,0,0,0],"sum_hessian":[4.74E2,2.46E2,2.28E2,1.43E2,1.03E2,1.57E2,7.1E1],"tree_param":{"num_deleted":"0","num_feature":"6","num_nodes":"7","size_leaf_vector":"1"}},{"base_weights":[-3.1775463E-1,-1.1889521E0,6.88911E-1,-1.8766988E-2,-7.3313676E-3,4.0686377E-3,1.6969798E-2],"categories":[],"categories_nodes":[],"categories_segments":[],"categories_sizes":[],"default_left":[0,0,0,0,0,0,0],"id":104,"left_children":[1,3,5,-1,-1,-1,-1],"loss_changes":[4.173962E2,7.856293E1,6.214495E1,0E0,0E0,0E0,0E0],"parents":[2147483647,0,0,1,1,2,2],"right_children":[2,4,6,-1,-1,-1,-1],"split_conditions":[5E1,2.5E1,8.9E1,-1.8766988E-2,-7.3313676E-3,4.0686377E-3,1.6969798E-2],"split_indices":[2,2,3,0,0,0,0],"split_type":[0,0,0,0,0,0,0],"sum_hessian":[4.74E2,2.54E2,2.2E2,1E2,1.54E2,1.73E2,4.7E1],"tree_param":{"num_deleted":"0","num_feature":"6","num_nodes":"7","size_leaf_vector":"1"}},{"base_weights":[-3.9266977E-1,-1.2482446E0,5.396777E-1,-1.7322522E-2,-5.9425076E-3,1.9206568E-3,1.5097901E-2],"categories":[],"categories_nodes":[],"categories_segments":[],"categories_sizes":[],"default_left":[0,0,0,0,0,0,0],"id":105,"left_children":[1,3,5,-1,-1,-1,-1],"loss_changes":[3.7957782E2,7.7472046E1,7.659682E1,0E0,0E0,0E0,0E0],"parents":[2147483647,0,0,1,1,2,2],"right_children":[2,4,6,-1,-1,-1,-1],"split_conditions":[4.6E1,3E1,8.3E1,-1.7322522E-2,-5.9425076E-3,1.9206568E-3,1.5097901E-2],"split_indices":[3,3,3,0,0,0,0],"split_type":[0,0,0,0,0,0,0],"sum_hessian":[4.74E2,2.47E2,2.27E2,1.41E2,1.06E2,1.68E2,5.9E1],"tree_param":{"num_deleted":"0","num_feature":"6","num_nodes":"7","size_leaf_vector":"1"}},{"base_weights":[5.065106E-1,-5.325256E-1,1.2383516E0,-1.5699342E-2,-1.7845157E-3,6.49522E-3,1.7052246E-2],"categories":[],"categories_nodes":[],"categories_segments":[],"categories_sizes":[],"default_left":[0,0,0,0,0,0,0],"id":106,"left_children":[1,3,5,-1,-1,-1,-1],"loss_changes":[3.6185388E2,7.208178E1,7.559195E1,0E0,0E0,0E0,0E0],"parents":[2147483647,0,0,1,1,2,2],"right_children":[2,4,6,-1,-1,-1,-1],"split_conditions":[6.1E1,3E1,8.3E1,-1.5699342E-2,-1.7845157E-3,6.49522E-3,1.7052246E-2],"split_indices":[4,4,4,0,0,0,0],"split_type":[0,0,0,0,0,0,0],"sum_hessian":[4.74E2,1.96E2,2.78E2,4.9E1,1.47E2,1.24E2,1.54E2],"tree_param":{"num_deleted":"0","num_feature":"6","num_nodes":"7","size_leaf_vector":"1"}},{"base_weights":[-3.282308E-1,-1.3722826E0,6.011178E-1,-2.0892462E-2,-1.0046522E-2,4.9466453E-4,1.1611998E-2],"categories":[],"categories_nodes":[],"categories_segments":[],"categories_sizes":[],"default_left":[0,0,0,0,0,0,0],"id":107,"left_children":[1,3,5,-1,-1,-1,-1],"loss_changes":[4.6171176E2,5.6942413E1,7.7803E1,0E0,0E0,0E0,0E0],"parents":[2147483647,0,0,1,1,2,2],"right_children":[2,4,6,-1,-1,-1,-1],"split_conditions":[4.9E1,1.9E1,7.2E1,-2.0892462E-2,-1.0046522E-2,4.9466453E-4,1.1611998E-2],"split_indices":[5,5,5,0,0,0,0],"split_type":[0,0,0,0,0,0,0],"sum_hessian":[4.74E2,2.23E2,2.51E2,7.4E1,1.49E2,1.27E2,1.24E2],"tree_param":{"num_deleted":"0","num_feature":"6","num_nodes":"7","size_leaf_vector":"1"}},{"base_weights":[-1.5907815E-1,-1.2682594E0,7.552247E-1,-1.884973E-2,-9.104918E-3,2.0858431E-3,1.4159109E-2],"categories":[],"categories_nodes":[],"categories_segments":[],"categories_sizes":[],"default_left":[0,0,0,0,0,0,0],"id":108,"left_children":[1,3,5,-1,-1,-1,-1],"loss_changes":[4.8266837E2,4.5721405E1,9.396684E1,0E0,0E0,0E0,0E0],"parents":[2147483647,0,0,1,1,2,2],"right_children":[2,4,6,-1,-1,-1,-1],"split_conditions":[5E1,2.3E1,8E1,-1.884973E-2,-9.104918E-3,2.0858431E-3,1.4159109E-2],"split_indices":[0,0,0,0,0,0,0],"split_type":[0,0,0,0,0,0,0],"sum_hessian":[4.74E2,2.14E2,2.6E2,7.7E1,1.37E2,1.43E2,1.17E2],"tree_param":{"num_deleted":"0","num_feature":"6","num_nodes":"7","size_leaf_vector":"1"}},{"base_weights":[6.855708E-1,-8.603946E-2,1.6680318E0,-5.843135E-3,4.9329526E-3,1.4486982E-2,2.0652542E-2],"categories":[],"categories_nodes":[],"categories_segments":[],"categories_sizes":[],"default_left":[0,0,0,0,0,0,0],"id":109,"left_children":[1,3,5,-1,-1,-1,-1],"loss_changes":[3.6023016E2,7.736245E1,1.521698E1,0E0,0E0,0E0,0E0],"parents":[2147483647,0,0,1,1,2,2],"right_children":[2,4,6,-1,-1,-1,-1],"split_conditions":[7.5E1,5.2E1,1.08E2,-5.843135E-3,4.9329526E-3,1.4486982E-2,2.0652542E-2],"split_indices":[1,1,1,0,0,0,0],"split_type":[0,0,0,0,0,0,0],"sum_hessian":[4.74E2,2.66E2,2.08E2,1.43E2,1.23E2,1.37E2,7.1E1],"tree_param":{"num_deleted":"0","num_feature":"6","num_nodes":"7","size_leaf_vector":"1"}},{"base_weights":[-3.1458774E-1,-1.2373993E0,6.173387E-1,-1.8973202E-2,-8.040435E-3,2.2824646E-3,1.3638837E-2],"categories":[],"categories_nodes":[],"categories_segments":[],"categories_sizes":[],"default_left":[0,0,0,0,0,0,0],"id":110,"left_children":[1,3,5,-1,-1,-1,-1],"loss_changes":[4.0926038E2,6.682385E1,6.853124E1,0E0,0E0,0E0,0E0],"parents":[2147483647,0,0,1,1,2,2],"right_children":[2,4,6,-1,-1,-1,-1],"split_conditions":[4.7E1,2.4E1,7.5E1,-1.8973202E-2,-8.040435E-3,2.2824646E-3,1.3638837E-2],"split_indices":[2,2,3,0,0,0,0],"split_type":[0,0,0,0,0,0,0],"sum_hessian":[4.74E2,2.38E2,2.36E2,9.3E1,1.45E2,1.56E2,8E1],"tree_param":{"num_deleted":"0","num_feature":"6","num_nodes":"7","size_leaf_vector":"1"}},{"base_weights":[-3.8875622E-1,-1.4450632E0,3.5204706E-1,-1.9986866E-2,-1.0031111E-2,-8.971097E-4,1.213257E-2],"categories":[],"categories_nodes":[],"categories_segments":[],"categories_sizes":[],"default_left":[0,0,0,0,0,0,0],"id":111,"left_children":[1,3,5,-1,-1,-1,-1],"loss_changes":[3.7220367E2,4.5951385E1,1.06633835E2,0E0,0E0,0E0,0E0],"parents":[2147483647,0,0,1,1,2,2],"right_children":[2,4,6,-1,-1,-1,-1],"split_conditions":[3.9E1,2E1,7.2E1,-1.9986866E-2,-1.0031111E-2,-8.971097E-4,1.213257E-2],"split_indices":[3,3,3,0,0,0,0],"split_type":[0,0,0,0,0,0,0],"sum_hessian":[4.74E2,1.95E2,2.79E2,8.5E1,1.1E2,1.85E2,9.4E1],"tree_param":{"num_deleted":"0","num_feature":"6","num_nodes":"7","size_leaf_vector":"1"}},{"base_weights":[5.014583E-1,-3.524229E-1,1.3750069E0,-1.3687294E-2,2.278814E-4,1.00767715E-2,1.9152815E-2],"categories":[],"categories_nodes":[],"categories_segments":[],"categories_sizes":[],"default_left":[0,0,0,0,0,0,0],"id":112,"left_children":[1,3,5,-1,-1,-1,-1],"loss_changes":[3.5479028E2,9.1931595E1,4.4707825E1,0E0,0E0,0E0,0E0],"parents":[2147483647,0,0,1,1,2,2],"right_children":[2,4,6,-1,-1,-1,-1],"split_conditions":[6.7E1,3.5E1,9.9E1,-1.3687294E-2,2.278814E-4,1.00767715E-2,1.9152815E-2],"split_indices":[4,4,4,0,0,0,0],"split_type":[0,0,0,0,0,0,0],"sum_hessian":[4.74E2,2.4E2,2.34E2,6.4E1,1.76E2,1.41E2,9.3E1],"tree_param":{"num_deleted":"0","num_feature":"6","num_nodes":"7","size_leaf_vector":"1"}},{"base_weights":[-3.2498816E-1,-1.299757E0,6.511462E-1,-1.7173816E-2,-6.062602E-3,3.3669593E-3,1.5383485E-2],"categories":[],"categories_nodes":[],"categories_segments":[],"categories_sizes":[],"default_left":[0,0,0,0,0,0,0],"id":113,"left_children":[1,3,5,-1,-1,-1,-1],"loss_changes":[4.5281137E2,6.78887E1,6.587953E1,0E0,0E0,0E0,0E0],"parents":[2147483647,0,0,1,1,2,2],"right_children":[2,4,6,-1,-1,-1,-1],"split_conditions":[5.1E1,3.5E1,9.1E1,-1.7173816E-2,-6.062602E-3,3.3669593E-3,1.5383485E-2],"split_indices":[5,5,5,0,0,0,0],"split_type":[0,0,0,0,0,0,0],"sum_hessian":[4.74E2,2.37E2,2.37E2,1.47E2,9E1,1.76E2,6.1E1],"tree_param":{"num_deleted":"0","num_feature":"6","num_nodes":"7","size_leaf_vector":"1"}},{"base_weights":[-1.5751204E-1,-1.0100828E0,1.0097241E0,-1.609344E-2,-4.5374557E-3,6.236019E-3,1.6500948E-2],"categories":[],"categories_nodes":[],"categories_segments":[],"categories_sizes":[],"default_left":[0,0,0,0,0,0,0],"id":114,"left_children":[1,3,5,-1,-1,-1,-1],"loss_changes":[4.7371683E2,9.095239E1,4.8670517E1,0E0,0E0,0E0,0E0],"parents":[2147483647,0,0,1,1,2,2],"right_children":[2,4,6,-1,-1,-1,-1],"split_conditions":[6.1E1,3.5E1,9.2E1,-1.609344E-2,-4.5374557E-3,6.236019E-3,1.6500948E-2],"split_indices":[0,0,0,0,0,0,0],"split_type":[0,0,0,0,0,0,0],"sum_hessian":[4.74E2,2.74E2,2E2,1.31E2,1.43E2,1.26E2,7.4E1],"tree_param":{"num_deleted":"0","num_feature":"6","num_nodes":"7","size_leaf_vector":"1"}},{"base_weights":[6.787871E-1,-3.8975823E-1,1.3739529E0,-8.92027E-3,-1.2947855E-3,7.988201E-3,1.7407596E-2],"categories":[],"categories_nodes":[],"categories_segments":[],"categories_sizes":[],"default_left":[0,0,0,0,0,0,0],"id":115,"left_children":[1,3,5,-1,-1,-1,-1],"loss_changes":[3.5337317E2,2.4461811E1,5.936664E1,0E0,0E0,0E0,0E0],"parents":[2147483647,0,0,1,1,2,2],"right_children":[2,4,6,-1,-1,-1,-1],"split_conditions":[6.2E1,3.9E1,8.3E1,-8.92027E-3,-1.2947855E-3,7.988201E-3,1.7407596E-2],"split_indices":[1,1,1,0,0,0,0],"split_type":[0,0,0,0,0,0,0],"sum_hessian":[4.74E2,1.87E2,2.87E2,6.3E1,1.24E2,1.13E2,1.74E2],"tree_param":{"num_deleted":"0","num_feature":"6","num_nodes":"7","size_leaf_vector":"1"}},{"base_weights":[-3.114652E-1,-1.3717321E0,4.848801E-1,-1.9697122E-2,-9.859213E-3,4.9170654E-4,1.2220795E-2],"categories":[],"categories_nodes":[],"categories_segments":[],"categories_sizes":[],"default_left":[0,0,0,0,0,0,0],"id":116,"left_children":[1,3,5,-1,-1,-1,-1],"loss_changes":[4.0172595E2,4.5122284E1,8.73076E1,0E0,0E0,0E0,0E0],"parents":[2147483647,0,0,1,1,2,2],"right_children":[2,4,6,-1,-1,-1,-1],"split_conditions":[4.3E1,2.1E1,7.3E1,-1.9697122E-2,-9.859213E-3,4.9170654E-4,1.2220795E-2],"split_indices":[2,2,2,0,0,0,0],"split_type":[0,0,0,0,0,0,0],"sum_hessian":[4.74E2,2.03E2,2.71E2,7.8E1,1.25E2,1.71E2,1E2],"tree_param":{"num_deleted":"0","num_feature":"6","num_nodes":"7","size_leaf_vector":"1"}},{"base_weights":[-3.8490817E-1,-1.2243681E0,5.298768E-1,-1.6991317E-2,-5.828653E-3,1.8834972E-3,1.4830135E-2],"categories":[],"categories_nodes":[],"categories_segments":[],"categories_sizes":[],"default_left":[0,0,0,0,0,0,0],"id":117,"left_children":[1,3,5,-1,-1,-1,-1],"loss_changes":[3.6541333E2,7.454108E1,7.393969E1,0E0,0E0,0E0,0E0],"parents":[2147483647,0,0,1,1,2,2],"right_children":[2,4,6,-1,-1,-1,-1],"split_conditions":[4.6E1,3E1,8.3E1,-1.6991317E-2,-5.828653E-3,1.8834972E-3,1.4830135E-2],"split_indices":[3,3,3,0,0,0,0],"split_type":[0,0,0,0,0,0,0],"sum_hessian":[4.74E2,2.47E2,2.27E2,1.41E2,1.06E2,1.68E2,5.9E1],"tree_param":{"num_deleted":"0","num_feature":"6","num_nodes":"7","size_leaf_vector":"1"}},{"base_weights":[4.9647692E-1,-5.229951E-1,1.2145396E0,-1.5411353E-2,-1.7549512E-3,6.365494E-3,1.6728252E-2],"categories":[],"categories_nodes":[],"categories_segments":[],"categories_sizes":[],"default_left":[0,0,0,0,0,0,0],"id":118,"left_children":[1,3,5,-1,-1,-1,-1],"loss_changes":[3.4835657E2,6.942888E1,7.283795E1,0E0,0E0,0E0,0E0],"parents":[2147483647,0,0,1,1,2,2],"right_children":[2,4,6,-1,-1,-1,-1],"split_conditions":[6.1E1,3E1,8.3E1,-1.5411353E-2,-1.7549512E-3,6.365494E-3,1.6728252E-2],"split_indices":[4,4,4,0,0,0,0],"split_type":[0,0,0,0,0,0,0],"sum_hessian":[4.74E2,1.96E2,2.78E2,4.9E1,1.47E2,1.24E2,1.54E2],"tree_param":{"num_deleted":"0","num_feature":"6","num_nodes":"7","size_leaf_vector":"1"}},{"base_weights":[-3.2174775E-1,-1.2868571E0,6.447135E-1,-1.7003238E-2,-6.0026436E-3,1.4314689E-3,1.1890216E-2],"categories":[],"categories_nodes":[],"categories_segments":[],"categories_sizes":[],"default_left":[0,0,0,0,0,0,0],"id":119,"left_children":[1,3,5,-1,-1,-1,-1],"loss_changes":[4.4388156E2,6.654358E1,6.480542E1,0E0,0E0,0E0,0E0],"parents":[2147483647,0,0,1,1,2,2],"right_children":[2,4,6,-1,-1,-1,-1],"split_conditions":[5.1E1,3.5E1,7.5E1,-1.7003238E-2,-6.0026436E-3,1.4314689E-3,1.1890216E-2],"split_indices":[5,5,5,0,0,0,0],"split_type":[0,0,0,0,0,0,0],"sum_hessian":[4.74E2,2.37E2,2.37E2,1.47E2,9E1,1.24E2,1.13E2],"tree_param":{"num_deleted":"0","num_feature":"6","num_nodes":"7","size_leaf_vector":"1"}},{"base_weights":[-1.5593252E-1,-1.2441493E0,7.410887E-1,-1.8504776E-2,-8.9242635E-3,2.0480903E-3,1.3892512E-2],"categories":[],"categories_nodes":[],"categories_segments":[],"categories_sizes":[],"default_left":[0,0,0,0,0,0,0],"id":120,"left_children":[1,3,5,-1,-1,-1,-1],"loss_changes":[4.6459497E2,4.41994E1,9.0438126E1,0E0,0E0,0E0,0E0],"parents":[2147483647,0,0,1,1,2,2],"right_children":[2,4,6,-1,-1,-1,-1],"split_conditions":[5E1,2.3E1,8E1,-1.8504776E-2,-8.9242635E-3,2.0480903E-3,1.3892512E-2],"split_indices":[0,0,0,0,0,0,0],"split_type":[0,0,0,0,0,0,0],"sum_hessian":[4.74E2,2.14E2,2.6E2,7.7E1,1.37E2,1.43E2,1.17E2],"tree_param":{"num_deleted":"0","num_feature":"6","num_nodes":"7","size_leaf_vector":"1"}},{"base_weights":[6.7203116E-1,-8.4839866E-2,1.6357275E0,-5.7388903E-3,4.8377234E-3,1.4193553E-2,2.0277226E-2],"categories":[],"categories_nodes":[],"categories_segments":[],"categories_sizes":[],"default_left":[0,0,0,0,0,0,0],"id":121,"left_children":[1,3,5,-1,-1,-1,-1],"loss_changes":[3.4660086E2,7.45248E1,1.4848694E1,0E0,0E0,0E0,0E0],"parents":[2147483647,0,0,1,1,2,2],"right_children":[2,4,6,-1,-1,-1,-1],"split_conditions":[7.5E1,5.2E1,1.08E2,-5.7388903E-3,4.8377234E-3,1.4193553E-2,2.0277226E-2],"split_indices":[1,1,1,0,0,0,0],"split_type":[0,0,0,0,0,0,0],"sum_hessian":[4.74E2,2.66E2,2.08E2,1.43E2,1.23E2,1.37E2,7.1E1],"tree_param":{"num_deleted":"0","num_feature":"6","num_nodes":"7","size_leaf_vector":"1"}},{"base_weights":[-3.0838594E-1,-1.1550568E0,6.6993743E-1,-1.8227309E-2,-7.1253977E-3,3.9426656E-3,1.6552873E-2],"categories":[],"categories_nodes":[],"categories_segments":[],"categories_sizes":[],"default_left":[0,0,0,0,0,0,0],"id":122,"left_children":[1,3,5,-1,-1,-1,-1],"loss_changes":[3.9422485E2,7.4042816E1,5.937809E1,0E0,0E0,0E0,0E0],"parents":[2147483647,0,0,1,1,2,2],"right_children":[2,4,6,-1,-1,-1,-1],"split_conditions":[5E1,2.5E1,8.9E1,-1.8227309E-2,-7.1253977E-3,3.9426656E-3,1.6552873E-2],"split_indices":[2,2,3,0,0,0,0],"split_type":[0,0,0,0,0,0,0],"sum_hessian":[4.74E2,2.54E2,2.2E2,1E2,1.54E2,1.73E2,4.7E1],"tree_param":{"num_deleted":"0","num_feature":"6","num_nodes":"7","size_leaf_vector":"1"}},{"base_weights":[-3.8107193E-1,-1.2122165E0,5.2465135E-1,-1.9621383E-2,-8.091152E-3,1.8647736E-3,1.4684306E-2],"categories":[],"categories_nodes":[],"categories_segments":[],"categories_sizes":[],"default_left":[0,0,0,0,0,0,0],"id":123,"left_children":[1,3,5,-1,-1,-1,-1],"loss_changes":[3.582098E2,7.338141E1,7.249501E1,0E0,0E0,0E0,0E0],"parents":[2147483647,0,0,1,1,2,2],"right_children":[2,4,6,-1,-1,-1,-1],"split_conditions":[4.6E1,2E1,8.3E1,-1.9621383E-2,-8.091152E-3,1.8647736E-3,1.4684306E-2],"split_indices":[3,3,3,0,0,0,0],"split_type":[0,0,0,0,0,0,0],"sum_hessian":[4.74E2,2.47E2,2.27E2,8.5E1,1.62E2,1.68E2,5.9E1],"tree_param":{"num_deleted":"0","num_feature":"6","num_nodes":"7","size_leaf_vector":"1"}},{"base_weights":[4.9152467E-1,-5.178523E-1,1.2024771E0,-1.4997296E-2,-1.6459562E-3,6.3023474E-3,1.6562048E-2],"categories":[],"categories_nodes":[],"categories_segments":[],"categories_sizes":[],"default_left":[0,0,0,0,0,0,0],"id":124,"left_children":[1,3,5,-1,-1,-1,-1],"loss_changes":[3.4149173E2,6.808353E1,7.139639E1,0E0,0E0,0E0,0E0],"parents":[2147483647,0,0,1,1,2,2],"right_children":[2,4,6,-1,-1,-1,-1],"split_conditions":[6.1E1,3.1E1,8.3E1,-1.4997296E-2,-1.6459562E-3,6.3023474E-3,1.6562048E-2],"split_indices":[4,4,4,0,0,0,0],"split_type":[0,0,0,0,0,0,0],"sum_hessian":[4.74E2,1.96E2,2.78E2,5.1E1,1.45E2,1.24E2,1.54E2],"tree_param":{"num_deleted":"0","num_feature":"6","num_nodes":"7","size_leaf_vector":"1"}},{"base_weights":[-3.1855062E-1,-1.3321757E0,5.837136E-1,-2.0349111E-2,-9.719268E-3,4.6059125E-4,1.1296021E-2],"categories":[],"categories_nodes":[],"categories_segments":[],"categories_sizes":[],"default_left":[0,0,0,0,0,0,0],"id":125,"left_children":[1,3,5,-1,-1,-1,-1],"loss_changes":[4.351925E2,5.472998E1,7.3909805E1,0E0,0E0,0E0,0E0],"parents":[2147483647,0,0,1,1,2,2],"right_children":[2,4,6,-1,-1,-1,-1],"split_conditions":[4.9E1,1.9E1,7.2E1,-2.0349111E-2,-9.719268E-3,4.6059125E-4,1.1296021E-2],"split_indices":[5,5,5,0,0,0,0],"split_type":[0,0,0,0,0,0,0],"sum_hessian":[4.74E2,2.23E2,2.51E2,7.4E1,1.49E2,1.27E2,1.24E2],"tree_param":{"num_deleted":"0","num_feature":"6","num_nodes":"7","size_leaf_vector":"1"}},{"base_weights":[-1.5439732E-1,-9.908766E-1,9.9080765E-1,-1.578927E-2,-4.449493E-3,6.1137276E-3,1.6201066E-2],"categories":[],"categories_nodes":[],"categories_segments":[],"categories_sizes":[],"default_left":[0,0,0,0,0,0,0],"id":126,"left_children":[1,3,5,-1,-1,-1,-1],"loss_changes":[4.560034E2,8.758148E1,4.700389E1,0E0,0E0,0E0,0E0],"parents":[2147483647,0,0,1,1,2,2],"right_children":[2,4,6,-1,-1,-1,-1],"split_conditions":[6.1E1,3.5E1,9.2E1,-1.578927E-2,-4.449493E-3,6.1137276E-3,1.6201066E-2],"split_indices":[0,0,0,0,0,0,0],"split_type":[0,0,0,0,0,0,0],"sum_hessian":[4.74E2,2.74E2,2E2,1.31E2,1.43E2,1.26E2,7.4E1],"tree_param":{"num_deleted":"0","num_feature":"6","num_nodes":"7","size_leaf_vector":"1"}},{"base_weights":[6.6538155E-1,-2.8779185E-1,1.4153855E0,-5.6818984E-3,3.1915011E-3,8.455451E-3,1.7068708E-2],"categories":[],"categories_nodes":[],"categories_segments":[],"categories_sizes":[],"default_left":[0,0,0,0,0,0,0],"id":127,"left_children":[1,3,5,-1,-1,-1,-1],"loss_changes":[3.399771E2,3.5920258E1,4.273944E1,0E0,0E0,0E0,0E0],"parents":[2147483647,0,0,1,1,2,2],"right_children":[2,4,6,-1,-1,-1,-1],"split_conditions":[6.6E1,5.2E1,8.3E1,-5.6818984E-3,3.1915011E-3,8.455451E-3,1.7068708E-2],"split_indices":[1,1,1,0,0,0,0],"split_type":[0,0,0,0,0,0,0],"sum_hessian":[4.74E2,2.09E2,2.65E2,1.43E2,6.6E1,9.1E1,1.74E2],"tree_param":{"num_deleted":"0","num_feature":"6","num_nodes":"7","size_leaf_vector":"1"}},